digraph Tree {
node [shape=box] ;
0 [label="X[3] <= 0.5\ngini = 0.219\nsamples = 30345\nvalue = [1479, 1972, 26704, 190]"] ;
1 [label="X[0] <= 0.5\ngini = 0.219\nsamples = 27915\nvalue = [1366, 1817, 24566, 166]"] ;
0 -> 1 [labeldistance=2.5, labelangle=45, headlabel="True"] ;
2 [label="gini = 0.22\nsamples = 6187\nvalue = [300, 413, 5441, 33]"] ;
1 -> 2 ;
3 [label="gini = 0.219\nsamples = 21728\nvalue = [1066, 1404, 19125, 133]"] ;
1 -> 3 ;
4 [label="gini = 0.22\nsamples = 2430\nvalue = [113, 155, 2138, 24]"] ;
0 -> 4 [labeldistance=2.5, labelangle=-45, headlabel="False"] ;
}