digraph Tree {
node [shape=box] ;
0 [label="X[3] <= 0.5\ngini = 0.216\nsamples = 35814\nvalue = [1694, 2322, 31574, 224]"] ;
1 [label="X[0] <= 0.5\ngini = 0.217\nsamples = 32917\nvalue = [1565, 2149, 28996, 207]"] ;
0 -> 1 [labeldistance=2.5, labelangle=45, headlabel="True"] ;
2 [label="gini = 0.21\nsamples = 7313\nvalue = [318, 480, 6474, 41]"] ;
1 -> 2 ;
3 [label="gini = 0.22\nsamples = 25604\nvalue = [1247, 1669, 22522, 166]"] ;
1 -> 3 ;
4 [label="gini = 0.203\nsamples = 2897\nvalue = [129, 173, 2578, 17]"] ;
0 -> 4 [labeldistance=2.5, labelangle=-45, headlabel="False"] ;
}