digraph Tree {
node [shape=box] ;
0 [label="X[3] <= 0.5\ngini = 0.214\nsamples = 22112\nvalue = [1071, 1352, 19527, 162]"] ;
1 [label="X[0] <= 0.5\ngini = 0.215\nsamples = 20348\nvalue = [987, 1253, 17962, 146]"] ;
0 -> 1 [labeldistance=2.5, labelangle=45, headlabel="True"] ;
2 [label="gini = 0.219\nsamples = 4417\nvalue = [222, 266, 3889, 40]"] ;
1 -> 2 ;
3 [label="gini = 0.213\nsamples = 15931\nvalue = [765, 987, 14073, 106]"] ;
1 -> 3 ;
4 [label="gini = 0.207\nsamples = 1764\nvalue = [84, 99, 1565, 16]"] ;
0 -> 4 [labeldistance=2.5, labelangle=-45, headlabel="False"] ;
}