digraph Tree {
node [shape=box] ;
0 [label="X[3] <= 0.5\ngini = 0.75\nsamples = 41060\nvalue = [15619, 7076, 7298, 3056, 8011]"] ;
1 [label="X[0] <= 0.5\ngini = 0.704\nsamples = 21941\nvalue = [10285, 3279, 4083, 1760, 2534]"] ;
0 -> 1 [labeldistance=2.5, labelangle=45, headlabel="True"] ;
2 [label="X[2] <= 0.5\ngini = 0.774\nsamples = 1758\nvalue = [395, 520, 410, 143, 290]"] ;
1 -> 2 ;
3 [label="gini = 0.772\nsamples = 1583\nvalue = [338, 491, 362, 134, 258]"] ;
2 -> 3 ;
4 [label="gini = 0.755\nsamples = 175\nvalue = [57, 29, 48, 9, 32]"] ;
2 -> 4 ;
5 [label="X[2] <= 0.5\ngini = 0.689\nsamples = 20183\nvalue = [9890, 2759, 3673, 1617, 2244]"] ;
1 -> 5 ;
6 [label="gini = 0.686\nsamples = 19861\nvalue = [9847, 2704, 3523, 1608, 2179]"] ;
5 -> 6 ;
7 [label="X[1] <= 0.5\ngini = 0.694\nsamples = 322\nvalue = [43, 55, 150, 9, 65]"] ;
5 -> 7 ;
8 [label="gini = 0.695\nsamples = 321\nvalue = [43, 55, 149, 9, 65]"] ;
7 -> 8 ;
9 [label="gini = 0.0\nsamples = 1\nvalue = [0, 0, 1, 0, 0]"] ;
7 -> 9 ;
10 [label="X[2] <= 0.5\ngini = 0.768\nsamples = 19119\nvalue = [5334, 3797, 3215, 1296, 5477]"] ;
0 -> 10 [labeldistance=2.5, labelangle=-45, headlabel="False"] ;
11 [label="X[0] <= 0.5\ngini = 0.763\nsamples = 18174\nvalue = [5331, 3657, 2582, 1295, 5309]"] ;
10 -> 11 ;
12 [label="gini = 0.592\nsamples = 163\nvalue = [4, 94, 29, 2, 34]"] ;
11 -> 12 ;
13 [label="gini = 0.762\nsamples = 18011\nvalue = [5327, 3563, 2553, 1293, 5275]"] ;
11 -> 13 ;
14 [label="X[1] <= 0.5\ngini = 0.498\nsamples = 945\nvalue = [3, 140, 633, 1, 168]"] ;
10 -> 14 ;
15 [label="X[0] <= 0.5\ngini = 0.662\nsamples = 367\nvalue = [0, 121, 140, 0, 106]"] ;
14 -> 15 ;
16 [label="gini = 0.568\nsamples = 9\nvalue = [0, 1, 3, 0, 5]"] ;
15 -> 16 ;
17 [label="gini = 0.662\nsamples = 358\nvalue = [0, 120, 137, 0, 101]"] ;
15 -> 17 ;
18 [label="X[0] <= 0.5\ngini = 0.26\nsamples = 578\nvalue = [3, 19, 493, 1, 62]"] ;
14 -> 18 ;
19 [label="gini = 0.0\nsamples = 3\nvalue = [0, 3, 0, 0, 0]"] ;
18 -> 19 ;
20 [label="gini = 0.252\nsamples = 575\nvalue = [3, 16, 493, 1, 62]"] ;
18 -> 20 ;
}