digraph Tree {
node [shape=box] ;
0 [label="X[0] <= 0.5\ngini = 0.593\nsamples = 949\nvalue = [10, 451, 392, 96]"] ;
1 [label="gini = 0.578\nsamples = 374\nvalue = [5, 175, 166, 28]"] ;
0 -> 1 [labeldistance=2.5, labelangle=45, headlabel="True"] ;
2 [label="X[3] <= 0.5\ngini = 0.601\nsamples = 575\nvalue = [5, 276, 226, 68]"] ;
0 -> 2 [labeldistance=2.5, labelangle=-45, headlabel="False"] ;
3 [label="gini = 0.602\nsamples = 540\nvalue = [5, 262, 208, 65]"] ;
2 -> 3 ;
4 [label="gini = 0.568\nsamples = 35\nvalue = [0, 14, 18, 3]"] ;
2 -> 4 ;
}