digraph Tree {
node [shape=box] ;
0 [label="X[1] <= 0.5\ngini = 0.559\nsamples = 18612\nvalue = [11694, 3197, 1905, 1357, 459]"] ;
1 [label="X[2] <= 0.5\ngini = 0.497\nsamples = 13342\nvalue = [9199, 1074, 1539, 1105, 425]"] ;
0 -> 1 [labeldistance=2.5, labelangle=45, headlabel="True"] ;
2 [label="X[0] <= 0.5\ngini = 0.399\nsamples = 10275\nvalue = [7870, 783, 576, 697, 349]"] ;
1 -> 2 ;
3 [label="gini = 0.24\nsamples = 2384\nvalue = [2072, 82, 102, 93, 35]"] ;
2 -> 3 ;
4 [label="X[3] <= 0.5\ngini = 0.441\nsamples = 7891\nvalue = [5798, 701, 474, 604, 314]"] ;
2 -> 4 ;
5 [label="gini = 0.441\nsamples = 7888\nvalue = [5795, 701, 474, 604, 314]"] ;
4 -> 5 ;
6 [label="gini = 0.0\nsamples = 3\nvalue = [3, 0, 0, 0, 0]"] ;
4 -> 6 ;
7 [label="X[0] <= 0.5\ngini = 0.686\nsamples = 3067\nvalue = [1329, 291, 963, 408, 76]"] ;
1 -> 7 ;
8 [label="gini = 0.685\nsamples = 1000\nvalue = [359, 117, 403, 97, 24]"] ;
7 -> 8 ;
9 [label="gini = 0.676\nsamples = 2067\nvalue = [970, 174, 560, 311, 52]"] ;
7 -> 9 ;
10 [label="X[2] <= 0.5\ngini = 0.606\nsamples = 5270\nvalue = [2495, 2123, 366, 252, 34]"] ;
0 -> 10 [labeldistance=2.5, labelangle=-45, headlabel="False"] ;
11 [label="X[4] <= 0.5\ngini = 0.599\nsamples = 4817\nvalue = [2164, 2123, 256, 244, 30]"] ;
10 -> 11 ;
12 [label="gini = 0.571\nsamples = 29\nvalue = [0, 17, 6, 6, 0]"] ;
11 -> 12 ;
13 [label="X[0] <= 0.5\ngini = 0.597\nsamples = 4788\nvalue = [2164, 2106, 250, 238, 30]"] ;
11 -> 13 ;
14 [label="gini = 0.613\nsamples = 1024\nvalue = [409, 479, 39, 85, 12]"] ;
13 -> 14 ;
15 [label="gini = 0.591\nsamples = 3764\nvalue = [1755, 1627, 211, 153, 18]"] ;
13 -> 15 ;
16 [label="X[0] <= 0.5\ngini = 0.407\nsamples = 453\nvalue = [331, 0, 110, 8, 4]"] ;
10 -> 16 ;
17 [label="gini = 0.559\nsamples = 78\nvalue = [38, 0, 35, 3, 2]"] ;
16 -> 17 ;
18 [label="gini = 0.349\nsamples = 375\nvalue = [293, 0, 75, 5, 2]"] ;
16 -> 18 ;
}