digraph Tree {
node [shape=box] ;
0 [label="X[3] <= 0.5\ngini = 0.787\nsamples = 2400\nvalue = [328, 687, 381, 523, 481]"] ;
1 [label="X[1] <= 0.5\ngini = 0.79\nsamples = 939\nvalue = [135, 257, 160, 199, 188]"] ;
0 -> 1 [labeldistance=2.5, labelangle=45, headlabel="True"] ;
2 [label="X[0] <= 0.5\ngini = 0.796\nsamples = 214\nvalue = [35, 50, 38, 42, 49]"] ;
1 -> 2 ;
3 [label="X[2] <= 0.5\ngini = 0.773\nsamples = 33\nvalue = [8, 7, 10, 5, 3]"] ;
2 -> 3 ;
4 [label="gini = 0.76\nsamples = 10\nvalue = [2, 3, 3, 1, 1]"] ;
3 -> 4 ;
5 [label="gini = 0.771\nsamples = 23\nvalue = [6, 4, 7, 4, 2]"] ;
3 -> 5 ;
6 [label="X[2] <= 0.5\ngini = 0.791\nsamples = 181\nvalue = [27, 43, 28, 37, 46]"] ;
2 -> 6 ;
7 [label="gini = 0.777\nsamples = 52\nvalue = [5, 10, 11, 10, 16]"] ;
6 -> 7 ;
8 [label="gini = 0.79\nsamples = 129\nvalue = [22, 33, 17, 27, 30]"] ;
6 -> 8 ;
9 [label="X[0] <= 0.5\ngini = 0.787\nsamples = 725\nvalue = [100, 207, 122, 157, 139]"] ;
1 -> 9 ;
10 [label="X[2] <= 0.5\ngini = 0.79\nsamples = 173\nvalue = [29, 49, 28, 34, 33]"] ;
9 -> 10 ;
11 [label="gini = 0.79\nsamples = 23\nvalue = [4, 5, 5, 3, 6]"] ;
10 -> 11 ;
12 [label="gini = 0.788\nsamples = 150\nvalue = [25, 44, 23, 31, 27]"] ;
10 -> 12 ;
13 [label="X[2] <= 0.5\ngini = 0.786\nsamples = 552\nvalue = [71, 158, 94, 123, 106]"] ;
9 -> 13 ;
14 [label="gini = 0.775\nsamples = 136\nvalue = [16, 42, 21, 35, 22]"] ;
13 -> 14 ;
15 [label="gini = 0.788\nsamples = 416\nvalue = [55, 116, 73, 88, 84]"] ;
13 -> 15 ;
16 [label="X[0] <= 0.5\ngini = 0.784\nsamples = 1461\nvalue = [193, 430, 221, 324, 293]"] ;
0 -> 16 [labeldistance=2.5, labelangle=-45, headlabel="False"] ;
17 [label="X[1] <= 0.5\ngini = 0.787\nsamples = 431\nvalue = [59, 117, 62, 94, 99]"] ;
16 -> 17 ;
18 [label="X[2] <= 0.5\ngini = 0.787\nsamples = 148\nvalue = [24, 43, 21, 29, 31]"] ;
17 -> 18 ;
19 [label="gini = 0.787\nsamples = 74\nvalue = [10, 16, 11, 17, 20]"] ;
18 -> 19 ;
20 [label="gini = 0.764\nsamples = 74\nvalue = [14, 27, 10, 12, 11]"] ;
18 -> 20 ;
21 [label="X[2] <= 0.5\ngini = 0.785\nsamples = 283\nvalue = [35, 74, 41, 65, 68]"] ;
17 -> 21 ;
22 [label="gini = 0.779\nsamples = 83\nvalue = [8, 24, 14, 20, 17]"] ;
21 -> 22 ;
23 [label="gini = 0.785\nsamples = 200\nvalue = [27, 50, 27, 45, 51]"] ;
21 -> 23 ;
24 [label="X[2] <= 0.5\ngini = 0.782\nsamples = 1030\nvalue = [134, 313, 159, 230, 194]"] ;
16 -> 24 ;
25 [label="X[1] <= 0.5\ngini = 0.775\nsamples = 288\nvalue = [36, 95, 42, 59, 56]"] ;
24 -> 25 ;
26 [label="gini = 0.753\nsamples = 94\nvalue = [9, 33, 13, 26, 13]"] ;
25 -> 26 ;
27 [label="gini = 0.778\nsamples = 194\nvalue = [27, 62, 29, 33, 43]"] ;
25 -> 27 ;
28 [label="X[1] <= 0.5\ngini = 0.784\nsamples = 742\nvalue = [98, 218, 117, 171, 138]"] ;
24 -> 28 ;
29 [label="gini = 0.782\nsamples = 206\nvalue = [25, 59, 31, 49, 42]"] ;
28 -> 29 ;
30 [label="gini = 0.784\nsamples = 536\nvalue = [73, 159, 86, 122, 96]"] ;
28 -> 30 ;
}