digraph Tree {
node [shape=box] ;
0 [label="X[1] <= 0.5\ngini = 0.557\nsamples = 26894\nvalue = [16879, 5020, 2412, 2014, 569]"] ;
1 [label="X[2] <= 0.5\ngini = 0.488\nsamples = 18939\nvalue = [13197, 1662, 1890, 1662, 528]"] ;
0 -> 1 [labeldistance=2.5, labelangle=45, headlabel="True"] ;
2 [label="X[0] <= 0.5\ngini = 0.39\nsamples = 15008\nvalue = [11580, 1276, 755, 982, 415]"] ;
1 -> 2 ;
3 [label="gini = 0.222\nsamples = 4125\nvalue = [3628, 110, 226, 122, 39]"] ;
2 -> 3 ;
4 [label="X[3] <= 0.5\ngini = 0.445\nsamples = 10883\nvalue = [7952, 1166, 529, 860, 376]"] ;
2 -> 4 ;
5 [label="gini = 0.445\nsamples = 10880\nvalue = [7949, 1166, 529, 860, 376]"] ;
4 -> 5 ;
6 [label="gini = 0.0\nsamples = 3\nvalue = [3, 0, 0, 0, 0]"] ;
4 -> 6 ;
7 [label="X[0] <= 0.5\ngini = 0.707\nsamples = 3931\nvalue = [1617, 386, 1135, 680, 113]"] ;
1 -> 7 ;
8 [label="gini = 0.678\nsamples = 1584\nvalue = [603, 149, 627, 165, 40]"] ;
7 -> 8 ;
9 [label="gini = 0.707\nsamples = 2347\nvalue = [1014, 237, 508, 515, 73]"] ;
7 -> 9 ;
10 [label="X[2] <= 0.5\ngini = 0.601\nsamples = 7955\nvalue = [3682, 3358, 522, 352, 41]"] ;
0 -> 10 [labeldistance=2.5, labelangle=-45, headlabel="False"] ;
11 [label="X[3] <= 0.5\ngini = 0.592\nsamples = 7326\nvalue = [3224, 3357, 359, 345, 41]"] ;
10 -> 11 ;
12 [label="X[0] <= 0.5\ngini = 0.591\nsamples = 7280\nvalue = [3224, 3323, 358, 334, 41]"] ;
11 -> 12 ;
13 [label="gini = 0.607\nsamples = 1369\nvalue = [515, 676, 50, 108, 20]"] ;
12 -> 13 ;
14 [label="gini = 0.585\nsamples = 5911\nvalue = [2709, 2647, 308, 226, 21]"] ;
12 -> 14 ;
15 [label="gini = 0.396\nsamples = 46\nvalue = [0, 34, 1, 11, 0]"] ;
11 -> 15 ;
16 [label="X[0] <= 0.5\ngini = 0.403\nsamples = 629\nvalue = [458, 1, 163, 7, 0]"] ;
10 -> 16 ;
17 [label="gini = 0.471\nsamples = 136\nvalue = [88, 0, 45, 3, 0]"] ;
16 -> 17 ;
18 [label="gini = 0.379\nsamples = 493\nvalue = [370, 1, 118, 4, 0]"] ;
16 -> 18 ;
}