digraph Tree {
node [shape=box] ;
0 [label="X[3] <= 0.5\ngini = 0.778\nsamples = 23200\nvalue = [5705, 4379, 5685, 5706, 1725]"] ;
1 [label="X[0] <= 0.5\ngini = 0.777\nsamples = 20363\nvalue = [5652, 3910, 5225, 3922, 1654]"] ;
0 -> 1 [labeldistance=2.5, labelangle=45, headlabel="True"] ;
2 [label="X[1] <= 0.5\ngini = 0.728\nsamples = 2931\nvalue = [388, 647, 1248, 301, 347]"] ;
1 -> 2 ;
3 [label="gini = 0.727\nsamples = 2879\nvalue = [377, 632, 1229, 295, 346]"] ;
2 -> 3 ;
4 [label="X[2] <= 0.5\ngini = 0.725\nsamples = 52\nvalue = [11, 15, 19, 6, 1]"] ;
2 -> 4 ;
5 [label="gini = 0.611\nsamples = 6\nvalue = [1, 3, 2, 0, 0]"] ;
4 -> 5 ;
6 [label="gini = 0.731\nsamples = 46\nvalue = [10, 12, 17, 6, 1]"] ;
4 -> 6 ;
7 [label="X[2] <= 0.5\ngini = 0.773\nsamples = 17432\nvalue = [5264, 3263, 3977, 3621, 1307]"] ;
1 -> 7 ;
8 [label="gini = 0.623\nsamples = 271\nvalue = [10, 143, 32, 78, 8]"] ;
7 -> 8 ;
9 [label="X[1] <= 0.5\ngini = 0.772\nsamples = 17161\nvalue = [5254, 3120, 3945, 3543, 1299]"] ;
7 -> 9 ;
10 [label="gini = 0.772\nsamples = 16842\nvalue = [5148, 3051, 3891, 3455, 1297]"] ;
9 -> 10 ;
11 [label="gini = 0.738\nsamples = 319\nvalue = [106, 69, 54, 88, 2]"] ;
9 -> 11 ;
12 [label="X[0] <= 0.5\ngini = 0.55\nsamples = 2837\nvalue = [53, 469, 460, 1784, 71]"] ;
0 -> 12 [labeldistance=2.5, labelangle=-45, headlabel="False"] ;
13 [label="X[2] <= 0.5\ngini = 0.661\nsamples = 378\nvalue = [10, 68, 180, 105, 15]"] ;
12 -> 13 ;
14 [label="gini = 0.611\nsamples = 6\nvalue = [1, 3, 2, 0, 0]"] ;
13 -> 14 ;
15 [label="X[1] <= 0.5\ngini = 0.659\nsamples = 372\nvalue = [9, 65, 178, 105, 15]"] ;
13 -> 15 ;
16 [label="gini = 0.659\nsamples = 351\nvalue = [8, 61, 168, 99, 15]"] ;
15 -> 16 ;
17 [label="gini = 0.653\nsamples = 21\nvalue = [1, 4, 10, 6, 0]"] ;
15 -> 17 ;
18 [label="X[2] <= 0.5\ngini = 0.493\nsamples = 2459\nvalue = [43, 401, 280, 1679, 56]"] ;
12 -> 18 ;
19 [label="gini = 0.356\nsamples = 148\nvalue = [1, 16, 13, 117, 1]"] ;
18 -> 19 ;
20 [label="X[1] <= 0.5\ngini = 0.501\nsamples = 2311\nvalue = [42, 385, 267, 1562, 55]"] ;
18 -> 20 ;
21 [label="gini = 0.493\nsamples = 2212\nvalue = [41, 353, 253, 1513, 52]"] ;
20 -> 21 ;
22 [label="gini = 0.63\nsamples = 99\nvalue = [1, 32, 14, 49, 3]"] ;
20 -> 22 ;
}