digraph Tree {
node [shape=box] ;
0 [label="X[1] <= 0.5\ngini = 0.748\nsamples = 43146\nvalue = [11386, 9284, 2737, 14933, 4806]"] ;
1 [label="X[0] <= 0.5\ngini = 0.746\nsamples = 41475\nvalue = [11110, 8547, 2610, 14555, 4653]"] ;
0 -> 1 [labeldistance=2.5, labelangle=45, headlabel="True"] ;
2 [label="X[4] <= 0.5\ngini = 0.715\nsamples = 238\nvalue = [91, 45, 8, 73, 21]"] ;
1 -> 2 ;
3 [label="gini = 0.753\nsamples = 43\nvalue = [12, 8, 2, 14, 7]"] ;
2 -> 3 ;
4 [label="gini = 0.702\nsamples = 195\nvalue = [79, 37, 6, 59, 14]"] ;
2 -> 4 ;
5 [label="X[3] <= 0.5\ngini = 0.746\nsamples = 41237\nvalue = [11019, 8502, 2602, 14482, 4632]"] ;
1 -> 5 ;
6 [label="gini = 0.746\nsamples = 41185\nvalue = [11001, 8489, 2600, 14470, 4625]"] ;
5 -> 6 ;
7 [label="gini = 0.745\nsamples = 52\nvalue = [18, 13, 2, 12, 7]"] ;
5 -> 7 ;
8 [label="X[3] <= 0.5\ngini = 0.713\nsamples = 1671\nvalue = [276, 737, 127, 378, 153]"] ;
0 -> 8 [labeldistance=2.5, labelangle=-45, headlabel="False"] ;
9 [label="X[2] <= 0.5\ngini = 0.691\nsamples = 1316\nvalue = [202, 630, 91, 276, 117]"] ;
8 -> 9 ;
10 [label="X[0] <= 0.5\ngini = 0.611\nsamples = 744\nvalue = [93, 431, 36, 130, 54]"] ;
9 -> 10 ;
11 [label="gini = 0.656\nsamples = 8\nvalue = [2, 4, 1, 0, 1]"] ;
10 -> 11 ;
12 [label="gini = 0.609\nsamples = 736\nvalue = [91, 427, 35, 130, 53]"] ;
10 -> 12 ;
13 [label="X[0] <= 0.5\ngini = 0.756\nsamples = 572\nvalue = [109, 199, 55, 146, 63]"] ;
9 -> 13 ;
14 [label="gini = 0.767\nsamples = 95\nvalue = [18, 31, 8, 23, 15]"] ;
13 -> 14 ;
15 [label="gini = 0.753\nsamples = 477\nvalue = [91, 168, 47, 123, 48]"] ;
13 -> 15 ;
16 [label="X[2] <= 0.5\ngini = 0.763\nsamples = 355\nvalue = [74, 107, 36, 102, 36]"] ;
8 -> 16 ;
17 [label="X[0] <= 0.5\ngini = 0.767\nsamples = 209\nvalue = [54, 47, 20, 64, 24]"] ;
16 -> 17 ;
18 [label="gini = 0.719\nsamples = 43\nvalue = [9, 13, 3, 16, 2]"] ;
17 -> 18 ;
19 [label="gini = 0.773\nsamples = 166\nvalue = [45, 34, 17, 48, 22]"] ;
17 -> 19 ;
20 [label="X[0] <= 0.5\ngini = 0.726\nsamples = 146\nvalue = [20, 60, 16, 38, 12]"] ;
16 -> 20 ;
21 [label="gini = 0.735\nsamples = 20\nvalue = [4, 7, 1, 6, 2]"] ;
20 -> 21 ;
22 [label="gini = 0.722\nsamples = 126\nvalue = [16, 53, 15, 32, 10]"] ;
20 -> 22 ;
}