digraph Tree {
node [shape=box] ;
0 [label="X[0] <= 0.5\ngini = 0.748\nsamples = 1312\nvalue = [344, 411, 351, 67, 139]"] ;
1 [label="X[2] <= 0.5\ngini = 0.266\nsamples = 67\nvalue = [1, 57, 6, 0, 3]"] ;
0 -> 1 [labeldistance=2.5, labelangle=45, headlabel="True"] ;
2 [label="X[3] <= 0.5\ngini = 0.124\nsamples = 61\nvalue = [1, 57, 0, 0, 3]"] ;
1 -> 2 ;
3 [label="gini = 0.13\nsamples = 58\nvalue = [1, 54, 0, 0, 3]"] ;
2 -> 3 ;
4 [label="gini = 0.0\nsamples = 3\nvalue = [0, 3, 0, 0, 0]"] ;
2 -> 4 ;
5 [label="gini = 0.0\nsamples = 6\nvalue = [0, 0, 6, 0, 0]"] ;
1 -> 5 ;
6 [label="X[2] <= 0.5\ngini = 0.752\nsamples = 1245\nvalue = [343, 354, 345, 67, 136]"] ;
0 -> 6 [labeldistance=2.5, labelangle=-45, headlabel="False"] ;
7 [label="X[1] <= 0.5\ngini = 0.265\nsamples = 68\nvalue = [58, 1, 1, 5, 3]"] ;
6 -> 7 ;
8 [label="X[4] <= 0.5\ngini = 0.46\nsamples = 10\nvalue = [7, 0, 0, 1, 2]"] ;
7 -> 8 ;
9 [label="gini = 0.0\nsamples = 6\nvalue = [6, 0, 0, 0, 0]"] ;
8 -> 9 ;
10 [label="gini = 0.625\nsamples = 4\nvalue = [1, 0, 0, 1, 2]"] ;
8 -> 10 ;
11 [label="X[3] <= 0.5\ngini = 0.221\nsamples = 58\nvalue = [51, 1, 1, 4, 1]"] ;
7 -> 11 ;
12 [label="gini = 0.232\nsamples = 55\nvalue = [48, 1, 1, 4, 1]"] ;
11 -> 12 ;
13 [label="gini = 0.0\nsamples = 3\nvalue = [3, 0, 0, 0, 0]"] ;
11 -> 13 ;
14 [label="X[1] <= 0.5\ngini = 0.75\nsamples = 1177\nvalue = [285, 353, 344, 62, 133]"] ;
6 -> 14 ;
15 [label="gini = 0.497\nsamples = 13\nvalue = [6, 0, 7, 0, 0]"] ;
14 -> 15 ;
16 [label="X[4] <= 0.5\ngini = 0.751\nsamples = 1164\nvalue = [279, 353, 337, 62, 133]"] ;
14 -> 16 ;
17 [label="gini = 0.611\nsamples = 6\nvalue = [3, 0, 1, 0, 2]"] ;
16 -> 17 ;
18 [label="gini = 0.75\nsamples = 1158\nvalue = [276, 353, 336, 62, 131]"] ;
16 -> 18 ;
}