digraph Tree {
node [shape=box] ;
0 [label="X[3] <= 0.5\ngini = 0.8\nsamples = 5600\nvalue = [1147, 1112, 1104, 1116, 1121]"] ;
1 [label="X[1] <= 0.5\ngini = 0.8\nsamples = 5004\nvalue = [1020, 984, 970, 1005, 1025]"] ;
0 -> 1 [labeldistance=2.5, labelangle=45, headlabel="True"] ;
2 [label="X[0] <= 0.5\ngini = 0.798\nsamples = 721\nvalue = [126, 132, 154, 151, 158]"] ;
1 -> 2 ;
3 [label="gini = 0.799\nsamples = 594\nvalue = [106, 112, 128, 119, 129]"] ;
2 -> 3 ;
4 [label="gini = 0.793\nsamples = 127\nvalue = [20, 20, 26, 32, 29]"] ;
2 -> 4 ;
5 [label="X[2] <= 0.5\ngini = 0.8\nsamples = 4283\nvalue = [894, 852, 816, 854, 867]"] ;
1 -> 5 ;
6 [label="X[0] <= 0.5\ngini = 0.799\nsamples = 1058\nvalue = [230, 196, 207, 215, 210]"] ;
5 -> 6 ;
7 [label="gini = 0.791\nsamples = 90\nvalue = [20, 13, 24, 15, 18]"] ;
6 -> 7 ;
8 [label="gini = 0.799\nsamples = 968\nvalue = [210, 183, 183, 200, 192]"] ;
6 -> 8 ;
9 [label="X[0] <= 0.5\ngini = 0.8\nsamples = 3225\nvalue = [664, 656, 609, 639, 657]"] ;
5 -> 9 ;
10 [label="gini = 0.798\nsamples = 185\nvalue = [36, 42, 33, 33, 41]"] ;
9 -> 10 ;
11 [label="gini = 0.8\nsamples = 3040\nvalue = [628, 614, 576, 606, 616]"] ;
9 -> 11 ;
12 [label="X[2] <= 0.5\ngini = 0.797\nsamples = 596\nvalue = [127, 128, 134, 111, 96]"] ;
0 -> 12 [labeldistance=2.5, labelangle=-45, headlabel="False"] ;
13 [label="X[0] <= 0.5\ngini = 0.78\nsamples = 78\nvalue = [10, 24, 18, 13, 13]"] ;
12 -> 13 ;
14 [label="gini = 0.0\nsamples = 1\nvalue = [0, 1, 0, 0, 0]"] ;
13 -> 14 ;
15 [label="gini = 0.782\nsamples = 77\nvalue = [10, 23, 18, 13, 13]"] ;
13 -> 15 ;
16 [label="X[1] <= 0.5\ngini = 0.797\nsamples = 518\nvalue = [117, 104, 116, 98, 83]"] ;
12 -> 16 ;
17 [label="X[0] <= 0.5\ngini = 0.792\nsamples = 112\nvalue = [25, 19, 30, 19, 19]"] ;
16 -> 17 ;
18 [label="gini = 0.75\nsamples = 4\nvalue = [1, 0, 1, 1, 1]"] ;
17 -> 18 ;
19 [label="gini = 0.792\nsamples = 108\nvalue = [24, 19, 29, 18, 18]"] ;
17 -> 19 ;
20 [label="X[0] <= 0.5\ngini = 0.797\nsamples = 406\nvalue = [92, 85, 86, 79, 64]"] ;
16 -> 20 ;
21 [label="gini = 0.793\nsamples = 115\nvalue = [29, 25, 24, 20, 17]"] ;
20 -> 21 ;
22 [label="gini = 0.798\nsamples = 291\nvalue = [63, 60, 62, 59, 47]"] ;
20 -> 22 ;
}