digraph Tree {
node [shape=box] ;
0 [label="X[2] <= 0.5\ngini = 0.749\nsamples = 898\nvalue = [265, 267, 223, 49, 94]"] ;
1 [label="X[0] <= 0.5\ngini = 0.641\nsamples = 208\nvalue = [89, 84, 2, 16, 17]"] ;
0 -> 1 [labeldistance=2.5, labelangle=45, headlabel="True"] ;
2 [label="X[1] <= 0.5\ngini = 0.539\nsamples = 104\nvalue = [17, 67, 0, 8, 12]"] ;
1 -> 2 ;
3 [label="gini = 0.579\nsamples = 25\nvalue = [15, 2, 0, 3, 5]"] ;
2 -> 3 ;
4 [label="X[4] <= 0.5\ngini = 0.311\nsamples = 79\nvalue = [2, 65, 0, 5, 7]"] ;
2 -> 4 ;
5 [label="gini = 0.444\nsamples = 3\nvalue = [0, 2, 0, 0, 1]"] ;
4 -> 5 ;
6 [label="gini = 0.302\nsamples = 76\nvalue = [2, 63, 0, 5, 6]"] ;
4 -> 6 ;
7 [label="X[1] <= 0.5\ngini = 0.485\nsamples = 104\nvalue = [72, 17, 2, 8, 5]"] ;
1 -> 7 ;
8 [label="gini = 0.062\nsamples = 31\nvalue = [30, 0, 0, 0, 1]"] ;
7 -> 8 ;
9 [label="X[4] <= 0.5\ngini = 0.599\nsamples = 73\nvalue = [42, 17, 2, 8, 4]"] ;
7 -> 9 ;
10 [label="gini = 0.5\nsamples = 4\nvalue = [2, 0, 0, 2, 0]"] ;
9 -> 10 ;
11 [label="gini = 0.591\nsamples = 69\nvalue = [40, 17, 2, 6, 4]"] ;
9 -> 11 ;
12 [label="X[1] <= 0.5\ngini = 0.747\nsamples = 690\nvalue = [176, 183, 221, 33, 77]"] ;
0 -> 12 [labeldistance=2.5, labelangle=-45, headlabel="False"] ;
13 [label="gini = 0.094\nsamples = 41\nvalue = [1, 0, 39, 1, 0]"] ;
12 -> 13 ;
14 [label="X[0] <= 0.5\ngini = 0.753\nsamples = 649\nvalue = [175, 183, 182, 32, 77]"] ;
12 -> 14 ;
15 [label="gini = 0.5\nsamples = 2\nvalue = [0, 0, 1, 0, 1]"] ;
14 -> 15 ;
16 [label="X[3] <= 0.5\ngini = 0.752\nsamples = 647\nvalue = [175, 183, 181, 32, 76]"] ;
14 -> 16 ;
17 [label="gini = 0.753\nsamples = 645\nvalue = [174, 183, 180, 32, 76]"] ;
16 -> 17 ;
18 [label="gini = 0.5\nsamples = 2\nvalue = [1, 0, 1, 0, 0]"] ;
16 -> 18 ;
}