digraph Tree {
node [shape=box] ;
0 [label="X[2] <= 0.5\ngini = 0.799\nsamples = 800\nvalue = [173, 138, 151, 172, 166]"] ;
1 [label="X[0] <= 0.5\ngini = 0.796\nsamples = 90\nvalue = [17, 18, 19, 14, 22]"] ;
0 -> 1 [labeldistance=2.5, labelangle=45, headlabel="True"] ;
2 [label="gini = 0.444\nsamples = 3\nvalue = [1, 0, 2, 0, 0]"] ;
1 -> 2 ;
3 [label="X[3] <= 0.5\ngini = 0.795\nsamples = 87\nvalue = [16, 18, 17, 14, 22]"] ;
1 -> 3 ;
4 [label="gini = 0.797\nsamples = 56\nvalue = [12, 11, 9, 11, 13]"] ;
3 -> 4 ;
5 [label="gini = 0.772\nsamples = 31\nvalue = [4, 7, 8, 3, 9]"] ;
3 -> 5 ;
6 [label="X[3] <= 0.5\ngini = 0.798\nsamples = 710\nvalue = [156, 120, 132, 158, 144]"] ;
0 -> 6 [labeldistance=2.5, labelangle=-45, headlabel="False"] ;
7 [label="X[1] <= 0.5\ngini = 0.797\nsamples = 353\nvalue = [70, 56, 69, 80, 78]"] ;
6 -> 7 ;
8 [label="X[0] <= 0.5\ngini = 0.776\nsamples = 47\nvalue = [6, 7, 8, 11, 15]"] ;
7 -> 8 ;
9 [label="gini = 0.694\nsamples = 7\nvalue = [1, 0, 1, 2, 3]"] ;
8 -> 9 ;
10 [label="gini = 0.782\nsamples = 40\nvalue = [5, 7, 7, 9, 12]"] ;
8 -> 10 ;
11 [label="X[0] <= 0.5\ngini = 0.798\nsamples = 306\nvalue = [64, 49, 61, 69, 63]"] ;
7 -> 11 ;
12 [label="gini = 0.794\nsamples = 29\nvalue = [6, 7, 6, 4, 6]"] ;
11 -> 12 ;
13 [label="gini = 0.796\nsamples = 277\nvalue = [58, 42, 55, 65, 57]"] ;
11 -> 13 ;
14 [label="X[0] <= 0.5\ngini = 0.797\nsamples = 357\nvalue = [86, 64, 63, 78, 66]"] ;
6 -> 14 ;
15 [label="X[1] <= 0.5\ngini = 0.773\nsamples = 43\nvalue = [13, 5, 5, 10, 10]"] ;
14 -> 15 ;
16 [label="gini = 0.722\nsamples = 6\nvalue = [2, 0, 1, 2, 1]"] ;
15 -> 16 ;
17 [label="gini = 0.776\nsamples = 37\nvalue = [11, 5, 4, 8, 9]"] ;
15 -> 17 ;
18 [label="X[1] <= 0.5\ngini = 0.798\nsamples = 314\nvalue = [73, 59, 58, 68, 56]"] ;
14 -> 18 ;
19 [label="gini = 0.776\nsamples = 37\nvalue = [11, 10, 5, 6, 5]"] ;
18 -> 19 ;
20 [label="gini = 0.798\nsamples = 277\nvalue = [62, 49, 53, 62, 51]"] ;
18 -> 20 ;
}