digraph Tree {
node [shape=box] ;
0 [label="X[2] <= 0.5\ngini = 0.741\nsamples = 1603\nvalue = [427, 507, 445, 77, 147]"] ;
1 [label="X[0] <= 0.5\ngini = 0.564\nsamples = 160\nvalue = [76, 73, 1, 6, 4]"] ;
0 -> 1 [labeldistance=2.5, labelangle=45, headlabel="True"] ;
2 [label="X[1] <= 0.5\ngini = 0.362\nsamples = 79\nvalue = [11, 62, 0, 3, 3]"] ;
1 -> 2 ;
3 [label="gini = 0.379\nsamples = 13\nvalue = [10, 2, 0, 1, 0]"] ;
2 -> 3 ;
4 [label="gini = 0.17\nsamples = 66\nvalue = [1, 60, 0, 2, 3]"] ;
2 -> 4 ;
5 [label="X[1] <= 0.5\ngini = 0.336\nsamples = 81\nvalue = [65, 11, 1, 3, 1]"] ;
1 -> 5 ;
6 [label="gini = 0.0\nsamples = 15\nvalue = [15, 0, 0, 0, 0]"] ;
5 -> 6 ;
7 [label="gini = 0.396\nsamples = 66\nvalue = [50, 11, 1, 3, 1]"] ;
5 -> 7 ;
8 [label="X[1] <= 0.5\ngini = 0.743\nsamples = 1443\nvalue = [351, 434, 444, 71, 143]"] ;
0 -> 8 [labeldistance=2.5, labelangle=-45, headlabel="False"] ;
9 [label="X[0] <= 0.5\ngini = 0.278\nsamples = 18\nvalue = [3, 0, 15, 0, 0]"] ;
8 -> 9 ;
10 [label="gini = 0.0\nsamples = 1\nvalue = [1, 0, 0, 0, 0]"] ;
9 -> 10 ;
11 [label="gini = 0.208\nsamples = 17\nvalue = [2, 0, 15, 0, 0]"] ;
9 -> 11 ;
12 [label="X[0] <= 0.5\ngini = 0.744\nsamples = 1425\nvalue = [348, 434, 429, 71, 143]"] ;
8 -> 12 ;
13 [label="gini = 0.0\nsamples = 3\nvalue = [0, 0, 3, 0, 0]"] ;
12 -> 13 ;
14 [label="X[3] <= 0.5\ngini = 0.745\nsamples = 1422\nvalue = [348, 434, 426, 71, 143]"] ;
12 -> 14 ;
15 [label="gini = 0.744\nsamples = 1417\nvalue = [346, 434, 425, 71, 141]"] ;
14 -> 15 ;
16 [label="gini = 0.64\nsamples = 5\nvalue = [2, 0, 1, 0, 2]"] ;
14 -> 16 ;
}