digraph Tree {
node [shape=box] ;
0 [label="X[2] <= 0.5\ngini = 0.798\nsamples = 800\nvalue = [152, 186, 137, 153, 172]"] ;
1 [label="X[4] <= 0.5\ngini = 0.774\nsamples = 118\nvalue = [16, 20, 39, 26, 17]"] ;
0 -> 1 [labeldistance=2.5, labelangle=45, headlabel="True"] ;
2 [label="X[0] <= 0.5\ngini = 0.706\nsamples = 56\nvalue = [9, 7, 26, 10, 4]"] ;
1 -> 2 ;
3 [label="gini = 0.656\nsamples = 8\nvalue = [2, 1, 4, 0, 1]"] ;
2 -> 3 ;
4 [label="gini = 0.706\nsamples = 48\nvalue = [7, 6, 22, 10, 3]"] ;
2 -> 4 ;
5 [label="X[0] <= 0.5\ngini = 0.789\nsamples = 62\nvalue = [7, 13, 13, 16, 13]"] ;
1 -> 5 ;
6 [label="gini = 0.0\nsamples = 3\nvalue = [0, 0, 3, 0, 0]"] ;
5 -> 6 ;
7 [label="gini = 0.787\nsamples = 59\nvalue = [7, 13, 10, 16, 13]"] ;
5 -> 7 ;
8 [label="X[4] <= 0.5\ngini = 0.794\nsamples = 682\nvalue = [136, 166, 98, 127, 155]"] ;
0 -> 8 [labeldistance=2.5, labelangle=-45, headlabel="False"] ;
9 [label="X[1] <= 0.5\ngini = 0.791\nsamples = 292\nvalue = [52, 52, 46, 60, 82]"] ;
8 -> 9 ;
10 [label="X[0] <= 0.5\ngini = 0.775\nsamples = 53\nvalue = [13, 11, 6, 16, 7]"] ;
9 -> 10 ;
11 [label="gini = 0.625\nsamples = 4\nvalue = [1, 1, 0, 0, 2]"] ;
10 -> 11 ;
12 [label="gini = 0.766\nsamples = 49\nvalue = [12, 10, 6, 16, 5]"] ;
10 -> 12 ;
13 [label="X[0] <= 0.5\ngini = 0.784\nsamples = 239\nvalue = [39, 41, 40, 44, 75]"] ;
9 -> 13 ;
14 [label="gini = 0.79\nsamples = 44\nvalue = [8, 11, 8, 6, 11]"] ;
13 -> 14 ;
15 [label="gini = 0.778\nsamples = 195\nvalue = [31, 30, 32, 38, 64]"] ;
13 -> 15 ;
16 [label="X[0] <= 0.5\ngini = 0.786\nsamples = 390\nvalue = [84, 114, 52, 67, 73]"] ;
8 -> 16 ;
17 [label="X[1] <= 0.5\ngini = 0.706\nsamples = 38\nvalue = [17, 3, 9, 6, 3]"] ;
16 -> 17 ;
18 [label="gini = 0.611\nsamples = 6\nvalue = [3, 1, 0, 2, 0]"] ;
17 -> 18 ;
19 [label="gini = 0.701\nsamples = 32\nvalue = [14, 2, 9, 4, 3]"] ;
17 -> 19 ;
20 [label="X[1] <= 0.5\ngini = 0.78\nsamples = 352\nvalue = [67, 111, 43, 61, 70]"] ;
16 -> 20 ;
21 [label="gini = 0.691\nsamples = 47\nvalue = [4, 21, 1, 9, 12]"] ;
20 -> 21 ;
22 [label="gini = 0.786\nsamples = 305\nvalue = [63, 90, 42, 52, 58]"] ;
20 -> 22 ;
}