digraph Tree {
node [shape=box] ;
0 [label="X[2] <= 0.5\ngini = 0.776\nsamples = 12636\nvalue = [3819, 2596, 2739, 1106, 2376]"] ;
1 [label="X[4] <= 0.5\ngini = 0.774\nsamples = 11999\nvalue = [3789, 2506, 2372, 1090, 2242]"] ;
0 -> 1 [labeldistance=2.5, labelangle=45, headlabel="True"] ;
2 [label="X[0] <= 0.5\ngini = 0.78\nsamples = 5424\nvalue = [1368, 1276, 980, 462, 1338]"] ;
1 -> 2 ;
3 [label="gini = 0.742\nsamples = 206\nvalue = [28, 70, 34, 11, 63]"] ;
2 -> 3 ;
4 [label="gini = 0.781\nsamples = 5218\nvalue = [1340, 1206, 946, 451, 1275]"] ;
2 -> 4 ;
5 [label="X[0] <= 0.5\ngini = 0.757\nsamples = 6575\nvalue = [2421, 1230, 1392, 628, 904]"] ;
1 -> 5 ;
6 [label="gini = 0.763\nsamples = 609\nvalue = [173, 185, 125, 60, 66]"] ;
5 -> 6 ;
7 [label="gini = 0.753\nsamples = 5966\nvalue = [2248, 1045, 1267, 568, 838]"] ;
5 -> 7 ;
8 [label="X[4] <= 0.5\ngini = 0.601\nsamples = 637\nvalue = [30, 90, 367, 16, 134]"] ;
0 -> 8 [labeldistance=2.5, labelangle=-45, headlabel="False"] ;
9 [label="X[1] <= 0.5\ngini = 0.509\nsamples = 466\nvalue = [13, 50, 311, 7, 85]"] ;
8 -> 9 ;
10 [label="gini = 0.601\nsamples = 185\nvalue = [10, 29, 108, 6, 32]"] ;
9 -> 10 ;
11 [label="X[0] <= 0.5\ngini = 0.437\nsamples = 281\nvalue = [3, 21, 203, 1, 53]"] ;
9 -> 11 ;
12 [label="gini = 0.375\nsamples = 4\nvalue = [0, 3, 1, 0, 0]"] ;
11 -> 12 ;
13 [label="gini = 0.427\nsamples = 277\nvalue = [3, 18, 202, 1, 53]"] ;
11 -> 13 ;
14 [label="X[1] <= 0.5\ngini = 0.743\nsamples = 171\nvalue = [17, 40, 56, 9, 49]"] ;
8 -> 14 ;
15 [label="X[0] <= 0.5\ngini = 0.75\nsamples = 160\nvalue = [17, 39, 46, 9, 49]"] ;
14 -> 15 ;
16 [label="gini = 0.731\nsamples = 57\nvalue = [6, 15, 17, 1, 18]"] ;
15 -> 16 ;
17 [label="gini = 0.758\nsamples = 103\nvalue = [11, 24, 29, 8, 31]"] ;
15 -> 17 ;
18 [label="gini = 0.165\nsamples = 11\nvalue = [0, 1, 10, 0, 0]"] ;
14 -> 18 ;
}