digraph Tree {
node [shape=box] ;
0 [label="X[0] <= 0.5\ngini = 0.799\nsamples = 800\nvalue = [144, 163, 167, 176, 150]"] ;
1 [label="X[1] <= 0.5\ngini = 0.774\nsamples = 71\nvalue = [24, 13, 10, 14, 10]"] ;
0 -> 1 [labeldistance=2.5, labelangle=45, headlabel="True"] ;
2 [label="X[3] <= 0.5\ngini = 0.72\nsamples = 5\nvalue = [0, 2, 1, 1, 1]"] ;
1 -> 2 ;
3 [label="gini = 0.625\nsamples = 4\nvalue = [0, 2, 0, 1, 1]"] ;
2 -> 3 ;
4 [label="gini = 0.0\nsamples = 1\nvalue = [0, 0, 1, 0, 0]"] ;
2 -> 4 ;
5 [label="X[2] <= 0.5\ngini = 0.764\nsamples = 66\nvalue = [24, 11, 9, 13, 9]"] ;
1 -> 5 ;
6 [label="gini = 0.667\nsamples = 9\nvalue = [4, 3, 1, 1, 0]"] ;
5 -> 6 ;
7 [label="X[3] <= 0.5\ngini = 0.768\nsamples = 57\nvalue = [20, 8, 8, 12, 9]"] ;
5 -> 7 ;
8 [label="gini = 0.76\nsamples = 37\nvalue = [14, 6, 5, 6, 6]"] ;
7 -> 8 ;
9 [label="gini = 0.765\nsamples = 20\nvalue = [6, 2, 3, 6, 3]"] ;
7 -> 9 ;
10 [label="X[3] <= 0.5\ngini = 0.798\nsamples = 729\nvalue = [120, 150, 157, 162, 140]"] ;
0 -> 10 [labeldistance=2.5, labelangle=-45, headlabel="False"] ;
11 [label="X[2] <= 0.5\ngini = 0.795\nsamples = 497\nvalue = [72, 115, 112, 104, 94]"] ;
10 -> 11 ;
12 [label="gini = 0.775\nsamples = 48\nvalue = [9, 6, 14, 6, 13]"] ;
11 -> 12 ;
13 [label="X[1] <= 0.5\ngini = 0.794\nsamples = 449\nvalue = [63, 109, 98, 98, 81]"] ;
11 -> 13 ;
14 [label="gini = 0.792\nsamples = 29\nvalue = [7, 7, 6, 5, 4]"] ;
13 -> 14 ;
15 [label="gini = 0.793\nsamples = 420\nvalue = [56, 102, 92, 93, 77]"] ;
13 -> 15 ;
16 [label="X[2] <= 0.5\ngini = 0.795\nsamples = 232\nvalue = [48, 35, 45, 58, 46]"] ;
10 -> 16 ;
17 [label="gini = 0.764\nsamples = 35\nvalue = [10, 8, 4, 10, 3]"] ;
16 -> 17 ;
18 [label="X[1] <= 0.5\ngini = 0.794\nsamples = 197\nvalue = [38, 27, 41, 48, 43]"] ;
16 -> 18 ;
19 [label="gini = 0.768\nsamples = 17\nvalue = [4, 4, 5, 1, 3]"] ;
18 -> 19 ;
20 [label="gini = 0.79\nsamples = 180\nvalue = [34, 23, 36, 47, 40]"] ;
18 -> 20 ;
}