digraph Tree {
node [shape=box] ;
0 [label="X[4] <= 0.5\ngini = 0.695\nsamples = 11654\nvalue = [4543, 4238, 1132, 961, 780]"] ;
1 [label="X[2] <= 0.5\ngini = 0.719\nsamples = 3052\nvalue = [1313, 508, 165, 385, 681]"] ;
0 -> 1 [labeldistance=2.5, labelangle=45, headlabel="True"] ;
2 [label="X[0] <= 0.5\ngini = 0.665\nsamples = 2367\nvalue = [1138, 138, 90, 335, 666]"] ;
1 -> 2 ;
3 [label="gini = 0.697\nsamples = 314\nvalue = [94, 129, 59, 30, 2]"] ;
2 -> 3 ;
4 [label="gini = 0.614\nsamples = 2053\nvalue = [1044, 9, 31, 305, 664]"] ;
2 -> 4 ;
5 [label="X[1] <= 0.5\ngini = 0.625\nsamples = 685\nvalue = [175, 370, 75, 50, 15]"] ;
1 -> 5 ;
6 [label="X[0] <= 0.5\ngini = 0.651\nsamples = 596\nvalue = [166, 298, 70, 50, 12]"] ;
5 -> 6 ;
7 [label="gini = 0.672\nsamples = 285\nvalue = [93, 127, 35, 25, 5]"] ;
6 -> 7 ;
8 [label="gini = 0.623\nsamples = 311\nvalue = [73, 171, 35, 25, 7]"] ;
6 -> 8 ;
9 [label="X[0] <= 0.5\ngini = 0.331\nsamples = 89\nvalue = [9, 72, 5, 0, 3]"] ;
5 -> 9 ;
10 [label="gini = 0.286\nsamples = 80\nvalue = [8, 67, 4, 0, 1]"] ;
9 -> 10 ;
11 [label="gini = 0.617\nsamples = 9\nvalue = [1, 5, 1, 0, 2]"] ;
9 -> 11 ;
12 [label="X[2] <= 0.5\ngini = 0.654\nsamples = 8602\nvalue = [3230, 3730, 967, 576, 99]"] ;
0 -> 12 [labeldistance=2.5, labelangle=-45, headlabel="False"] ;
13 [label="X[0] <= 0.5\ngini = 0.65\nsamples = 7075\nvalue = [2860, 2921, 764, 481, 49]"] ;
12 -> 13 ;
14 [label="gini = 0.648\nsamples = 871\nvalue = [296, 405, 108, 59, 3]"] ;
13 -> 14 ;
15 [label="gini = 0.649\nsamples = 6204\nvalue = [2564, 2516, 656, 422, 46]"] ;
13 -> 15 ;
16 [label="X[1] <= 0.5\ngini = 0.638\nsamples = 1527\nvalue = [370, 809, 203, 95, 50]"] ;
12 -> 16 ;
17 [label="X[0] <= 0.5\ngini = 0.612\nsamples = 647\nvalue = [161, 359, 67, 54, 6]"] ;
16 -> 17 ;
18 [label="gini = 0.566\nsamples = 180\nvalue = [33, 111, 18, 18, 0]"] ;
17 -> 18 ;
19 [label="gini = 0.626\nsamples = 467\nvalue = [128, 248, 49, 36, 6]"] ;
17 -> 19 ;
20 [label="X[0] <= 0.5\ngini = 0.654\nsamples = 880\nvalue = [209, 450, 136, 41, 44]"] ;
16 -> 20 ;
21 [label="gini = 0.647\nsamples = 45\nvalue = [18, 19, 2, 5, 1]"] ;
20 -> 21 ;
22 [label="gini = 0.651\nsamples = 835\nvalue = [191, 431, 134, 36, 43]"] ;
20 -> 22 ;
}