digraph Tree {
node [shape=box] ;
0 [label="X[4] <= 0.5\ngini = 0.678\nsamples = 22288\nvalue = [10684, 2639, 4160, 155, 4650]"] ;
1 [label="X[2] <= 0.5\ngini = 0.739\nsamples = 13041\nvalue = [3992, 2083, 3052, 74, 3840]"] ;
0 -> 1 [labeldistance=2.5, labelangle=45, headlabel="True"] ;
2 [label="X[0] <= 0.5\ngini = 0.731\nsamples = 11039\nvalue = [3463, 1980, 1879, 64, 3653]"] ;
1 -> 2 ;
3 [label="gini = 0.724\nsamples = 45\nvalue = [7, 11, 17, 0, 10]"] ;
2 -> 3 ;
4 [label="gini = 0.731\nsamples = 10994\nvalue = [3456, 1969, 1862, 64, 3643]"] ;
2 -> 4 ;
5 [label="X[1] <= 0.5\ngini = 0.575\nsamples = 2002\nvalue = [529, 103, 1173, 10, 187]"] ;
1 -> 5 ;
6 [label="X[0] <= 0.5\ngini = 0.628\nsamples = 1398\nvalue = [520, 86, 659, 8, 125]"] ;
5 -> 6 ;
7 [label="gini = 0.485\nsamples = 191\nvalue = [5, 13, 129, 0, 44]"] ;
6 -> 7 ;
8 [label="gini = 0.617\nsamples = 1207\nvalue = [515, 73, 530, 8, 81]"] ;
6 -> 8 ;
9 [label="X[0] <= 0.5\ngini = 0.264\nsamples = 604\nvalue = [9, 17, 514, 2, 62]"] ;
5 -> 9 ;
10 [label="gini = 0.5\nsamples = 2\nvalue = [1, 0, 1, 0, 0]"] ;
9 -> 10 ;
11 [label="gini = 0.262\nsamples = 602\nvalue = [8, 17, 513, 2, 62]"] ;
9 -> 11 ;
12 [label="X[2] <= 0.5\ngini = 0.451\nsamples = 9247\nvalue = [6692, 556, 1108, 81, 810]"] ;
0 -> 12 [labeldistance=2.5, labelangle=-45, headlabel="False"] ;
13 [label="X[0] <= 0.5\ngini = 0.401\nsamples = 5134\nvalue = [3913, 320, 390, 54, 457]"] ;
12 -> 13 ;
14 [label="gini = 0.429\nsamples = 950\nvalue = [704, 76, 99, 8, 63]"] ;
13 -> 14 ;
15 [label="gini = 0.395\nsamples = 4184\nvalue = [3209, 244, 291, 46, 394]"] ;
13 -> 15 ;
16 [label="X[0] <= 0.5\ngini = 0.502\nsamples = 4113\nvalue = [2779, 236, 718, 27, 353]"] ;
12 -> 16 ;
17 [label="gini = 0.601\nsamples = 305\nvalue = [157, 26, 108, 1, 13]"] ;
16 -> 17 ;
18 [label="X[1] <= 0.5\ngini = 0.489\nsamples = 3808\nvalue = [2622, 210, 610, 26, 340]"] ;
16 -> 18 ;
19 [label="gini = 0.489\nsamples = 3805\nvalue = [2622, 210, 607, 26, 340]"] ;
18 -> 19 ;
20 [label="gini = 0.0\nsamples = 3\nvalue = [0, 0, 3, 0, 0]"] ;
18 -> 20 ;
}