digraph Tree {
node [shape=box] ;
0 [label="X[0] <= 0.5\ngini = 0.734\nsamples = 752\nvalue = [215, 248, 193, 25, 71]"] ;
1 [label="X[2] <= 0.5\ngini = 0.302\nsamples = 35\nvalue = [2, 29, 3, 0, 1]"] ;
0 -> 1 [labeldistance=2.5, labelangle=45, headlabel="True"] ;
2 [label="gini = 0.265\nsamples = 34\nvalue = [2, 29, 2, 0, 1]"] ;
1 -> 2 ;
3 [label="gini = 0.0\nsamples = 1\nvalue = [0, 0, 1, 0, 0]"] ;
1 -> 3 ;
4 [label="X[2] <= 0.5\ngini = 0.737\nsamples = 717\nvalue = [213, 219, 190, 25, 70]"] ;
0 -> 4 [labeldistance=2.5, labelangle=-45, headlabel="False"] ;
5 [label="X[1] <= 0.5\ngini = 0.112\nsamples = 34\nvalue = [32, 0, 0, 1, 1]"] ;
4 -> 5 ;
6 [label="gini = 0.0\nsamples = 1\nvalue = [0, 0, 0, 0, 1]"] ;
5 -> 6 ;
7 [label="gini = 0.059\nsamples = 33\nvalue = [32, 0, 0, 1, 0]"] ;
5 -> 7 ;
8 [label="X[1] <= 0.5\ngini = 0.738\nsamples = 683\nvalue = [181, 219, 190, 24, 69]"] ;
4 -> 8 ;
9 [label="gini = 0.375\nsamples = 4\nvalue = [1, 0, 3, 0, 0]"] ;
8 -> 9 ;
10 [label="X[3] <= 0.5\ngini = 0.738\nsamples = 679\nvalue = [180, 219, 187, 24, 69]"] ;
8 -> 10 ;
11 [label="gini = 0.738\nsamples = 676\nvalue = [178, 219, 186, 24, 69]"] ;
10 -> 11 ;
12 [label="gini = 0.444\nsamples = 3\nvalue = [2, 0, 1, 0, 0]"] ;
10 -> 12 ;
}