digraph Tree {
node [shape=box] ;
0 [label="X[3] <= 0.5\ngini = 0.598\nsamples = 21975\nvalue = [224, 9638, 9788, 2325]"] ;
1 [label="X[0] <= 0.5\ngini = 0.598\nsamples = 21282\nvalue = [220, 9471, 9340, 2251]"] ;
0 -> 1 [labeldistance=2.5, labelangle=45, headlabel="True"] ;
2 [label="gini = 0.602\nsamples = 7331\nvalue = [74, 3277, 3158, 822]"] ;
1 -> 2 ;
3 [label="gini = 0.596\nsamples = 13951\nvalue = [146, 6194, 6182, 1429]"] ;
1 -> 3 ;
4 [label="gini = 0.513\nsamples = 693\nvalue = [4, 167, 448, 74]"] ;
0 -> 4 [labeldistance=2.5, labelangle=-45, headlabel="False"] ;
}