digraph Tree {
node [shape=box] ;
0 [label="X[4] <= 0.5\ngini = 0.526\nsamples = 954\nvalue = [632, 135, 91, 70, 26]"] ;
1 [label="gini = 0.0\nsamples = 97\nvalue = [97, 0, 0, 0, 0]"] ;
0 -> 1 [labeldistance=2.5, labelangle=45, headlabel="True"] ;
2 [label="X[1] <= 0.5\ngini = 0.567\nsamples = 857\nvalue = [535, 135, 91, 70, 26]"] ;
0 -> 2 [labeldistance=2.5, labelangle=-45, headlabel="False"] ;
3 [label="X[2] <= 0.5\ngini = 0.533\nsamples = 582\nvalue = [383, 38, 77, 60, 24]"] ;
2 -> 3 ;
4 [label="X[0] <= 0.5\ngini = 0.459\nsamples = 416\nvalue = [300, 35, 29, 35, 17]"] ;
3 -> 4 ;
5 [label="gini = 0.462\nsamples = 91\nvalue = [65, 8, 12, 4, 2]"] ;
4 -> 5 ;
6 [label="gini = 0.456\nsamples = 325\nvalue = [235, 27, 17, 31, 15]"] ;
4 -> 6 ;
7 [label="X[0] <= 0.5\ngini = 0.642\nsamples = 166\nvalue = [83, 3, 48, 25, 7]"] ;
3 -> 7 ;
8 [label="gini = 0.696\nsamples = 30\nvalue = [7, 2, 14, 4, 3]"] ;
7 -> 8 ;
9 [label="gini = 0.6\nsamples = 136\nvalue = [76, 1, 34, 21, 4]"] ;
7 -> 9 ;
10 [label="X[2] <= 0.5\ngini = 0.566\nsamples = 275\nvalue = [152, 97, 14, 10, 2]"] ;
2 -> 10 ;
11 [label="X[0] <= 0.5\ngini = 0.58\nsamples = 258\nvalue = [135, 97, 14, 10, 2]"] ;
10 -> 11 ;
12 [label="gini = 0.548\nsamples = 65\nvalue = [26, 35, 1, 3, 0]"] ;
11 -> 12 ;
13 [label="gini = 0.572\nsamples = 193\nvalue = [109, 62, 13, 7, 2]"] ;
11 -> 13 ;
14 [label="gini = 0.0\nsamples = 17\nvalue = [17, 0, 0, 0, 0]"] ;
10 -> 14 ;
}