digraph Tree {
node [shape=box] ;
0 [label="X[2] <= 0.5\ngini = 0.791\nsamples = 2400\nvalue = [340, 629, 426, 547, 458]"] ;
1 [label="X[1] <= 0.5\ngini = 0.798\nsamples = 556\nvalue = [113, 130, 93, 105, 115]"] ;
0 -> 1 [labeldistance=2.5, labelangle=45, headlabel="True"] ;
2 [label="X[4] <= 0.5\ngini = 0.781\nsamples = 108\nvalue = [29, 27, 10, 21, 21]"] ;
1 -> 2 ;
3 [label="X[0] <= 0.5\ngini = 0.772\nsamples = 70\nvalue = [18, 20, 5, 12, 15]"] ;
2 -> 3 ;
4 [label="gini = 0.756\nsamples = 15\nvalue = [4, 5, 2, 3, 1]"] ;
3 -> 4 ;
5 [label="gini = 0.766\nsamples = 55\nvalue = [14, 15, 3, 9, 14]"] ;
3 -> 5 ;
6 [label="X[0] <= 0.5\ngini = 0.784\nsamples = 38\nvalue = [11, 7, 5, 9, 6]"] ;
2 -> 6 ;
7 [label="gini = 0.64\nsamples = 5\nvalue = [0, 1, 0, 2, 2]"] ;
6 -> 7 ;
8 [label="gini = 0.773\nsamples = 33\nvalue = [11, 6, 5, 7, 4]"] ;
6 -> 8 ;
9 [label="X[0] <= 0.5\ngini = 0.798\nsamples = 448\nvalue = [84, 103, 83, 84, 94]"] ;
1 -> 9 ;
10 [label="X[3] <= 0.5\ngini = 0.779\nsamples = 40\nvalue = [4, 12, 9, 8, 7]"] ;
9 -> 10 ;
11 [label="gini = 0.727\nsamples = 17\nvalue = [1, 6, 5, 4, 1]"] ;
10 -> 11 ;
12 [label="gini = 0.786\nsamples = 23\nvalue = [3, 6, 4, 4, 6]"] ;
10 -> 12 ;
13 [label="X[4] <= 0.5\ngini = 0.799\nsamples = 408\nvalue = [80, 91, 74, 76, 87]"] ;
9 -> 13 ;
14 [label="gini = 0.799\nsamples = 227\nvalue = [46, 51, 44, 44, 42]"] ;
13 -> 14 ;
15 [label="gini = 0.795\nsamples = 181\nvalue = [34, 40, 30, 32, 45]"] ;
13 -> 15 ;
16 [label="X[4] <= 0.5\ngini = 0.787\nsamples = 1844\nvalue = [227, 499, 333, 442, 343]"] ;
0 -> 16 [labeldistance=2.5, labelangle=-45, headlabel="False"] ;
17 [label="X[1] <= 0.5\ngini = 0.792\nsamples = 1012\nvalue = [136, 252, 188, 230, 206]"] ;
16 -> 17 ;
18 [label="X[0] <= 0.5\ngini = 0.784\nsamples = 262\nvalue = [39, 74, 44, 66, 39]"] ;
17 -> 18 ;
19 [label="gini = 0.731\nsamples = 38\nvalue = [5, 16, 3, 7, 7]"] ;
18 -> 19 ;
20 [label="gini = 0.787\nsamples = 224\nvalue = [34, 58, 41, 59, 32]"] ;
18 -> 20 ;
21 [label="X[0] <= 0.5\ngini = 0.793\nsamples = 750\nvalue = [97, 178, 144, 164, 167]"] ;
17 -> 21 ;
22 [label="gini = 0.784\nsamples = 229\nvalue = [20, 55, 49, 51, 54]"] ;
21 -> 22 ;
23 [label="gini = 0.795\nsamples = 521\nvalue = [77, 123, 95, 113, 113]"] ;
21 -> 23 ;
24 [label="X[0] <= 0.5\ngini = 0.777\nsamples = 832\nvalue = [91, 247, 145, 212, 137]"] ;
16 -> 24 ;
25 [label="X[1] <= 0.5\ngini = 0.764\nsamples = 206\nvalue = [23, 54, 28, 69, 32]"] ;
24 -> 25 ;
26 [label="gini = 0.787\nsamples = 25\nvalue = [3, 5, 5, 7, 5]"] ;
25 -> 26 ;
27 [label="gini = 0.759\nsamples = 181\nvalue = [20, 49, 23, 62, 27]"] ;
25 -> 27 ;
28 [label="X[1] <= 0.5\ngini = 0.778\nsamples = 626\nvalue = [68, 193, 117, 143, 105]"] ;
24 -> 28 ;
29 [label="gini = 0.773\nsamples = 183\nvalue = [19, 60, 33, 40, 31]"] ;
28 -> 29 ;
30 [label="gini = 0.78\nsamples = 443\nvalue = [49, 133, 84, 103, 74]"] ;
28 -> 30 ;
}