digraph Tree {
node [shape=box] ;
0 [label="X[2] <= 0.5\ngini = 0.71\nsamples = 11671\nvalue = [3590, 2479, 4436, 301, 865]"] ;
1 [label="X[1] <= 0.5\ngini = 0.574\nsamples = 1217\nvalue = [708, 343, 19, 47, 100]"] ;
0 -> 1 [labeldistance=2.5, labelangle=45, headlabel="True"] ;
2 [label="X[0] <= 0.5\ngini = 0.422\nsamples = 771\nvalue = [574, 86, 11, 24, 76]"] ;
1 -> 2 ;
3 [label="X[4] <= 0.5\ngini = 0.512\nsamples = 458\nvalue = [306, 83, 11, 21, 37]"] ;
2 -> 3 ;
4 [label="gini = 0.436\nsamples = 262\nvalue = [188, 57, 0, 9, 8]"] ;
3 -> 4 ;
5 [label="gini = 0.591\nsamples = 196\nvalue = [118, 26, 11, 12, 29]"] ;
3 -> 5 ;
6 [label="X[4] <= 0.5\ngini = 0.251\nsamples = 313\nvalue = [268, 3, 0, 3, 39]"] ;
2 -> 6 ;
7 [label="gini = 0.153\nsamples = 12\nvalue = [11, 0, 0, 1, 0]"] ;
6 -> 7 ;
8 [label="gini = 0.254\nsamples = 301\nvalue = [257, 3, 0, 2, 39]"] ;
6 -> 8 ;
9 [label="X[0] <= 0.5\ngini = 0.572\nsamples = 446\nvalue = [134, 257, 8, 23, 24]"] ;
1 -> 9 ;
10 [label="X[3] <= 0.5\ngini = 0.287\nsamples = 112\nvalue = [7, 94, 0, 4, 7]"] ;
9 -> 10 ;
11 [label="gini = 0.296\nsamples = 108\nvalue = [7, 90, 0, 4, 7]"] ;
10 -> 11 ;
12 [label="gini = 0.0\nsamples = 4\nvalue = [0, 4, 0, 0, 0]"] ;
10 -> 12 ;
13 [label="X[3] <= 0.5\ngini = 0.611\nsamples = 334\nvalue = [127, 163, 8, 19, 17]"] ;
9 -> 13 ;
14 [label="gini = 0.609\nsamples = 332\nvalue = [126, 163, 8, 18, 17]"] ;
13 -> 14 ;
15 [label="gini = 0.5\nsamples = 2\nvalue = [1, 0, 0, 1, 0]"] ;
13 -> 15 ;
16 [label="X[1] <= 0.5\ngini = 0.698\nsamples = 10454\nvalue = [2882, 2136, 4417, 254, 765]"] ;
0 -> 16 [labeldistance=2.5, labelangle=-45, headlabel="False"] ;
17 [label="X[4] <= 0.5\ngini = 0.104\nsamples = 463\nvalue = [8, 0, 438, 2, 15]"] ;
16 -> 17 ;
18 [label="gini = 0.0\nsamples = 1\nvalue = [0, 0, 0, 0, 1]"] ;
17 -> 18 ;
19 [label="X[0] <= 0.5\ngini = 0.1\nsamples = 462\nvalue = [8, 0, 438, 2, 14]"] ;
17 -> 19 ;
20 [label="gini = 0.0\nsamples = 9\nvalue = [0, 0, 9, 0, 0]"] ;
19 -> 20 ;
21 [label="gini = 0.102\nsamples = 453\nvalue = [8, 0, 429, 2, 14]"] ;
19 -> 21 ;
22 [label="X[0] <= 0.5\ngini = 0.707\nsamples = 9991\nvalue = [2874, 2136, 3979, 252, 750]"] ;
16 -> 22 ;
23 [label="gini = 0.0\nsamples = 4\nvalue = [0, 0, 4, 0, 0]"] ;
22 -> 23 ;
24 [label="X[3] <= 0.5\ngini = 0.707\nsamples = 9987\nvalue = [2874, 2136, 3975, 252, 750]"] ;
22 -> 24 ;
25 [label="gini = 0.707\nsamples = 9982\nvalue = [2873, 2136, 3973, 250, 750]"] ;
24 -> 25 ;
26 [label="gini = 0.64\nsamples = 5\nvalue = [1, 0, 2, 2, 0]"] ;
24 -> 26 ;
}