digraph Tree {
node [shape=box] ;
0 [label="X[0] <= 0.5\ngini = 0.743\nsamples = 1016\nvalue = [278, 331, 256, 44, 107]"] ;
1 [label="X[3] <= 0.5\ngini = 0.361\nsamples = 67\nvalue = [4, 53, 1, 4, 5]"] ;
0 -> 1 [labeldistance=2.5, labelangle=45, headlabel="True"] ;
2 [label="X[2] <= 0.5\ngini = 0.338\nsamples = 62\nvalue = [4, 50, 1, 2, 5]"] ;
1 -> 2 ;
3 [label="gini = 0.316\nsamples = 61\nvalue = [4, 50, 0, 2, 5]"] ;
2 -> 3 ;
4 [label="gini = 0.0\nsamples = 1\nvalue = [0, 0, 1, 0, 0]"] ;
2 -> 4 ;
5 [label="X[2] <= 0.5\ngini = 0.48\nsamples = 5\nvalue = [0, 3, 0, 2, 0]"] ;
1 -> 5 ;
6 [label="gini = 0.5\nsamples = 4\nvalue = [0, 2, 0, 2, 0]"] ;
5 -> 6 ;
7 [label="gini = 0.0\nsamples = 1\nvalue = [0, 1, 0, 0, 0]"] ;
5 -> 7 ;
8 [label="X[2] <= 0.5\ngini = 0.745\nsamples = 949\nvalue = [274, 278, 255, 40, 102]"] ;
0 -> 8 [labeldistance=2.5, labelangle=-45, headlabel="False"] ;
9 [label="X[1] <= 0.5\ngini = 0.357\nsamples = 60\nvalue = [47, 1, 0, 10, 2]"] ;
8 -> 9 ;
10 [label="X[4] <= 0.5\ngini = 0.375\nsamples = 8\nvalue = [6, 0, 0, 0, 2]"] ;
9 -> 10 ;
11 [label="gini = 0.0\nsamples = 3\nvalue = [3, 0, 0, 0, 0]"] ;
10 -> 11 ;
12 [label="gini = 0.48\nsamples = 5\nvalue = [3, 0, 0, 0, 2]"] ;
10 -> 12 ;
13 [label="X[3] <= 0.5\ngini = 0.341\nsamples = 52\nvalue = [41, 1, 0, 10, 0]"] ;
9 -> 13 ;
14 [label="gini = 0.327\nsamples = 50\nvalue = [40, 1, 0, 9, 0]"] ;
13 -> 14 ;
15 [label="gini = 0.5\nsamples = 2\nvalue = [1, 0, 0, 1, 0]"] ;
13 -> 15 ;
16 [label="X[4] <= 0.5\ngini = 0.742\nsamples = 889\nvalue = [227, 277, 255, 30, 100]"] ;
8 -> 16 ;
17 [label="X[1] <= 0.5\ngini = 0.635\nsamples = 20\nvalue = [6, 1, 3, 0, 10]"] ;
16 -> 17 ;
18 [label="gini = 0.667\nsamples = 3\nvalue = [0, 1, 1, 0, 1]"] ;
17 -> 18 ;
19 [label="gini = 0.581\nsamples = 17\nvalue = [6, 0, 2, 0, 9]"] ;
17 -> 19 ;
20 [label="X[1] <= 0.5\ngini = 0.738\nsamples = 869\nvalue = [221, 276, 252, 30, 90]"] ;
16 -> 20 ;
21 [label="gini = 0.545\nsamples = 11\nvalue = [1, 0, 7, 1, 2]"] ;
20 -> 21 ;
22 [label="gini = 0.738\nsamples = 858\nvalue = [220, 276, 245, 29, 88]"] ;
20 -> 22 ;
}