digraph Tree {
node [shape=box] ;
0 [label="X[1] <= 0.5\ngini = 0.785\nsamples = 800\nvalue = [184, 163, 143, 222, 88]"] ;
1 [label="X[0] <= 0.5\ngini = 0.712\nsamples = 141\nvalue = [28, 43, 17, 53, 0]"] ;
0 -> 1 [labeldistance=2.5, labelangle=45, headlabel="True"] ;
2 [label="gini = 0.0\nsamples = 1\nvalue = [0, 0, 0, 1, 0]"] ;
1 -> 2 ;
3 [label="X[3] <= 0.5\ngini = 0.713\nsamples = 140\nvalue = [28, 43, 17, 52, 0]"] ;
1 -> 3 ;
4 [label="gini = 0.71\nsamples = 106\nvalue = [21, 35, 12, 38, 0]"] ;
3 -> 4 ;
5 [label="gini = 0.711\nsamples = 34\nvalue = [7, 8, 5, 14, 0]"] ;
3 -> 5 ;
6 [label="X[0] <= 0.5\ngini = 0.791\nsamples = 659\nvalue = [156, 120, 126, 169, 88]"] ;
0 -> 6 [labeldistance=2.5, labelangle=-45, headlabel="False"] ;
7 [label="X[4] <= 0.5\ngini = 0.752\nsamples = 114\nvalue = [11, 23, 38, 32, 10]"] ;
6 -> 7 ;
8 [label="X[2] <= 0.5\ngini = 0.734\nsamples = 49\nvalue = [6, 13, 12, 17, 1]"] ;
7 -> 8 ;
9 [label="gini = 0.0\nsamples = 2\nvalue = [0, 0, 0, 2, 0]"] ;
8 -> 9 ;
10 [label="gini = 0.74\nsamples = 47\nvalue = [6, 13, 12, 15, 1]"] ;
8 -> 10 ;
11 [label="X[2] <= 0.5\ngini = 0.738\nsamples = 65\nvalue = [5, 10, 26, 15, 9]"] ;
7 -> 11 ;
12 [label="gini = 0.5\nsamples = 2\nvalue = [0, 1, 0, 0, 1]"] ;
11 -> 12 ;
13 [label="gini = 0.73\nsamples = 63\nvalue = [5, 9, 26, 15, 8]"] ;
11 -> 13 ;
14 [label="X[2] <= 0.5\ngini = 0.788\nsamples = 545\nvalue = [145, 97, 88, 137, 78]"] ;
6 -> 14 ;
15 [label="X[3] <= 0.5\ngini = 0.784\nsamples = 67\nvalue = [19, 13, 14, 7, 14]"] ;
14 -> 15 ;
16 [label="gini = 0.775\nsamples = 23\nvalue = [2, 7, 4, 5, 5]"] ;
15 -> 16 ;
17 [label="gini = 0.737\nsamples = 44\nvalue = [17, 6, 10, 2, 9]"] ;
15 -> 17 ;
18 [label="X[4] <= 0.5\ngini = 0.784\nsamples = 478\nvalue = [126, 84, 74, 130, 64]"] ;
14 -> 18 ;
19 [label="gini = 0.773\nsamples = 136\nvalue = [31, 28, 24, 42, 11]"] ;
18 -> 19 ;
20 [label="gini = 0.784\nsamples = 342\nvalue = [95, 56, 50, 88, 53]"] ;
18 -> 20 ;
}