digraph Tree {
node [shape=box] ;
0 [label="X[4] <= 0.5\ngini = 0.761\nsamples = 54704\nvalue = [19369, 10452, 10026, 4262, 10595]"] ;
1 [label="X[2] <= 0.5\ngini = 0.776\nsamples = 32955\nvalue = [8170, 7352, 6501, 2245, 8687]"] ;
0 -> 1 [labeldistance=2.5, labelangle=45, headlabel="True"] ;
2 [label="X[0] <= 0.5\ngini = 0.773\nsamples = 30849\nvalue = [8160, 7161, 5096, 2231, 8201]"] ;
1 -> 2 ;
3 [label="gini = 0.714\nsamples = 220\nvalue = [42, 98, 37, 12, 31]"] ;
2 -> 3 ;
4 [label="gini = 0.773\nsamples = 30629\nvalue = [8118, 7063, 5059, 2219, 8170]"] ;
2 -> 4 ;
5 [label="X[0] <= 0.5\ngini = 0.493\nsamples = 2106\nvalue = [10, 191, 1405, 14, 486]"] ;
1 -> 5 ;
6 [label="X[1] <= 0.5\ngini = 0.253\nsamples = 78\nvalue = [0, 1, 4, 6, 67]"] ;
5 -> 6 ;
7 [label="gini = 0.245\nsamples = 7\nvalue = [0, 0, 1, 6, 0]"] ;
6 -> 7 ;
8 [label="gini = 0.108\nsamples = 71\nvalue = [0, 1, 3, 0, 67]"] ;
6 -> 8 ;
9 [label="X[1] <= 0.5\ngini = 0.471\nsamples = 2028\nvalue = [10, 190, 1401, 8, 419]"] ;
5 -> 9 ;
10 [label="gini = 0.531\nsamples = 1224\nvalue = [9, 173, 779, 8, 255]"] ;
9 -> 10 ;
11 [label="gini = 0.359\nsamples = 804\nvalue = [1, 17, 622, 0, 164]"] ;
9 -> 11 ;
12 [label="X[0] <= 0.5\ngini = 0.672\nsamples = 21749\nvalue = [11199, 3100, 3525, 2017, 1908]"] ;
0 -> 12 [labeldistance=2.5, labelangle=-45, headlabel="False"] ;
13 [label="X[1] <= 0.5\ngini = 0.778\nsamples = 1556\nvalue = [386, 438, 351, 165, 216]"] ;
12 -> 13 ;
14 [label="gini = 0.692\nsamples = 55\nvalue = [13, 6, 25, 1, 10]"] ;
13 -> 14 ;
15 [label="X[2] <= 0.5\ngini = 0.777\nsamples = 1501\nvalue = [373, 432, 326, 164, 206]"] ;
13 -> 15 ;
16 [label="gini = 0.778\nsamples = 1496\nvalue = [373, 427, 326, 164, 206]"] ;
15 -> 16 ;
17 [label="gini = 0.0\nsamples = 5\nvalue = [0, 5, 0, 0, 0]"] ;
15 -> 17 ;
18 [label="X[2] <= 0.5\ngini = 0.656\nsamples = 20193\nvalue = [10813, 2662, 3174, 1852, 1692]"] ;
12 -> 18 ;
19 [label="gini = 0.652\nsamples = 19983\nvalue = [10787, 2622, 3078, 1848, 1648]"] ;
18 -> 19 ;
20 [label="X[1] <= 0.5\ngini = 0.695\nsamples = 210\nvalue = [26, 40, 96, 4, 44]"] ;
18 -> 20 ;
21 [label="gini = 0.701\nsamples = 187\nvalue = [24, 37, 84, 4, 38]"] ;
20 -> 21 ;
22 [label="gini = 0.635\nsamples = 23\nvalue = [2, 3, 12, 0, 6]"] ;
20 -> 22 ;
}