digraph Tree {
node [shape=box] ;
0 [label="X[3] <= 0.5\ngini = 0.8\nsamples = 7200\nvalue = [1399, 1447, 1449, 1438, 1467]"] ;
1 [label="X[2] <= 0.5\ngini = 0.8\nsamples = 6731\nvalue = [1317, 1369, 1315, 1345, 1385]"] ;
0 -> 1 [labeldistance=2.5, labelangle=45, headlabel="True"] ;
2 [label="X[0] <= 0.5\ngini = 0.8\nsamples = 4449\nvalue = [908, 914, 847, 869, 911]"] ;
1 -> 2 ;
3 [label="gini = 0.799\nsamples = 702\nvalue = [130, 140, 137, 140, 155]"] ;
2 -> 3 ;
4 [label="gini = 0.8\nsamples = 3747\nvalue = [778, 774, 710, 729, 756]"] ;
2 -> 4 ;
5 [label="X[1] <= 0.5\ngini = 0.799\nsamples = 2282\nvalue = [409, 455, 468, 476, 474]"] ;
1 -> 5 ;
6 [label="X[0] <= 0.5\ngini = 0.798\nsamples = 818\nvalue = [159, 151, 154, 191, 163]"] ;
5 -> 6 ;
7 [label="gini = 0.797\nsamples = 366\nvalue = [82, 64, 64, 86, 70]"] ;
6 -> 7 ;
8 [label="gini = 0.798\nsamples = 452\nvalue = [77, 87, 90, 105, 93]"] ;
6 -> 8 ;
9 [label="X[0] <= 0.5\ngini = 0.799\nsamples = 1464\nvalue = [250, 304, 314, 285, 311]"] ;
5 -> 9 ;
10 [label="gini = 0.762\nsamples = 74\nvalue = [4, 16, 23, 12, 19]"] ;
9 -> 10 ;
11 [label="gini = 0.799\nsamples = 1390\nvalue = [246, 288, 291, 273, 292]"] ;
9 -> 11 ;
12 [label="X[0] <= 0.5\ngini = 0.79\nsamples = 469\nvalue = [82, 78, 134, 93, 82]"] ;
0 -> 12 [labeldistance=2.5, labelangle=-45, headlabel="False"] ;
13 [label="X[1] <= 0.5\ngini = 0.791\nsamples = 74\nvalue = [21, 14, 13, 12, 14]"] ;
12 -> 13 ;
14 [label="gini = 0.68\nsamples = 16\nvalue = [7, 2, 5, 0, 2]"] ;
13 -> 14 ;
15 [label="X[2] <= 0.5\ngini = 0.794\nsamples = 58\nvalue = [14, 12, 8, 12, 12]"] ;
13 -> 15 ;
16 [label="gini = 0.764\nsamples = 15\nvalue = [2, 2, 5, 4, 2]"] ;
15 -> 16 ;
17 [label="gini = 0.774\nsamples = 43\nvalue = [12, 10, 3, 8, 10]"] ;
15 -> 17 ;
18 [label="X[2] <= 0.5\ngini = 0.784\nsamples = 395\nvalue = [61, 64, 121, 81, 68]"] ;
12 -> 18 ;
19 [label="gini = 0.775\nsamples = 74\nvalue = [8, 11, 18, 23, 14]"] ;
18 -> 19 ;
20 [label="X[1] <= 0.5\ngini = 0.782\nsamples = 321\nvalue = [53, 53, 103, 58, 54]"] ;
18 -> 20 ;
21 [label="gini = 0.793\nsamples = 42\nvalue = [6, 10, 9, 10, 7]"] ;
20 -> 21 ;
22 [label="gini = 0.776\nsamples = 279\nvalue = [47, 43, 94, 48, 47]"] ;
20 -> 22 ;
}