digraph Tree {
node [shape=box] ;
0 [label="X[4] <= 0.5\ngini = 0.742\nsamples = 800\nvalue = [229, 171, 115, 264, 21]"] ;
1 [label="X[0] <= 0.5\ngini = 0.624\nsamples = 413\nvalue = [42, 91, 50, 227, 3]"] ;
0 -> 1 [labeldistance=2.5, labelangle=45, headlabel="True"] ;
2 [label="X[1] <= 0.5\ngini = 0.678\nsamples = 55\nvalue = [6, 24, 6, 18, 1]"] ;
1 -> 2 ;
3 [label="gini = 0.0\nsamples = 1\nvalue = [1, 0, 0, 0, 0]"] ;
2 -> 3 ;
4 [label="X[2] <= 0.5\ngini = 0.67\nsamples = 54\nvalue = [5, 24, 6, 18, 1]"] ;
2 -> 4 ;
5 [label="gini = 0.669\nsamples = 22\nvalue = [3, 10, 1, 7, 1]"] ;
4 -> 5 ;
6 [label="gini = 0.662\nsamples = 32\nvalue = [2, 14, 5, 11, 0]"] ;
4 -> 6 ;
7 [label="X[2] <= 0.5\ngini = 0.599\nsamples = 358\nvalue = [36, 67, 44, 209, 2]"] ;
1 -> 7 ;
8 [label="gini = 0.528\nsamples = 150\nvalue = [10, 32, 9, 97, 2]"] ;
7 -> 8 ;
9 [label="X[1] <= 0.5\ngini = 0.638\nsamples = 208\nvalue = [26, 35, 35, 112, 0]"] ;
7 -> 9 ;
10 [label="gini = 0.625\nsamples = 28\nvalue = [7, 2, 4, 15, 0]"] ;
9 -> 10 ;
11 [label="gini = 0.635\nsamples = 180\nvalue = [19, 33, 31, 97, 0]"] ;
9 -> 11 ;
12 [label="X[0] <= 0.5\ngini = 0.684\nsamples = 387\nvalue = [187, 80, 65, 37, 18]"] ;
0 -> 12 [labeldistance=2.5, labelangle=-45, headlabel="False"] ;
13 [label="X[2] <= 0.5\ngini = 0.508\nsamples = 41\nvalue = [4, 27, 9, 1, 0]"] ;
12 -> 13 ;
14 [label="gini = 0.198\nsamples = 9\nvalue = [0, 8, 0, 1, 0]"] ;
13 -> 14 ;
15 [label="X[1] <= 0.5\ngini = 0.553\nsamples = 32\nvalue = [4, 19, 9, 0, 0]"] ;
13 -> 15 ;
16 [label="gini = 0.0\nsamples = 1\nvalue = [0, 0, 1, 0, 0]"] ;
15 -> 16 ;
17 [label="gini = 0.541\nsamples = 31\nvalue = [4, 19, 8, 0, 0]"] ;
15 -> 17 ;
18 [label="X[1] <= 0.5\ngini = 0.657\nsamples = 346\nvalue = [183, 53, 56, 36, 18]"] ;
12 -> 18 ;
19 [label="gini = 0.724\nsamples = 36\nvalue = [4, 12, 13, 2, 5]"] ;
18 -> 19 ;
20 [label="X[2] <= 0.5\ngini = 0.616\nsamples = 310\nvalue = [179, 41, 43, 34, 13]"] ;
18 -> 20 ;
21 [label="gini = 0.48\nsamples = 130\nvalue = [91, 18, 3, 12, 6]"] ;
20 -> 21 ;
22 [label="gini = 0.679\nsamples = 180\nvalue = [88, 23, 40, 22, 7]"] ;
20 -> 22 ;
}