digraph Tree {
node [shape=box] ;
0 [label="X[2] <= 0.5\ngini = 0.789\nsamples = 2400\nvalue = [329, 660, 421, 549, 441]"] ;
1 [label="X[1] <= 0.5\ngini = 0.782\nsamples = 730\nvalue = [92, 210, 106, 174, 148]"] ;
0 -> 1 [labeldistance=2.5, labelangle=45, headlabel="True"] ;
2 [label="X[0] <= 0.5\ngini = 0.762\nsamples = 260\nvalue = [16, 86, 45, 55, 58]"] ;
1 -> 2 ;
3 [label="X[4] <= 0.5\ngini = 0.731\nsamples = 117\nvalue = [5, 41, 10, 28, 33]"] ;
2 -> 3 ;
4 [label="gini = 0.744\nsamples = 88\nvalue = [3, 26, 10, 24, 25]"] ;
3 -> 4 ;
5 [label="gini = 0.633\nsamples = 29\nvalue = [2, 15, 0, 4, 8]"] ;
3 -> 5 ;
6 [label="X[4] <= 0.5\ngini = 0.769\nsamples = 143\nvalue = [11, 45, 35, 27, 25]"] ;
2 -> 6 ;
7 [label="gini = 0.782\nsamples = 61\nvalue = [7, 17, 13, 15, 9]"] ;
6 -> 7 ;
8 [label="gini = 0.75\nsamples = 82\nvalue = [4, 28, 22, 12, 16]"] ;
6 -> 8 ;
9 [label="X[4] <= 0.5\ngini = 0.787\nsamples = 470\nvalue = [76, 124, 61, 119, 90]"] ;
1 -> 9 ;
10 [label="X[0] <= 0.5\ngini = 0.791\nsamples = 251\nvalue = [41, 57, 39, 68, 46]"] ;
9 -> 10 ;
11 [label="gini = 0.775\nsamples = 116\nvalue = [17, 20, 14, 36, 29]"] ;
10 -> 11 ;
12 [label="gini = 0.787\nsamples = 135\nvalue = [24, 37, 25, 32, 17]"] ;
10 -> 12 ;
13 [label="X[0] <= 0.5\ngini = 0.776\nsamples = 219\nvalue = [35, 67, 22, 51, 44]"] ;
9 -> 13 ;
14 [label="gini = 0.722\nsamples = 37\nvalue = [6, 16, 2, 6, 7]"] ;
13 -> 14 ;
15 [label="gini = 0.782\nsamples = 182\nvalue = [29, 51, 20, 45, 37]"] ;
13 -> 15 ;
16 [label="X[4] <= 0.5\ngini = 0.79\nsamples = 1670\nvalue = [237, 450, 315, 375, 293]"] ;
0 -> 16 [labeldistance=2.5, labelangle=-45, headlabel="False"] ;
17 [label="X[0] <= 0.5\ngini = 0.789\nsamples = 903\nvalue = [139, 250, 167, 209, 138]"] ;
16 -> 17 ;
18 [label="X[1] <= 0.5\ngini = 0.795\nsamples = 254\nvalue = [51, 60, 44, 60, 39]"] ;
17 -> 18 ;
19 [label="gini = 0.776\nsamples = 87\nvalue = [20, 27, 14, 17, 9]"] ;
18 -> 19 ;
20 [label="gini = 0.796\nsamples = 167\nvalue = [31, 33, 30, 43, 30]"] ;
18 -> 20 ;
21 [label="X[1] <= 0.5\ngini = 0.784\nsamples = 649\nvalue = [88, 190, 123, 149, 99]"] ;
17 -> 21 ;
22 [label="gini = 0.787\nsamples = 185\nvalue = [24, 46, 29, 49, 37]"] ;
21 -> 22 ;
23 [label="gini = 0.779\nsamples = 464\nvalue = [64, 144, 94, 100, 62]"] ;
21 -> 23 ;
24 [label="X[0] <= 0.5\ngini = 0.791\nsamples = 767\nvalue = [98, 200, 148, 166, 155]"] ;
16 -> 24 ;
25 [label="X[1] <= 0.5\ngini = 0.762\nsamples = 180\nvalue = [24, 67, 32, 28, 29]"] ;
24 -> 25 ;
26 [label="gini = 0.696\nsamples = 56\nvalue = [7, 26, 3, 13, 7]"] ;
25 -> 26 ;
27 [label="gini = 0.771\nsamples = 124\nvalue = [17, 41, 29, 15, 22]"] ;
25 -> 27 ;
28 [label="X[1] <= 0.5\ngini = 0.792\nsamples = 587\nvalue = [74, 133, 116, 138, 126]"] ;
24 -> 28 ;
29 [label="gini = 0.797\nsamples = 158\nvalue = [29, 31, 27, 37, 34]"] ;
28 -> 29 ;
30 [label="gini = 0.788\nsamples = 429\nvalue = [45, 102, 89, 101, 92]"] ;
28 -> 30 ;
}