digraph Tree {
node [shape=box] ;
0 [label="X[2] <= 0.5\ngini = 0.79\nsamples = 2400\nvalue = [394, 670, 415, 520, 401]"] ;
1 [label="X[0] <= 0.5\ngini = 0.79\nsamples = 635\nvalue = [114, 154, 142, 147, 78]"] ;
0 -> 1 [labeldistance=2.5, labelangle=45, headlabel="True"] ;
2 [label="X[3] <= 0.5\ngini = 0.772\nsamples = 143\nvalue = [37, 43, 30, 18, 15]"] ;
1 -> 2 ;
3 [label="X[1] <= 0.5\ngini = 0.775\nsamples = 73\nvalue = [19, 12, 22, 12, 8]"] ;
2 -> 3 ;
4 [label="gini = 0.774\nsamples = 25\nvalue = [6, 6, 4, 7, 2]"] ;
3 -> 4 ;
5 [label="gini = 0.744\nsamples = 48\nvalue = [13, 6, 18, 5, 6]"] ;
3 -> 5 ;
6 [label="X[1] <= 0.5\ngini = 0.707\nsamples = 70\nvalue = [18, 31, 8, 6, 7]"] ;
2 -> 6 ;
7 [label="gini = 0.707\nsamples = 33\nvalue = [9, 14, 4, 1, 5]"] ;
6 -> 7 ;
8 [label="gini = 0.697\nsamples = 37\nvalue = [9, 17, 4, 5, 2]"] ;
6 -> 8 ;
9 [label="X[3] <= 0.5\ngini = 0.788\nsamples = 492\nvalue = [77, 111, 112, 129, 63]"] ;
1 -> 9 ;
10 [label="X[1] <= 0.5\ngini = 0.784\nsamples = 244\nvalue = [41, 69, 43, 60, 31]"] ;
9 -> 10 ;
11 [label="gini = 0.761\nsamples = 51\nvalue = [12, 18, 6, 9, 6]"] ;
10 -> 11 ;
12 [label="gini = 0.784\nsamples = 193\nvalue = [29, 51, 37, 51, 25]"] ;
10 -> 12 ;
13 [label="X[1] <= 0.5\ngini = 0.779\nsamples = 248\nvalue = [36, 42, 69, 69, 32]"] ;
9 -> 13 ;
14 [label="gini = 0.793\nsamples = 48\nvalue = [9, 8, 13, 10, 8]"] ;
13 -> 14 ;
15 [label="gini = 0.773\nsamples = 200\nvalue = [27, 34, 56, 59, 24]"] ;
13 -> 15 ;
16 [label="X[0] <= 0.5\ngini = 0.787\nsamples = 1765\nvalue = [280, 516, 273, 373, 323]"] ;
0 -> 16 [labeldistance=2.5, labelangle=-45, headlabel="False"] ;
17 [label="X[1] <= 0.5\ngini = 0.775\nsamples = 534\nvalue = [86, 178, 70, 110, 90]"] ;
16 -> 17 ;
18 [label="X[4] <= 0.5\ngini = 0.764\nsamples = 71\nvalue = [13, 20, 6, 22, 10]"] ;
17 -> 18 ;
19 [label="gini = 0.722\nsamples = 39\nvalue = [6, 12, 3, 15, 3]"] ;
18 -> 19 ;
20 [label="gini = 0.785\nsamples = 32\nvalue = [7, 8, 3, 7, 7]"] ;
18 -> 20 ;
21 [label="X[4] <= 0.5\ngini = 0.774\nsamples = 463\nvalue = [73, 158, 64, 88, 80]"] ;
17 -> 21 ;
22 [label="gini = 0.777\nsamples = 224\nvalue = [42, 71, 24, 45, 42]"] ;
21 -> 22 ;
23 [label="gini = 0.765\nsamples = 239\nvalue = [31, 87, 40, 43, 38]"] ;
21 -> 23 ;
24 [label="X[3] <= 0.5\ngini = 0.791\nsamples = 1231\nvalue = [194, 338, 203, 263, 233]"] ;
16 -> 24 ;
25 [label="X[1] <= 0.5\ngini = 0.793\nsamples = 675\nvalue = [128, 181, 107, 131, 128]"] ;
24 -> 25 ;
26 [label="gini = 0.795\nsamples = 225\nvalue = [49, 54, 33, 47, 42]"] ;
25 -> 26 ;
27 [label="gini = 0.791\nsamples = 450\nvalue = [79, 127, 74, 84, 86]"] ;
25 -> 27 ;
28 [label="X[1] <= 0.5\ngini = 0.784\nsamples = 556\nvalue = [66, 157, 96, 132, 105]"] ;
24 -> 28 ;
29 [label="gini = 0.77\nsamples = 194\nvalue = [21, 64, 26, 40, 43]"] ;
28 -> 29 ;
30 [label="gini = 0.787\nsamples = 362\nvalue = [45, 93, 70, 92, 62]"] ;
28 -> 30 ;
}