digraph Tree {
node [shape=box] ;
0 [label="X[0] <= 0.5\ngini = 0.789\nsamples = 2400\nvalue = [360, 668, 410, 557, 405]"] ;
1 [label="X[2] <= 0.5\ngini = 0.78\nsamples = 628\nvalue = [91, 197, 111, 140, 89]"] ;
0 -> 1 [labeldistance=2.5, labelangle=45, headlabel="True"] ;
2 [label="X[1] <= 0.5\ngini = 0.761\nsamples = 165\nvalue = [21, 57, 21, 43, 23]"] ;
1 -> 2 ;
3 [label="X[3] <= 0.5\ngini = 0.781\nsamples = 55\nvalue = [9, 17, 10, 12, 7]"] ;
2 -> 3 ;
4 [label="gini = 0.765\nsamples = 25\nvalue = [3, 7, 4, 8, 3]"] ;
3 -> 4 ;
5 [label="gini = 0.773\nsamples = 30\nvalue = [6, 10, 6, 4, 4]"] ;
3 -> 5 ;
6 [label="X[4] <= 0.5\ngini = 0.745\nsamples = 110\nvalue = [12, 40, 11, 31, 16]"] ;
2 -> 6 ;
7 [label="gini = 0.741\nsamples = 63\nvalue = [7, 24, 7, 17, 8]"] ;
6 -> 7 ;
8 [label="gini = 0.748\nsamples = 47\nvalue = [5, 16, 4, 14, 8]"] ;
6 -> 8 ;
9 [label="X[1] <= 0.5\ngini = 0.784\nsamples = 463\nvalue = [70, 140, 90, 97, 66]"] ;
1 -> 9 ;
10 [label="X[4] <= 0.5\ngini = 0.774\nsamples = 102\nvalue = [15, 35, 16, 17, 19]"] ;
9 -> 10 ;
11 [label="gini = 0.763\nsamples = 60\nvalue = [8, 21, 6, 12, 13]"] ;
10 -> 11 ;
12 [label="gini = 0.77\nsamples = 42\nvalue = [7, 14, 10, 5, 6]"] ;
10 -> 12 ;
13 [label="X[3] <= 0.5\ngini = 0.784\nsamples = 361\nvalue = [55, 105, 74, 80, 47]"] ;
9 -> 13 ;
14 [label="gini = 0.779\nsamples = 184\nvalue = [30, 58, 27, 42, 27]"] ;
13 -> 14 ;
15 [label="gini = 0.78\nsamples = 177\nvalue = [25, 47, 47, 38, 20]"] ;
13 -> 15 ;
16 [label="X[3] <= 0.5\ngini = 0.791\nsamples = 1772\nvalue = [269, 471, 299, 417, 316]"] ;
0 -> 16 [labeldistance=2.5, labelangle=-45, headlabel="False"] ;
17 [label="X[2] <= 0.5\ngini = 0.788\nsamples = 868\nvalue = [136, 239, 135, 211, 147]"] ;
16 -> 17 ;
18 [label="X[1] <= 0.5\ngini = 0.785\nsamples = 242\nvalue = [35, 67, 35, 61, 44]"] ;
17 -> 18 ;
19 [label="gini = 0.784\nsamples = 58\nvalue = [10, 16, 9, 15, 8]"] ;
18 -> 19 ;
20 [label="gini = 0.784\nsamples = 184\nvalue = [25, 51, 26, 46, 36]"] ;
18 -> 20 ;
21 [label="X[1] <= 0.5\ngini = 0.788\nsamples = 626\nvalue = [101, 172, 100, 150, 103]"] ;
17 -> 21 ;
22 [label="gini = 0.782\nsamples = 194\nvalue = [27, 56, 29, 49, 33]"] ;
21 -> 22 ;
23 [label="gini = 0.791\nsamples = 432\nvalue = [74, 116, 71, 101, 70]"] ;
21 -> 23 ;
24 [label="X[2] <= 0.5\ngini = 0.793\nsamples = 904\nvalue = [133, 232, 164, 206, 169]"] ;
16 -> 24 ;
25 [label="X[1] <= 0.5\ngini = 0.79\nsamples = 273\nvalue = [42, 74, 53, 62, 42]"] ;
24 -> 25 ;
26 [label="gini = 0.795\nsamples = 63\nvalue = [9, 14, 12, 15, 13]"] ;
25 -> 26 ;
27 [label="gini = 0.786\nsamples = 210\nvalue = [33, 60, 41, 47, 29]"] ;
25 -> 27 ;
28 [label="X[1] <= 0.5\ngini = 0.793\nsamples = 631\nvalue = [91, 158, 111, 144, 127]"] ;
24 -> 28 ;
29 [label="gini = 0.786\nsamples = 225\nvalue = [32, 61, 32, 55, 45]"] ;
28 -> 29 ;
30 [label="gini = 0.795\nsamples = 406\nvalue = [59, 97, 79, 89, 82]"] ;
28 -> 30 ;
}