digraph Tree {
node [shape=box] ;
0 [label="X[4] <= 0.5\ngini = 0.708\nsamples = 800\nvalue = [267, 135, 79, 301, 18]"] ;
1 [label="X[0] <= 0.5\ngini = 0.588\nsamples = 358\nvalue = [45, 62, 34, 214, 3]"] ;
0 -> 1 [labeldistance=2.5, labelangle=45, headlabel="True"] ;
2 [label="X[2] <= 0.5\ngini = 0.683\nsamples = 58\nvalue = [14, 17, 2, 24, 1]"] ;
1 -> 2 ;
3 [label="gini = 0.658\nsamples = 21\nvalue = [5, 5, 0, 10, 1]"] ;
2 -> 3 ;
4 [label="gini = 0.69\nsamples = 37\nvalue = [9, 12, 2, 14, 0]"] ;
2 -> 4 ;
5 [label="X[1] <= 0.5\ngini = 0.554\nsamples = 300\nvalue = [31, 45, 32, 190, 2]"] ;
1 -> 5 ;
6 [label="gini = 0.675\nsamples = 20\nvalue = [1, 4, 7, 8, 0]"] ;
5 -> 6 ;
7 [label="X[2] <= 0.5\ngini = 0.537\nsamples = 280\nvalue = [30, 41, 25, 182, 2]"] ;
5 -> 7 ;
8 [label="gini = 0.551\nsamples = 118\nvalue = [12, 24, 7, 74, 1]"] ;
7 -> 8 ;
9 [label="gini = 0.52\nsamples = 162\nvalue = [18, 17, 18, 108, 1]"] ;
7 -> 9 ;
10 [label="X[0] <= 0.5\ngini = 0.67\nsamples = 442\nvalue = [222, 73, 45, 87, 15]"] ;
0 -> 10 [labeldistance=2.5, labelangle=-45, headlabel="False"] ;
11 [label="X[1] <= 0.5\ngini = 0.719\nsamples = 44\nvalue = [7, 18, 7, 11, 1]"] ;
10 -> 11 ;
12 [label="gini = 0.5\nsamples = 2\nvalue = [1, 0, 1, 0, 0]"] ;
11 -> 12 ;
13 [label="X[2] <= 0.5\ngini = 0.706\nsamples = 42\nvalue = [6, 18, 6, 11, 1]"] ;
11 -> 13 ;
14 [label="gini = 0.611\nsamples = 12\nvalue = [2, 6, 0, 4, 0]"] ;
13 -> 14 ;
15 [label="gini = 0.727\nsamples = 30\nvalue = [4, 12, 6, 7, 1]"] ;
13 -> 15 ;
16 [label="X[2] <= 0.5\ngini = 0.642\nsamples = 398\nvalue = [215, 55, 38, 76, 14]"] ;
10 -> 16 ;
17 [label="gini = 0.511\nsamples = 143\nvalue = [96, 17, 2, 21, 7]"] ;
16 -> 17 ;
18 [label="X[1] <= 0.5\ngini = 0.693\nsamples = 255\nvalue = [119, 38, 36, 55, 7]"] ;
16 -> 18 ;
19 [label="gini = 0.749\nsamples = 30\nvalue = [7, 8, 10, 3, 2]"] ;
18 -> 19 ;
20 [label="gini = 0.667\nsamples = 225\nvalue = [112, 30, 26, 52, 5]"] ;
18 -> 20 ;
}