digraph Tree {
node [shape=box] ;
0 [label="X[1] <= 0.5\ngini = 0.753\nsamples = 6526\nvalue = [1690, 1911, 1814, 312, 799]"] ;
1 [label="X[2] <= 0.5\ngini = 0.486\nsamples = 541\nvalue = [120, 3, 367, 19, 32]"] ;
0 -> 1 [labeldistance=2.5, labelangle=45, headlabel="True"] ;
2 [label="X[0] <= 0.5\ngini = 0.578\nsamples = 123\nvalue = [75, 2, 13, 12, 21]"] ;
1 -> 2 ;
3 [label="gini = 0.743\nsamples = 58\nvalue = [21, 2, 12, 9, 14]"] ;
2 -> 3 ;
4 [label="gini = 0.296\nsamples = 65\nvalue = [54, 0, 1, 3, 7]"] ;
2 -> 4 ;
5 [label="X[4] <= 0.5\ngini = 0.27\nsamples = 418\nvalue = [45, 1, 354, 7, 11]"] ;
1 -> 5 ;
6 [label="gini = 0.0\nsamples = 1\nvalue = [1, 0, 0, 0, 0]"] ;
5 -> 6 ;
7 [label="X[0] <= 0.5\ngini = 0.267\nsamples = 417\nvalue = [44, 1, 354, 7, 11]"] ;
5 -> 7 ;
8 [label="gini = 0.667\nsamples = 3\nvalue = [1, 0, 1, 1, 0]"] ;
7 -> 8 ;
9 [label="gini = 0.261\nsamples = 414\nvalue = [43, 1, 353, 6, 11]"] ;
7 -> 9 ;
10 [label="X[0] <= 0.5\ngini = 0.752\nsamples = 5985\nvalue = [1570, 1908, 1447, 293, 767]"] ;
0 -> 10 [labeldistance=2.5, labelangle=-45, headlabel="False"] ;
11 [label="X[2] <= 0.5\ngini = 0.304\nsamples = 117\nvalue = [6, 97, 2, 5, 7]"] ;
10 -> 11 ;
12 [label="X[3] <= 0.5\ngini = 0.281\nsamples = 115\nvalue = [6, 97, 1, 5, 6]"] ;
11 -> 12 ;
13 [label="gini = 0.283\nsamples = 114\nvalue = [6, 96, 1, 5, 6]"] ;
12 -> 13 ;
14 [label="gini = 0.0\nsamples = 1\nvalue = [0, 1, 0, 0, 0]"] ;
12 -> 14 ;
15 [label="X[4] <= 0.5\ngini = 0.5\nsamples = 2\nvalue = [0, 0, 1, 0, 1]"] ;
11 -> 15 ;
16 [label="gini = 0.0\nsamples = 1\nvalue = [0, 0, 1, 0, 0]"] ;
15 -> 16 ;
17 [label="gini = 0.0\nsamples = 1\nvalue = [0, 0, 0, 0, 1]"] ;
15 -> 17 ;
18 [label="X[2] <= 0.5\ngini = 0.754\nsamples = 5868\nvalue = [1564, 1811, 1445, 288, 760]"] ;
10 -> 18 ;
19 [label="X[4] <= 0.5\ngini = 0.612\nsamples = 152\nvalue = [85, 38, 7, 11, 11]"] ;
18 -> 19 ;
20 [label="gini = 0.0\nsamples = 1\nvalue = [1, 0, 0, 0, 0]"] ;
19 -> 20 ;
21 [label="gini = 0.614\nsamples = 151\nvalue = [84, 38, 7, 11, 11]"] ;
19 -> 21 ;
22 [label="X[4] <= 0.5\ngini = 0.754\nsamples = 5716\nvalue = [1479, 1773, 1438, 277, 749]"] ;
18 -> 22 ;
23 [label="gini = 0.5\nsamples = 2\nvalue = [1, 0, 1, 0, 0]"] ;
22 -> 23 ;
24 [label="gini = 0.754\nsamples = 5714\nvalue = [1478, 1773, 1437, 277, 749]"] ;
22 -> 24 ;
}