digraph Tree {
node [shape=box] ;
0 [label="X[3] <= 0.5\ngini = 0.717\nsamples = 800\nvalue = [247, 148, 95, 298, 12]"] ;
1 [label="X[0] <= 0.5\ngini = 0.666\nsamples = 393\nvalue = [199, 80, 58, 47, 9]"] ;
0 -> 1 [labeldistance=2.5, labelangle=45, headlabel="True"] ;
2 [label="X[2] <= 0.5\ngini = 0.7\nsamples = 48\nvalue = [5, 19, 16, 7, 1]"] ;
1 -> 2 ;
3 [label="gini = 0.56\nsamples = 10\nvalue = [2, 6, 0, 2, 0]"] ;
2 -> 3 ;
4 [label="X[1] <= 0.5\ngini = 0.681\nsamples = 38\nvalue = [3, 13, 16, 5, 1]"] ;
2 -> 4 ;
5 [label="gini = 0.0\nsamples = 1\nvalue = [0, 0, 0, 0, 1]"] ;
4 -> 5 ;
6 [label="gini = 0.665\nsamples = 37\nvalue = [3, 13, 16, 5, 0]"] ;
4 -> 6 ;
7 [label="X[1] <= 0.5\ngini = 0.624\nsamples = 345\nvalue = [194, 61, 42, 40, 8]"] ;
1 -> 7 ;
8 [label="gini = 0.589\nsamples = 28\nvalue = [9, 4, 15, 0, 0]"] ;
7 -> 8 ;
9 [label="X[2] <= 0.5\ngini = 0.603\nsamples = 317\nvalue = [185, 57, 27, 40, 8]"] ;
7 -> 9 ;
10 [label="gini = 0.525\nsamples = 124\nvalue = [81, 22, 5, 15, 1]"] ;
9 -> 10 ;
11 [label="gini = 0.646\nsamples = 193\nvalue = [104, 35, 22, 25, 7]"] ;
9 -> 11 ;
12 [label="X[0] <= 0.5\ngini = 0.57\nsamples = 407\nvalue = [48, 68, 37, 251, 3]"] ;
0 -> 12 [labeldistance=2.5, labelangle=-45, headlabel="False"] ;
13 [label="X[2] <= 0.5\ngini = 0.661\nsamples = 40\nvalue = [15, 11, 0, 14, 0]"] ;
12 -> 13 ;
14 [label="gini = 0.604\nsamples = 15\nvalue = [4, 8, 0, 3, 0]"] ;
13 -> 14 ;
15 [label="X[1] <= 0.5\ngini = 0.598\nsamples = 25\nvalue = [11, 3, 0, 11, 0]"] ;
13 -> 15 ;
16 [label="gini = 0.0\nsamples = 1\nvalue = [0, 1, 0, 0, 0]"] ;
15 -> 16 ;
17 [label="gini = 0.573\nsamples = 24\nvalue = [11, 2, 0, 11, 0]"] ;
15 -> 17 ;
18 [label="X[1] <= 0.5\ngini = 0.541\nsamples = 367\nvalue = [33, 57, 37, 237, 3]"] ;
12 -> 18 ;
19 [label="gini = 0.591\nsamples = 22\nvalue = [1, 0, 7, 12, 2]"] ;
18 -> 19 ;
20 [label="X[2] <= 0.5\ngini = 0.531\nsamples = 345\nvalue = [32, 57, 30, 225, 1]"] ;
18 -> 20 ;
21 [label="gini = 0.512\nsamples = 128\nvalue = [12, 24, 7, 85, 0]"] ;
20 -> 21 ;
22 [label="gini = 0.541\nsamples = 217\nvalue = [20, 33, 23, 140, 1]"] ;
20 -> 22 ;
}