digraph Tree {
node [shape=box] ;
0 [label="X[1] <= 0.5\ngini = 0.799\nsamples = 800\nvalue = [154, 157, 170, 145, 174]"] ;
1 [label="X[0] <= 0.5\ngini = 0.788\nsamples = 85\nvalue = [16, 13, 14, 25, 17]"] ;
0 -> 1 [labeldistance=2.5, labelangle=45, headlabel="True"] ;
2 [label="X[3] <= 0.5\ngini = 0.688\nsamples = 8\nvalue = [3, 1, 0, 1, 3]"] ;
1 -> 2 ;
3 [label="gini = 0.75\nsamples = 4\nvalue = [1, 1, 0, 1, 1]"] ;
2 -> 3 ;
4 [label="gini = 0.5\nsamples = 4\nvalue = [2, 0, 0, 0, 2]"] ;
2 -> 4 ;
5 [label="X[3] <= 0.5\ngini = 0.784\nsamples = 77\nvalue = [13, 12, 14, 24, 14]"] ;
1 -> 5 ;
6 [label="gini = 0.788\nsamples = 38\nvalue = [6, 7, 6, 11, 8]"] ;
5 -> 6 ;
7 [label="gini = 0.774\nsamples = 39\nvalue = [7, 5, 8, 13, 6]"] ;
5 -> 7 ;
8 [label="X[2] <= 0.5\ngini = 0.798\nsamples = 715\nvalue = [138, 144, 156, 120, 157]"] ;
0 -> 8 [labeldistance=2.5, labelangle=-45, headlabel="False"] ;
9 [label="X[3] <= 0.5\ngini = 0.789\nsamples = 119\nvalue = [21, 22, 35, 19, 22]"] ;
8 -> 9 ;
10 [label="X[0] <= 0.5\ngini = 0.793\nsamples = 59\nvalue = [9, 13, 15, 10, 12]"] ;
9 -> 10 ;
11 [label="gini = 0.5\nsamples = 2\nvalue = [0, 0, 1, 1, 0]"] ;
10 -> 11 ;
12 [label="gini = 0.793\nsamples = 57\nvalue = [9, 13, 14, 9, 12]"] ;
10 -> 12 ;
13 [label="X[0] <= 0.5\ngini = 0.776\nsamples = 60\nvalue = [12, 9, 20, 9, 10]"] ;
9 -> 13 ;
14 [label="gini = 0.722\nsamples = 6\nvalue = [1, 2, 0, 1, 2]"] ;
13 -> 14 ;
15 [label="gini = 0.761\nsamples = 54\nvalue = [11, 7, 20, 8, 8]"] ;
13 -> 15 ;
16 [label="X[4] <= 0.5\ngini = 0.798\nsamples = 596\nvalue = [117, 122, 121, 101, 135]"] ;
8 -> 16 ;
17 [label="X[0] <= 0.5\ngini = 0.795\nsamples = 310\nvalue = [60, 62, 62, 47, 79]"] ;
16 -> 17 ;
18 [label="gini = 0.783\nsamples = 55\nvalue = [8, 14, 7, 11, 15]"] ;
17 -> 18 ;
19 [label="gini = 0.794\nsamples = 255\nvalue = [52, 48, 55, 36, 64]"] ;
17 -> 19 ;
20 [label="X[0] <= 0.5\ngini = 0.8\nsamples = 286\nvalue = [57, 60, 59, 54, 56]"] ;
16 -> 20 ;
21 [label="gini = 0.796\nsamples = 42\nvalue = [9, 7, 9, 10, 7]"] ;
20 -> 21 ;
22 [label="gini = 0.799\nsamples = 244\nvalue = [48, 53, 50, 44, 49]"] ;
20 -> 22 ;
}