digraph Tree {
node [shape=box] ;
0 [label="X[1] <= 0.5\ngini = 0.8\nsamples = 35200\nvalue = [7100, 7109, 7031, 7170, 6790]"] ;
1 [label="X[0] <= 0.5\ngini = 0.8\nsamples = 11185\nvalue = [2216, 2236, 2205, 2371, 2157]"] ;
0 -> 1 [labeldistance=2.5, labelangle=45, headlabel="True"] ;
2 [label="X[4] <= 0.5\ngini = 0.798\nsamples = 1094\nvalue = [254, 233, 215, 193, 199]"] ;
1 -> 2 ;
3 [label="gini = 0.794\nsamples = 166\nvalue = [31, 42, 37, 30, 26]"] ;
2 -> 3 ;
4 [label="gini = 0.797\nsamples = 928\nvalue = [223, 191, 178, 163, 173]"] ;
2 -> 4 ;
5 [label="X[3] <= 0.5\ngini = 0.8\nsamples = 10091\nvalue = [1962, 2003, 1990, 2178, 1958]"] ;
1 -> 5 ;
6 [label="gini = 0.8\nsamples = 8495\nvalue = [1659, 1667, 1661, 1841, 1667]"] ;
5 -> 6 ;
7 [label="gini = 0.799\nsamples = 1596\nvalue = [303, 336, 329, 337, 291]"] ;
5 -> 7 ;
8 [label="X[0] <= 0.5\ngini = 0.8\nsamples = 24015\nvalue = [4884, 4873, 4826, 4799, 4633]"] ;
0 -> 8 [labeldistance=2.5, labelangle=-45, headlabel="False"] ;
9 [label="X[4] <= 0.5\ngini = 0.799\nsamples = 1762\nvalue = [316, 369, 343, 362, 372]"] ;
8 -> 9 ;
10 [label="X[2] <= 0.5\ngini = 0.791\nsamples = 407\nvalue = [57, 99, 66, 101, 84]"] ;
9 -> 10 ;
11 [label="gini = 0.79\nsamples = 145\nvalue = [22, 27, 41, 27, 28]"] ;
10 -> 11 ;
12 [label="gini = 0.772\nsamples = 262\nvalue = [35, 72, 25, 74, 56]"] ;
10 -> 12 ;
13 [label="X[2] <= 0.5\ngini = 0.8\nsamples = 1355\nvalue = [259, 270, 277, 261, 288]"] ;
9 -> 13 ;
14 [label="gini = 0.792\nsamples = 224\nvalue = [46, 32, 38, 52, 56]"] ;
13 -> 14 ;
15 [label="gini = 0.799\nsamples = 1131\nvalue = [213, 238, 239, 209, 232]"] ;
13 -> 15 ;
16 [label="X[2] <= 0.5\ngini = 0.8\nsamples = 22253\nvalue = [4568, 4504, 4483, 4437, 4261]"] ;
8 -> 16 ;
17 [label="X[3] <= 0.5\ngini = 0.8\nsamples = 13999\nvalue = [2875, 2814, 2786, 2827, 2697]"] ;
16 -> 17 ;
18 [label="gini = 0.8\nsamples = 10258\nvalue = [2147, 2060, 2073, 2034, 1944]"] ;
17 -> 18 ;
19 [label="gini = 0.8\nsamples = 3741\nvalue = [728, 754, 713, 793, 753]"] ;
17 -> 19 ;
20 [label="X[3] <= 0.5\ngini = 0.8\nsamples = 8254\nvalue = [1693, 1690, 1697, 1610, 1564]"] ;
16 -> 20 ;
21 [label="gini = 0.8\nsamples = 3639\nvalue = [712, 732, 706, 736, 753]"] ;
20 -> 21 ;
22 [label="gini = 0.799\nsamples = 4615\nvalue = [981, 958, 991, 874, 811]"] ;
20 -> 22 ;
}