digraph Tree {
node [shape=box] ;
0 [label="X[2] <= 0.5\ngini = 0.772\nsamples = 16472\nvalue = [5181, 3396, 3618, 1343, 2934]"] ;
1 [label="X[3] <= 0.5\ngini = 0.77\nsamples = 15574\nvalue = [5104, 3254, 3099, 1315, 2802]"] ;
0 -> 1 [labeldistance=2.5, labelangle=45, headlabel="True"] ;
2 [label="X[0] <= 0.5\ngini = 0.742\nsamples = 8269\nvalue = [3253, 1596, 1727, 654, 1039]"] ;
1 -> 2 ;
3 [label="gini = 0.771\nsamples = 793\nvalue = [226, 223, 159, 70, 115]"] ;
2 -> 3 ;
4 [label="gini = 0.737\nsamples = 7476\nvalue = [3027, 1373, 1568, 584, 924]"] ;
2 -> 4 ;
5 [label="X[0] <= 0.5\ngini = 0.783\nsamples = 7305\nvalue = [1851, 1658, 1372, 661, 1763]"] ;
1 -> 5 ;
6 [label="gini = 0.592\nsamples = 53\nvalue = [4, 31, 5, 1, 12]"] ;
5 -> 6 ;
7 [label="gini = 0.783\nsamples = 7252\nvalue = [1847, 1627, 1367, 660, 1751]"] ;
5 -> 7 ;
8 [label="X[1] <= 0.5\ngini = 0.611\nsamples = 898\nvalue = [77, 142, 519, 28, 132]"] ;
0 -> 8 [labeldistance=2.5, labelangle=-45, headlabel="False"] ;
9 [label="X[4] <= 0.5\ngini = 0.748\nsamples = 532\nvalue = [75, 121, 191, 28, 117]"] ;
8 -> 9 ;
10 [label="gini = 0.633\nsamples = 89\nvalue = [0, 22, 43, 0, 24]"] ;
9 -> 10 ;
11 [label="gini = 0.762\nsamples = 443\nvalue = [75, 99, 148, 28, 93]"] ;
9 -> 11 ;
12 [label="X[3] <= 0.5\ngini = 0.192\nsamples = 366\nvalue = [2, 21, 328, 0, 15]"] ;
8 -> 12 ;
13 [label="X[0] <= 0.5\ngini = 0.541\nsamples = 14\nvalue = [0, 8, 5, 0, 1]"] ;
12 -> 13 ;
14 [label="gini = 0.0\nsamples = 1\nvalue = [0, 1, 0, 0, 0]"] ;
13 -> 14 ;
15 [label="gini = 0.556\nsamples = 13\nvalue = [0, 7, 5, 0, 1]"] ;
13 -> 15 ;
16 [label="X[0] <= 0.5\ngini = 0.155\nsamples = 352\nvalue = [2, 13, 323, 0, 14]"] ;
12 -> 16 ;
17 [label="gini = 0.0\nsamples = 1\nvalue = [0, 1, 0, 0, 0]"] ;
16 -> 17 ;
18 [label="gini = 0.15\nsamples = 351\nvalue = [2, 12, 323, 0, 14]"] ;
16 -> 18 ;
}