digraph Tree {
node [shape=box] ;
0 [label="X[0] <= 0.5\ngini = 0.788\nsamples = 2400\nvalue = [349, 669, 375, 529, 478]"] ;
1 [label="X[2] <= 0.5\ngini = 0.797\nsamples = 539\nvalue = [95, 132, 92, 108, 112]"] ;
0 -> 1 [labeldistance=2.5, labelangle=45, headlabel="True"] ;
2 [label="X[1] <= 0.5\ngini = 0.785\nsamples = 78\nvalue = [8, 17, 17, 15, 21]"] ;
1 -> 2 ;
3 [label="X[3] <= 0.5\ngini = 0.76\nsamples = 30\nvalue = [2, 9, 9, 5, 5]"] ;
2 -> 3 ;
4 [label="gini = 0.66\nsamples = 10\nvalue = [2, 5, 1, 2, 0]"] ;
3 -> 4 ;
5 [label="gini = 0.715\nsamples = 20\nvalue = [0, 4, 8, 3, 5]"] ;
3 -> 5 ;
6 [label="X[3] <= 0.5\ngini = 0.774\nsamples = 48\nvalue = [6, 8, 8, 10, 16]"] ;
2 -> 6 ;
7 [label="gini = 0.781\nsamples = 22\nvalue = [5, 2, 5, 4, 6]"] ;
6 -> 7 ;
8 [label="gini = 0.731\nsamples = 26\nvalue = [1, 6, 3, 6, 10]"] ;
6 -> 8 ;
9 [label="X[1] <= 0.5\ngini = 0.796\nsamples = 461\nvalue = [87, 115, 75, 93, 91]"] ;
1 -> 9 ;
10 [label="X[3] <= 0.5\ngini = 0.784\nsamples = 62\nvalue = [8, 16, 10, 11, 17]"] ;
9 -> 10 ;
11 [label="gini = 0.73\nsamples = 27\nvalue = [2, 8, 5, 2, 10]"] ;
10 -> 11 ;
12 [label="gini = 0.792\nsamples = 35\nvalue = [6, 8, 5, 9, 7]"] ;
10 -> 12 ;
13 [label="X[4] <= 0.5\ngini = 0.796\nsamples = 399\nvalue = [79, 99, 65, 82, 74]"] ;
9 -> 13 ;
14 [label="gini = 0.793\nsamples = 214\nvalue = [41, 58, 36, 41, 38]"] ;
13 -> 14 ;
15 [label="gini = 0.797\nsamples = 185\nvalue = [38, 41, 29, 41, 36]"] ;
13 -> 15 ;
16 [label="X[2] <= 0.5\ngini = 0.785\nsamples = 1861\nvalue = [254, 537, 283, 421, 366]"] ;
0 -> 16 [labeldistance=2.5, labelangle=-45, headlabel="False"] ;
17 [label="X[1] <= 0.5\ngini = 0.79\nsamples = 490\nvalue = [87, 131, 67, 112, 93]"] ;
16 -> 17 ;
18 [label="X[4] <= 0.5\ngini = 0.786\nsamples = 65\nvalue = [15, 15, 8, 10, 17]"] ;
17 -> 18 ;
19 [label="gini = 0.756\nsamples = 36\nvalue = [5, 9, 4, 5, 13]"] ;
18 -> 19 ;
20 [label="gini = 0.771\nsamples = 29\nvalue = [10, 6, 4, 5, 4]"] ;
18 -> 20 ;
21 [label="X[4] <= 0.5\ngini = 0.788\nsamples = 425\nvalue = [72, 116, 59, 102, 76]"] ;
17 -> 21 ;
22 [label="gini = 0.781\nsamples = 223\nvalue = [42, 61, 22, 56, 42]"] ;
21 -> 22 ;
23 [label="gini = 0.79\nsamples = 202\nvalue = [30, 55, 37, 46, 34]"] ;
21 -> 23 ;
24 [label="X[4] <= 0.5\ngini = 0.782\nsamples = 1371\nvalue = [167, 406, 216, 309, 273]"] ;
16 -> 24 ;
25 [label="X[1] <= 0.5\ngini = 0.785\nsamples = 683\nvalue = [87, 191, 103, 162, 140]"] ;
24 -> 25 ;
26 [label="gini = 0.773\nsamples = 194\nvalue = [28, 66, 33, 27, 40]"] ;
25 -> 26 ;
27 [label="gini = 0.782\nsamples = 489\nvalue = [59, 125, 70, 135, 100]"] ;
25 -> 27 ;
28 [label="X[1] <= 0.5\ngini = 0.779\nsamples = 688\nvalue = [80, 215, 113, 147, 133]"] ;
24 -> 28 ;
29 [label="gini = 0.768\nsamples = 214\nvalue = [24, 61, 25, 64, 40]"] ;
28 -> 29 ;
30 [label="gini = 0.777\nsamples = 474\nvalue = [56, 154, 88, 83, 93]"] ;
28 -> 30 ;
}