digraph Tree {
node [shape=box] ;
0 [label="X[3] <= 0.5\ngini = 0.599\nsamples = 22409\nvalue = [253, 9845, 9938, 2373]"] ;
1 [label="X[0] <= 0.5\ngini = 0.599\nsamples = 21706\nvalue = [250, 9698, 9472, 2286]"] ;
0 -> 1 [labeldistance=2.5, labelangle=45, headlabel="True"] ;
2 [label="gini = 0.606\nsamples = 7711\nvalue = [87, 3432, 3287, 905]"] ;
1 -> 2 ;
3 [label="gini = 0.594\nsamples = 13995\nvalue = [163, 6266, 6185, 1381]"] ;
1 -> 3 ;
4 [label="gini = 0.502\nsamples = 703\nvalue = [3, 147, 466, 87]"] ;
0 -> 4 [labeldistance=2.5, labelangle=-45, headlabel="False"] ;
}