digraph Tree {
node [shape=box] ;
0 [label="X[3] <= 0.5\ngini = 0.711\nsamples = 3200\nvalue = [1234, 692, 226, 947, 101]"] ;
1 [label="X[0] <= 0.5\ngini = 0.675\nsamples = 2280\nvalue = [1093, 482, 134, 486, 85]"] ;
0 -> 1 [labeldistance=2.5, labelangle=45, headlabel="True"] ;
2 [label="X[2] <= 0.5\ngini = 0.682\nsamples = 777\nvalue = [317, 276, 21, 111, 52]"] ;
1 -> 2 ;
3 [label="gini = 0.682\nsamples = 757\nvalue = [309, 267, 18, 111, 52]"] ;
2 -> 3 ;
4 [label="gini = 0.615\nsamples = 20\nvalue = [8, 9, 3, 0, 0]"] ;
2 -> 4 ;
5 [label="X[2] <= 0.5\ngini = 0.646\nsamples = 1503\nvalue = [776, 206, 113, 375, 33]"] ;
1 -> 5 ;
6 [label="gini = 0.632\nsamples = 1212\nvalue = [623, 160, 59, 351, 19]"] ;
5 -> 6 ;
7 [label="X[1] <= 0.5\ngini = 0.655\nsamples = 291\nvalue = [153, 46, 54, 24, 14]"] ;
5 -> 7 ;
8 [label="gini = 0.714\nsamples = 96\nvalue = [38, 20, 27, 5, 6]"] ;
7 -> 8 ;
9 [label="gini = 0.604\nsamples = 195\nvalue = [115, 26, 27, 19, 8]"] ;
7 -> 9 ;
10 [label="X[1] <= 0.5\ngini = 0.663\nsamples = 920\nvalue = [141, 210, 92, 461, 16]"] ;
0 -> 10 [labeldistance=2.5, labelangle=-45, headlabel="False"] ;
11 [label="X[0] <= 0.5\ngini = 0.754\nsamples = 46\nvalue = [6, 7, 17, 11, 5]"] ;
10 -> 11 ;
12 [label="gini = 0.0\nsamples = 1\nvalue = [1, 0, 0, 0, 0]"] ;
11 -> 12 ;
13 [label="gini = 0.749\nsamples = 45\nvalue = [5, 7, 17, 11, 5]"] ;
11 -> 13 ;
14 [label="X[2] <= 0.5\ngini = 0.65\nsamples = 874\nvalue = [135, 203, 75, 450, 11]"] ;
10 -> 14 ;
15 [label="X[0] <= 0.5\ngini = 0.673\nsamples = 580\nvalue = [109, 146, 41, 274, 10]"] ;
14 -> 15 ;
16 [label="gini = 0.684\nsamples = 82\nvalue = [25, 16, 2, 35, 4]"] ;
15 -> 16 ;
17 [label="gini = 0.667\nsamples = 498\nvalue = [84, 130, 39, 239, 6]"] ;
15 -> 17 ;
18 [label="X[0] <= 0.5\ngini = 0.583\nsamples = 294\nvalue = [26, 57, 34, 176, 1]"] ;
14 -> 18 ;
19 [label="gini = 0.626\nsamples = 38\nvalue = [2, 18, 4, 14, 0]"] ;
18 -> 19 ;
20 [label="gini = 0.554\nsamples = 256\nvalue = [24, 39, 30, 162, 1]"] ;
18 -> 20 ;
}