digraph Tree {
node [shape=box] ;
0 [label="X[4] <= 0.5\ngini = 0.72\nsamples = 800\nvalue = [266, 134, 105, 281, 14]"] ;
1 [label="X[0] <= 0.5\ngini = 0.616\nsamples = 349\nvalue = [45, 53, 43, 200, 8]"] ;
0 -> 1 [labeldistance=2.5, labelangle=45, headlabel="True"] ;
2 [label="X[1] <= 0.5\ngini = 0.756\nsamples = 54\nvalue = [17, 14, 7, 13, 3]"] ;
1 -> 2 ;
3 [label="gini = 0.5\nsamples = 4\nvalue = [2, 0, 2, 0, 0]"] ;
2 -> 3 ;
4 [label="X[2] <= 0.5\ngini = 0.75\nsamples = 50\nvalue = [15, 14, 5, 13, 3]"] ;
2 -> 4 ;
5 [label="gini = 0.693\nsamples = 19\nvalue = [7, 6, 0, 5, 1]"] ;
4 -> 5 ;
6 [label="gini = 0.77\nsamples = 31\nvalue = [8, 8, 5, 8, 2]"] ;
4 -> 6 ;
7 [label="X[1] <= 0.5\ngini = 0.557\nsamples = 295\nvalue = [28, 39, 36, 187, 5]"] ;
1 -> 7 ;
8 [label="gini = 0.766\nsamples = 26\nvalue = [4, 3, 6, 9, 4]"] ;
7 -> 8 ;
9 [label="X[2] <= 0.5\ngini = 0.524\nsamples = 269\nvalue = [24, 36, 30, 178, 1]"] ;
7 -> 9 ;
10 [label="gini = 0.522\nsamples = 117\nvalue = [13, 20, 7, 77, 0]"] ;
9 -> 10 ;
11 [label="gini = 0.519\nsamples = 152\nvalue = [11, 16, 23, 101, 1]"] ;
9 -> 11 ;
12 [label="X[1] <= 0.5\ngini = 0.676\nsamples = 451\nvalue = [221, 81, 62, 81, 6]"] ;
0 -> 12 [labeldistance=2.5, labelangle=-45, headlabel="False"] ;
13 [label="X[0] <= 0.5\ngini = 0.711\nsamples = 40\nvalue = [12, 13, 12, 2, 1]"] ;
12 -> 13 ;
14 [label="gini = 0.449\nsamples = 7\nvalue = [5, 1, 0, 0, 1]"] ;
13 -> 14 ;
15 [label="gini = 0.687\nsamples = 33\nvalue = [7, 12, 12, 2, 0]"] ;
13 -> 15 ;
16 [label="X[2] <= 0.5\ngini = 0.662\nsamples = 411\nvalue = [209, 68, 50, 79, 5]"] ;
12 -> 16 ;
17 [label="X[0] <= 0.5\ngini = 0.622\nsamples = 177\nvalue = [97, 30, 9, 38, 3]"] ;
16 -> 17 ;
18 [label="gini = 0.656\nsamples = 8\nvalue = [4, 1, 2, 1, 0]"] ;
17 -> 18 ;
19 [label="gini = 0.618\nsamples = 169\nvalue = [93, 29, 7, 37, 3]"] ;
17 -> 19 ;
20 [label="X[0] <= 0.5\ngini = 0.683\nsamples = 234\nvalue = [112, 38, 41, 41, 2]"] ;
16 -> 20 ;
21 [label="gini = 0.68\nsamples = 16\nvalue = [5, 7, 2, 2, 0]"] ;
20 -> 21 ;
22 [label="gini = 0.675\nsamples = 218\nvalue = [107, 31, 39, 39, 2]"] ;
20 -> 22 ;
}