digraph Tree {
node [shape=box] ;
0 [label="X[2] <= 0.5\ngini = 0.736\nsamples = 954\nvalue = [315, 283, 230, 48, 78]"] ;
1 [label="X[1] <= 0.5\ngini = 0.623\nsamples = 296\nvalue = [123, 131, 5, 21, 16]"] ;
0 -> 1 [labeldistance=2.5, labelangle=45, headlabel="True"] ;
2 [label="X[0] <= 0.5\ngini = 0.419\nsamples = 106\nvalue = [79, 15, 1, 4, 7]"] ;
1 -> 2 ;
3 [label="gini = 0.542\nsamples = 52\nvalue = [32, 14, 1, 1, 4]"] ;
2 -> 3 ;
4 [label="gini = 0.236\nsamples = 54\nvalue = [47, 1, 0, 3, 3]"] ;
2 -> 4 ;
5 [label="X[0] <= 0.5\ngini = 0.563\nsamples = 190\nvalue = [44, 116, 4, 17, 9]"] ;
1 -> 5 ;
6 [label="X[4] <= 0.5\ngini = 0.327\nsamples = 96\nvalue = [6, 78, 0, 8, 4]"] ;
5 -> 6 ;
7 [label="gini = 0.5\nsamples = 2\nvalue = [1, 1, 0, 0, 0]"] ;
6 -> 7 ;
8 [label="gini = 0.317\nsamples = 94\nvalue = [5, 77, 0, 8, 4]"] ;
6 -> 8 ;
9 [label="X[4] <= 0.5\ngini = 0.659\nsamples = 94\nvalue = [38, 38, 4, 9, 5]"] ;
5 -> 9 ;
10 [label="gini = 0.0\nsamples = 2\nvalue = [2, 0, 0, 0, 0]"] ;
9 -> 10 ;
11 [label="gini = 0.662\nsamples = 92\nvalue = [36, 38, 4, 9, 5]"] ;
9 -> 11 ;
12 [label="X[1] <= 0.5\ngini = 0.734\nsamples = 658\nvalue = [192, 152, 225, 27, 62]"] ;
0 -> 12 [labeldistance=2.5, labelangle=-45, headlabel="False"] ;
13 [label="X[3] <= 0.5\ngini = 0.087\nsamples = 67\nvalue = [0, 1, 64, 1, 1]"] ;
12 -> 13 ;
14 [label="X[0] <= 0.5\ngini = 0.088\nsamples = 66\nvalue = [0, 1, 63, 1, 1]"] ;
13 -> 14 ;
15 [label="gini = 0.0\nsamples = 1\nvalue = [0, 0, 1, 0, 0]"] ;
14 -> 15 ;
16 [label="gini = 0.089\nsamples = 65\nvalue = [0, 1, 62, 1, 1]"] ;
14 -> 16 ;
17 [label="gini = 0.0\nsamples = 1\nvalue = [0, 0, 1, 0, 0]"] ;
13 -> 17 ;
18 [label="gini = 0.742\nsamples = 591\nvalue = [192, 151, 161, 26, 61]"] ;
12 -> 18 ;
}