digraph Tree {
node [shape=box] ;
0 [label="X[0] <= 0.5\ngini = 0.8\nsamples = 1600\nvalue = [333, 333, 302, 318, 314]"] ;
1 [label="X[1] <= 0.5\ngini = 0.795\nsamples = 132\nvalue = [25, 28, 31, 19, 29]"] ;
0 -> 1 [labeldistance=2.5, labelangle=45, headlabel="True"] ;
2 [label="X[4] <= 0.5\ngini = 0.736\nsamples = 12\nvalue = [4, 4, 2, 1, 1]"] ;
1 -> 2 ;
3 [label="gini = 0.56\nsamples = 5\nvalue = [3, 1, 1, 0, 0]"] ;
2 -> 3 ;
4 [label="gini = 0.735\nsamples = 7\nvalue = [1, 3, 1, 1, 1]"] ;
2 -> 4 ;
5 [label="X[2] <= 0.5\ngini = 0.794\nsamples = 120\nvalue = [21, 24, 29, 18, 28]"] ;
1 -> 5 ;
6 [label="X[3] <= 0.5\ngini = 0.757\nsamples = 13\nvalue = [2, 2, 4, 1, 4]"] ;
5 -> 6 ;
7 [label="gini = 0.667\nsamples = 6\nvalue = [1, 1, 1, 0, 3]"] ;
6 -> 7 ;
8 [label="gini = 0.735\nsamples = 7\nvalue = [1, 1, 3, 1, 1]"] ;
6 -> 8 ;
9 [label="X[4] <= 0.5\ngini = 0.796\nsamples = 107\nvalue = [19, 22, 25, 17, 24]"] ;
5 -> 9 ;
10 [label="gini = 0.791\nsamples = 60\nvalue = [10, 13, 14, 8, 15]"] ;
9 -> 10 ;
11 [label="gini = 0.799\nsamples = 47\nvalue = [9, 9, 11, 9, 9]"] ;
9 -> 11 ;
12 [label="X[3] <= 0.5\ngini = 0.8\nsamples = 1468\nvalue = [308, 305, 271, 299, 285]"] ;
0 -> 12 [labeldistance=2.5, labelangle=-45, headlabel="False"] ;
13 [label="X[1] <= 0.5\ngini = 0.8\nsamples = 1189\nvalue = [241, 241, 229, 243, 235]"] ;
12 -> 13 ;
14 [label="gini = 0.787\nsamples = 58\nvalue = [10, 12, 7, 16, 13]"] ;
13 -> 14 ;
15 [label="X[2] <= 0.5\ngini = 0.8\nsamples = 1131\nvalue = [231, 229, 222, 227, 222]"] ;
13 -> 15 ;
16 [label="gini = 0.8\nsamples = 878\nvalue = [186, 171, 173, 180, 168]"] ;
15 -> 16 ;
17 [label="gini = 0.798\nsamples = 253\nvalue = [45, 58, 49, 47, 54]"] ;
15 -> 17 ;
18 [label="X[1] <= 0.5\ngini = 0.795\nsamples = 279\nvalue = [67, 64, 42, 56, 50]"] ;
12 -> 18 ;
19 [label="gini = 0.788\nsamples = 64\nvalue = [18, 14, 9, 10, 13]"] ;
18 -> 19 ;
20 [label="X[2] <= 0.5\ngini = 0.795\nsamples = 215\nvalue = [49, 50, 33, 46, 37]"] ;
18 -> 20 ;
21 [label="gini = 0.789\nsamples = 54\nvalue = [12, 15, 8, 10, 9]"] ;
20 -> 21 ;
22 [label="gini = 0.796\nsamples = 161\nvalue = [37, 35, 25, 36, 28]"] ;
20 -> 22 ;
}