digraph Tree {
node [shape=box] ;
0 [label="X[1] <= 0.5\ngini = 0.59\nsamples = 17142\nvalue = [10231, 3225, 1861, 1281, 544]"] ;
1 [label="X[2] <= 0.5\ngini = 0.544\nsamples = 12281\nvalue = [7981, 1280, 1459, 1054, 507]"] ;
0 -> 1 [labeldistance=2.5, labelangle=45, headlabel="True"] ;
2 [label="X[0] <= 0.5\ngini = 0.443\nsamples = 9416\nvalue = [6901, 943, 551, 617, 404]"] ;
1 -> 2 ;
3 [label="gini = 0.243\nsamples = 2273\nvalue = [1971, 67, 101, 89, 45]"] ;
2 -> 3 ;
4 [label="X[3] <= 0.5\ngini = 0.497\nsamples = 7143\nvalue = [4930, 876, 450, 528, 359]"] ;
2 -> 4 ;
5 [label="gini = 0.497\nsamples = 7141\nvalue = [4928, 876, 450, 528, 359]"] ;
4 -> 5 ;
6 [label="gini = 0.0\nsamples = 2\nvalue = [2, 0, 0, 0, 0]"] ;
4 -> 6 ;
7 [label="X[0] <= 0.5\ngini = 0.719\nsamples = 2865\nvalue = [1080, 337, 908, 437, 103]"] ;
1 -> 7 ;
8 [label="gini = 0.709\nsamples = 858\nvalue = [295, 121, 320, 99, 23]"] ;
7 -> 8 ;
9 [label="gini = 0.72\nsamples = 2007\nvalue = [785, 216, 588, 338, 80]"] ;
7 -> 9 ;
10 [label="X[2] <= 0.5\ngini = 0.617\nsamples = 4861\nvalue = [2250, 1945, 402, 227, 37]"] ;
0 -> 10 [labeldistance=2.5, labelangle=-45, headlabel="False"] ;
11 [label="X[4] <= 0.5\ngini = 0.609\nsamples = 4389\nvalue = [1906, 1941, 287, 221, 34]"] ;
10 -> 11 ;
12 [label="gini = 0.538\nsamples = 24\nvalue = [0, 15, 4, 5, 0]"] ;
11 -> 12 ;
13 [label="X[0] <= 0.5\ngini = 0.608\nsamples = 4365\nvalue = [1906, 1926, 283, 216, 34]"] ;
11 -> 13 ;
14 [label="gini = 0.612\nsamples = 1132\nvalue = [474, 512, 41, 95, 10]"] ;
13 -> 14 ;
15 [label="gini = 0.605\nsamples = 3233\nvalue = [1432, 1414, 242, 121, 24]"] ;
13 -> 15 ;
16 [label="X[0] <= 0.5\ngini = 0.409\nsamples = 472\nvalue = [344, 4, 115, 6, 3]"] ;
10 -> 16 ;
17 [label="gini = 0.581\nsamples = 90\nvalue = [41, 4, 41, 4, 0]"] ;
16 -> 17 ;
18 [label="gini = 0.333\nsamples = 382\nvalue = [303, 0, 74, 2, 3]"] ;
16 -> 18 ;
}