digraph Tree {
node [shape=box] ;
0 [label="X[0] <= 0.5\ngini = 0.686\nsamples = 10518\nvalue = [2229, 1417, 1385, 418, 5069]"] ;
1 [label="X[3] <= 0.5\ngini = 0.506\nsamples = 6079\nvalue = [378, 675, 795, 108, 4123]"] ;
0 -> 1 [labeldistance=2.5, labelangle=45, headlabel="True"] ;
2 [label="X[1] <= 0.5\ngini = 0.763\nsamples = 308\nvalue = [62, 55, 91, 16, 84]"] ;
1 -> 2 ;
3 [label="gini = 0.71\nsamples = 121\nvalue = [21, 16, 52, 3, 29]"] ;
2 -> 3 ;
4 [label="X[2] <= 0.5\ngini = 0.774\nsamples = 187\nvalue = [41, 39, 39, 13, 55]"] ;
2 -> 4 ;
5 [label="gini = 0.773\nsamples = 184\nvalue = [41, 36, 39, 13, 55]"] ;
4 -> 5 ;
6 [label="gini = 0.0\nsamples = 3\nvalue = [0, 3, 0, 0, 0]"] ;
4 -> 6 ;
7 [label="gini = 0.48\nsamples = 5771\nvalue = [316, 620, 704, 92, 4039]"] ;
1 -> 7 ;
8 [label="X[3] <= 0.5\ngini = 0.73\nsamples = 4439\nvalue = [1851, 742, 590, 310, 946]"] ;
0 -> 8 [labeldistance=2.5, labelangle=-45, headlabel="False"] ;
9 [label="X[2] <= 0.5\ngini = 0.622\nsamples = 1775\nvalue = [1024, 223, 188, 148, 192]"] ;
8 -> 9 ;
10 [label="gini = 0.567\nsamples = 1583\nvalue = [998, 194, 137, 143, 111]"] ;
9 -> 10 ;
11 [label="X[1] <= 0.5\ngini = 0.71\nsamples = 192\nvalue = [26, 29, 51, 5, 81]"] ;
9 -> 11 ;
12 [label="gini = 0.693\nsamples = 172\nvalue = [26, 27, 33, 5, 81]"] ;
11 -> 12 ;
13 [label="gini = 0.18\nsamples = 20\nvalue = [0, 2, 18, 0, 0]"] ;
11 -> 13 ;
14 [label="X[2] <= 0.5\ngini = 0.759\nsamples = 2664\nvalue = [827, 519, 402, 162, 754]"] ;
8 -> 14 ;
15 [label="gini = 0.756\nsamples = 2596\nvalue = [824, 503, 369, 157, 743]"] ;
14 -> 15 ;
16 [label="X[1] <= 0.5\ngini = 0.676\nsamples = 68\nvalue = [3, 16, 33, 5, 11]"] ;
14 -> 16 ;
17 [label="gini = 0.685\nsamples = 66\nvalue = [3, 16, 31, 5, 11]"] ;
16 -> 17 ;
18 [label="gini = 0.0\nsamples = 2\nvalue = [0, 0, 2, 0, 0]"] ;
16 -> 18 ;
}