digraph Tree {
node [shape=box] ;
0 [label="X[2] <= 0.5\ngini = 0.721\nsamples = 4739\nvalue = [1427, 985, 1754, 166, 407]"] ;
1 [label="X[0] <= 0.5\ngini = 0.525\nsamples = 535\nvalue = [347, 115, 5, 32, 36]"] ;
0 -> 1 [labeldistance=2.5, labelangle=45, headlabel="True"] ;
2 [label="X[1] <= 0.5\ngini = 0.682\nsamples = 156\nvalue = [46, 70, 2, 18, 20]"] ;
1 -> 2 ;
3 [label="gini = 0.718\nsamples = 95\nvalue = [38, 26, 2, 16, 13]"] ;
2 -> 3 ;
4 [label="X[3] <= 0.5\ngini = 0.448\nsamples = 61\nvalue = [8, 44, 0, 2, 7]"] ;
2 -> 4 ;
5 [label="gini = 0.46\nsamples = 59\nvalue = [8, 42, 0, 2, 7]"] ;
4 -> 5 ;
6 [label="gini = 0.0\nsamples = 2\nvalue = [0, 2, 0, 0, 0]"] ;
4 -> 6 ;
7 [label="X[1] <= 0.5\ngini = 0.352\nsamples = 379\nvalue = [301, 45, 3, 14, 16]"] ;
1 -> 7 ;
8 [label="X[3] <= 0.5\ngini = 0.198\nsamples = 243\nvalue = [217, 2, 1, 10, 13]"] ;
7 -> 8 ;
9 [label="gini = 0.251\nsamples = 93\nvalue = [80, 2, 0, 8, 3]"] ;
8 -> 9 ;
10 [label="gini = 0.161\nsamples = 150\nvalue = [137, 0, 1, 2, 10]"] ;
8 -> 10 ;
11 [label="X[4] <= 0.5\ngini = 0.517\nsamples = 136\nvalue = [84, 43, 2, 4, 3]"] ;
7 -> 11 ;
12 [label="gini = 0.0\nsamples = 4\nvalue = [4, 0, 0, 0, 0]"] ;
11 -> 12 ;
13 [label="gini = 0.525\nsamples = 132\nvalue = [80, 43, 2, 4, 3]"] ;
11 -> 13 ;
14 [label="X[1] <= 0.5\ngini = 0.709\nsamples = 4204\nvalue = [1080, 870, 1749, 134, 371]"] ;
0 -> 14 [labeldistance=2.5, labelangle=-45, headlabel="False"] ;
15 [label="X[3] <= 0.5\ngini = 0.236\nsamples = 168\nvalue = [8, 0, 146, 0, 14]"] ;
14 -> 15 ;
16 [label="gini = 0.165\nsamples = 157\nvalue = [3, 0, 143, 0, 11]"] ;
15 -> 16 ;
17 [label="gini = 0.645\nsamples = 11\nvalue = [5, 0, 3, 0, 3]"] ;
15 -> 17 ;
18 [label="X[0] <= 0.5\ngini = 0.716\nsamples = 4036\nvalue = [1072, 870, 1603, 134, 357]"] ;
14 -> 18 ;
19 [label="X[3] <= 0.5\ngini = 0.157\nsamples = 120\nvalue = [0, 3, 110, 2, 5]"] ;
18 -> 19 ;
20 [label="gini = 0.0\nsamples = 1\nvalue = [0, 0, 0, 0, 1]"] ;
19 -> 20 ;
21 [label="gini = 0.143\nsamples = 119\nvalue = [0, 3, 110, 2, 4]"] ;
19 -> 21 ;
22 [label="X[4] <= 0.5\ngini = 0.721\nsamples = 3916\nvalue = [1072, 867, 1493, 132, 352]"] ;
18 -> 22 ;
23 [label="gini = 0.32\nsamples = 5\nvalue = [4, 0, 1, 0, 0]"] ;
22 -> 23 ;
24 [label="gini = 0.722\nsamples = 3911\nvalue = [1068, 867, 1492, 132, 352]"] ;
22 -> 24 ;
}