digraph Tree {
node [shape=box] ;
0 [label="X[3] <= 0.5\ngini = 0.467\nsamples = 14700\nvalue = [1593, 1099, 1570, 3, 10435]"] ;
1 [label="X[2] <= 0.5\ngini = 0.086\nsamples = 611\nvalue = [584, 6, 12, 1, 8]"] ;
0 -> 1 [labeldistance=2.5, labelangle=45, headlabel="True"] ;
2 [label="X[0] <= 0.5\ngini = 0.035\nsamples = 560\nvalue = [550, 3, 2, 1, 4]"] ;
1 -> 2 ;
3 [label="gini = 0.0\nsamples = 8\nvalue = [8, 0, 0, 0, 0]"] ;
2 -> 3 ;
4 [label="gini = 0.036\nsamples = 552\nvalue = [542, 3, 2, 1, 4]"] ;
2 -> 4 ;
5 [label="X[1] <= 0.5\ngini = 0.507\nsamples = 51\nvalue = [34, 3, 10, 0, 4]"] ;
1 -> 5 ;
6 [label="gini = 0.31\nsamples = 22\nvalue = [18, 1, 3, 0, 0]"] ;
5 -> 6 ;
7 [label="X[0] <= 0.5\ngini = 0.614\nsamples = 29\nvalue = [16, 2, 7, 0, 4]"] ;
5 -> 7 ;
8 [label="gini = 0.5\nsamples = 2\nvalue = [1, 0, 1, 0, 0]"] ;
7 -> 8 ;
9 [label="gini = 0.615\nsamples = 27\nvalue = [15, 2, 6, 0, 4]"] ;
7 -> 9 ;
10 [label="X[2] <= 0.5\ngini = 0.429\nsamples = 14089\nvalue = [1009, 1093, 1558, 2, 10427]"] ;
0 -> 10 [labeldistance=2.5, labelangle=-45, headlabel="False"] ;
11 [label="X[0] <= 0.5\ngini = 0.425\nsamples = 14014\nvalue = [991, 1066, 1547, 2, 10408]"] ;
10 -> 11 ;
12 [label="gini = 0.0\nsamples = 1\nvalue = [0, 0, 1, 0, 0]"] ;
11 -> 12 ;
13 [label="gini = 0.425\nsamples = 14013\nvalue = [991, 1066, 1546, 2, 10408]"] ;
11 -> 13 ;
14 [label="X[1] <= 0.5\ngini = 0.727\nsamples = 75\nvalue = [18, 27, 11, 0, 19]"] ;
10 -> 14 ;
15 [label="X[0] <= 0.5\ngini = 0.685\nsamples = 31\nvalue = [10, 9, 1, 0, 11]"] ;
14 -> 15 ;
16 [label="gini = 0.0\nsamples = 1\nvalue = [1, 0, 0, 0, 0]"] ;
15 -> 16 ;
17 [label="gini = 0.684\nsamples = 30\nvalue = [9, 9, 1, 0, 11]"] ;
15 -> 17 ;
18 [label="X[0] <= 0.5\ngini = 0.715\nsamples = 44\nvalue = [8, 18, 10, 0, 8]"] ;
14 -> 18 ;
19 [label="gini = 0.617\nsamples = 9\nvalue = [2, 5, 1, 0, 1]"] ;
18 -> 19 ;
20 [label="gini = 0.727\nsamples = 35\nvalue = [6, 13, 9, 0, 7]"] ;
18 -> 20 ;
}