digraph Tree {
node [shape=box] ;
0 [label="X[3] <= 0.5\ngini = 0.72\nsamples = 800\nvalue = [231, 140, 105, 308, 16]"] ;
1 [label="X[2] <= 0.5\ngini = 0.714\nsamples = 462\nvalue = [177, 72, 61, 144, 8]"] ;
0 -> 1 [labeldistance=2.5, labelangle=45, headlabel="True"] ;
2 [label="X[0] <= 0.5\ngini = 0.596\nsamples = 132\nvalue = [76, 25, 2, 25, 4]"] ;
1 -> 2 ;
3 [label="gini = 0.611\nsamples = 6\nvalue = [3, 2, 0, 1, 0]"] ;
2 -> 3 ;
4 [label="gini = 0.593\nsamples = 126\nvalue = [73, 23, 2, 24, 4]"] ;
2 -> 4 ;
5 [label="X[0] <= 0.5\ngini = 0.724\nsamples = 330\nvalue = [101, 47, 59, 119, 4]"] ;
1 -> 5 ;
6 [label="X[1] <= 0.5\ngini = 0.711\nsamples = 16\nvalue = [5, 6, 3, 0, 2]"] ;
5 -> 6 ;
7 [label="gini = 0.0\nsamples = 1\nvalue = [1, 0, 0, 0, 0]"] ;
6 -> 7 ;
8 [label="gini = 0.711\nsamples = 15\nvalue = [4, 6, 3, 0, 2]"] ;
6 -> 8 ;
9 [label="X[1] <= 0.5\ngini = 0.714\nsamples = 314\nvalue = [96, 41, 56, 119, 2]"] ;
5 -> 9 ;
10 [label="gini = 0.74\nsamples = 35\nvalue = [12, 7, 10, 5, 1]"] ;
9 -> 10 ;
11 [label="gini = 0.7\nsamples = 279\nvalue = [84, 34, 46, 114, 1]"] ;
9 -> 11 ;
12 [label="X[0] <= 0.5\ngini = 0.681\nsamples = 338\nvalue = [54, 68, 44, 164, 8]"] ;
0 -> 12 [labeldistance=2.5, labelangle=-45, headlabel="False"] ;
13 [label="X[2] <= 0.5\ngini = 0.764\nsamples = 55\nvalue = [16, 14, 7, 14, 4]"] ;
12 -> 13 ;
14 [label="gini = 0.75\nsamples = 20\nvalue = [7, 5, 1, 4, 3]"] ;
13 -> 14 ;
15 [label="X[1] <= 0.5\ngini = 0.756\nsamples = 35\nvalue = [9, 9, 6, 10, 1]"] ;
13 -> 15 ;
16 [label="gini = 0.5\nsamples = 2\nvalue = [1, 1, 0, 0, 0]"] ;
15 -> 16 ;
17 [label="gini = 0.757\nsamples = 33\nvalue = [8, 8, 6, 10, 1]"] ;
15 -> 17 ;
18 [label="X[1] <= 0.5\ngini = 0.647\nsamples = 283\nvalue = [38, 54, 37, 150, 4]"] ;
12 -> 18 ;
19 [label="gini = 0.747\nsamples = 28\nvalue = [6, 3, 10, 7, 2]"] ;
18 -> 19 ;
20 [label="X[2] <= 0.5\ngini = 0.619\nsamples = 255\nvalue = [32, 51, 27, 143, 2]"] ;
18 -> 20 ;
21 [label="gini = 0.607\nsamples = 100\nvalue = [16, 19, 8, 57, 0]"] ;
20 -> 21 ;
22 [label="gini = 0.624\nsamples = 155\nvalue = [16, 32, 19, 86, 2]"] ;
20 -> 22 ;
}