digraph Tree {
node [shape=box] ;
0 [label="X[1] <= 0.5\ngini = 0.749\nsamples = 22400\nvalue = [5812, 5061, 1431, 7645, 2451]"] ;
1 [label="X[0] <= 0.5\ngini = 0.747\nsamples = 20837\nvalue = [5547, 4334, 1344, 7291, 2321]"] ;
0 -> 1 [labeldistance=2.5, labelangle=45, headlabel="True"] ;
2 [label="X[3] <= 0.5\ngini = 0.709\nsamples = 523\nvalue = [195, 94, 21, 176, 37]"] ;
1 -> 2 ;
3 [label="gini = 0.708\nsamples = 480\nvalue = [185, 87, 19, 155, 34]"] ;
2 -> 3 ;
4 [label="gini = 0.674\nsamples = 43\nvalue = [10, 7, 2, 21, 3]"] ;
2 -> 4 ;
5 [label="X[4] <= 0.5\ngini = 0.747\nsamples = 20314\nvalue = [5352, 4240, 1323, 7115, 2284]"] ;
1 -> 5 ;
6 [label="gini = 0.688\nsamples = 47\nvalue = [8, 22, 2, 11, 4]"] ;
5 -> 6 ;
7 [label="gini = 0.747\nsamples = 20267\nvalue = [5344, 4218, 1321, 7104, 2280]"] ;
5 -> 7 ;
8 [label="X[3] <= 0.5\ngini = 0.694\nsamples = 1563\nvalue = [265, 727, 87, 354, 130]"] ;
0 -> 8 [labeldistance=2.5, labelangle=-45, headlabel="False"] ;
9 [label="X[0] <= 0.5\ngini = 0.675\nsamples = 1331\nvalue = [215, 655, 74, 292, 95]"] ;
8 -> 9 ;
10 [label="X[2] <= 0.5\ngini = 0.747\nsamples = 257\nvalue = [62, 84, 14, 70, 27]"] ;
9 -> 10 ;
11 [label="gini = 0.751\nsamples = 210\nvalue = [57, 57, 12, 62, 22]"] ;
10 -> 11 ;
12 [label="gini = 0.617\nsamples = 47\nvalue = [5, 27, 2, 8, 5]"] ;
10 -> 12 ;
13 [label="X[2] <= 0.5\ngini = 0.647\nsamples = 1074\nvalue = [153, 571, 60, 222, 68]"] ;
9 -> 13 ;
14 [label="gini = 0.601\nsamples = 756\nvalue = [103, 438, 25, 154, 36]"] ;
13 -> 14 ;
15 [label="gini = 0.732\nsamples = 318\nvalue = [50, 133, 35, 68, 32]"] ;
13 -> 15 ;
16 [label="X[0] <= 0.5\ngini = 0.76\nsamples = 232\nvalue = [50, 72, 13, 62, 35]"] ;
8 -> 16 ;
17 [label="X[2] <= 0.5\ngini = 0.571\nsamples = 21\nvalue = [3, 13, 1, 3, 1]"] ;
16 -> 17 ;
18 [label="gini = 0.735\nsamples = 7\nvalue = [1, 3, 1, 1, 1]"] ;
17 -> 18 ;
19 [label="gini = 0.449\nsamples = 14\nvalue = [2, 10, 0, 2, 0]"] ;
17 -> 19 ;
20 [label="X[2] <= 0.5\ngini = 0.765\nsamples = 211\nvalue = [47, 59, 12, 59, 34]"] ;
16 -> 20 ;
21 [label="gini = 0.776\nsamples = 102\nvalue = [22, 26, 8, 28, 18]"] ;
20 -> 21 ;
22 [label="gini = 0.752\nsamples = 109\nvalue = [25, 33, 4, 31, 16]"] ;
20 -> 22 ;
}