digraph Tree {
node [shape=box] ;
0 [label="X[2] <= 0.5\ngini = 0.753\nsamples = 4664\nvalue = [1431, 1214, 1199, 215, 605]"] ;
1 [label="X[1] <= 0.5\ngini = 0.699\nsamples = 1239\nvalue = [515, 388, 61, 85, 190]"] ;
0 -> 1 [labeldistance=2.5, labelangle=45, headlabel="True"] ;
2 [label="X[0] <= 0.5\ngini = 0.609\nsamples = 535\nvalue = [304, 27, 38, 41, 125]"] ;
1 -> 2 ;
3 [label="gini = 0.748\nsamples = 245\nvalue = [90, 26, 38, 26, 65]"] ;
2 -> 3 ;
4 [label="X[3] <= 0.5\ngini = 0.41\nsamples = 290\nvalue = [214, 1, 0, 15, 60]"] ;
2 -> 4 ;
5 [label="gini = 0.411\nsamples = 289\nvalue = [213, 1, 0, 15, 60]"] ;
4 -> 5 ;
6 [label="gini = 0.0\nsamples = 1\nvalue = [1, 0, 0, 0, 0]"] ;
4 -> 6 ;
7 [label="X[0] <= 0.5\ngini = 0.634\nsamples = 704\nvalue = [211, 361, 23, 44, 65]"] ;
1 -> 7 ;
8 [label="X[3] <= 0.5\ngini = 0.326\nsamples = 243\nvalue = [14, 198, 3, 11, 17]"] ;
7 -> 8 ;
9 [label="gini = 0.328\nsamples = 241\nvalue = [14, 196, 3, 11, 17]"] ;
8 -> 9 ;
10 [label="gini = 0.0\nsamples = 2\nvalue = [0, 2, 0, 0, 0]"] ;
8 -> 10 ;
11 [label="X[4] <= 0.5\ngini = 0.675\nsamples = 461\nvalue = [197, 163, 20, 33, 48]"] ;
7 -> 11 ;
12 [label="gini = 0.0\nsamples = 3\nvalue = [3, 0, 0, 0, 0]"] ;
11 -> 12 ;
13 [label="gini = 0.676\nsamples = 458\nvalue = [194, 163, 20, 33, 48]"] ;
11 -> 13 ;
14 [label="X[1] <= 0.5\ngini = 0.744\nsamples = 3425\nvalue = [916, 826, 1138, 130, 415]"] ;
0 -> 14 [labeldistance=2.5, labelangle=-45, headlabel="False"] ;
15 [label="X[0] <= 0.5\ngini = 0.467\nsamples = 426\nvalue = [124, 3, 285, 1, 13]"] ;
14 -> 15 ;
16 [label="X[3] <= 0.5\ngini = 0.033\nsamples = 60\nvalue = [59, 0, 0, 0, 1]"] ;
15 -> 16 ;
17 [label="gini = 0.034\nsamples = 58\nvalue = [57, 0, 0, 0, 1]"] ;
16 -> 17 ;
18 [label="gini = 0.0\nsamples = 2\nvalue = [2, 0, 0, 0, 0]"] ;
16 -> 18 ;
19 [label="X[3] <= 0.5\ngini = 0.361\nsamples = 366\nvalue = [65, 3, 285, 1, 12]"] ;
15 -> 19 ;
20 [label="gini = 0.347\nsamples = 362\nvalue = [65, 1, 285, 1, 10]"] ;
19 -> 20 ;
21 [label="gini = 0.5\nsamples = 4\nvalue = [0, 2, 0, 0, 2]"] ;
19 -> 21 ;
22 [label="X[0] <= 0.5\ngini = 0.754\nsamples = 2999\nvalue = [792, 823, 853, 129, 402]"] ;
14 -> 22 ;
23 [label="gini = 0.298\nsamples = 66\nvalue = [0, 0, 54, 0, 12]"] ;
22 -> 23 ;
24 [label="X[3] <= 0.5\ngini = 0.755\nsamples = 2933\nvalue = [792, 823, 799, 129, 390]"] ;
22 -> 24 ;
25 [label="gini = 0.755\nsamples = 2932\nvalue = [791, 823, 799, 129, 390]"] ;
24 -> 25 ;
26 [label="gini = 0.0\nsamples = 1\nvalue = [1, 0, 0, 0, 0]"] ;
24 -> 26 ;
}