digraph Tree {
node [shape=box] ;
0 [label="X[3] <= 0.5\ngini = 0.453\nsamples = 32887\nvalue = [3593, 2189, 3359, 19, 23727]"] ;
1 [label="X[1] <= 0.5\ngini = 0.201\nsamples = 1629\nvalue = [1452, 79, 56, 2, 40]"] ;
0 -> 1 [labeldistance=2.5, labelangle=45, headlabel="True"] ;
2 [label="gini = 0.558\nsamples = 246\nvalue = [154, 39, 35, 1, 17]"] ;
1 -> 2 ;
3 [label="X[0] <= 0.5\ngini = 0.118\nsamples = 1383\nvalue = [1298, 40, 21, 1, 23]"] ;
1 -> 3 ;
4 [label="gini = 0.592\nsamples = 71\nvalue = [42, 12, 7, 0, 10]"] ;
3 -> 4 ;
5 [label="gini = 0.083\nsamples = 1312\nvalue = [1256, 28, 14, 1, 13]"] ;
3 -> 5 ;
6 [label="X[2] <= 0.5\ngini = 0.405\nsamples = 31258\nvalue = [2141, 2110, 3303, 17, 23687]"] ;
0 -> 6 [labeldistance=2.5, labelangle=-45, headlabel="False"] ;
7 [label="gini = 0.402\nsamples = 31126\nvalue = [2125, 2074, 3234, 17, 23676]"] ;
6 -> 7 ;
8 [label="X[1] <= 0.5\ngini = 0.631\nsamples = 132\nvalue = [16, 36, 69, 0, 11]"] ;
6 -> 8 ;
9 [label="X[0] <= 0.5\ngini = 0.703\nsamples = 66\nvalue = [16, 18, 26, 0, 6]"] ;
8 -> 9 ;
10 [label="gini = 0.625\nsamples = 4\nvalue = [0, 1, 2, 0, 1]"] ;
9 -> 10 ;
11 [label="gini = 0.702\nsamples = 62\nvalue = [16, 17, 24, 0, 5]"] ;
9 -> 11 ;
12 [label="X[0] <= 0.5\ngini = 0.495\nsamples = 66\nvalue = [0, 18, 43, 0, 5]"] ;
8 -> 12 ;
13 [label="gini = 0.0\nsamples = 1\nvalue = [0, 1, 0, 0, 0]"] ;
12 -> 13 ;
14 [label="gini = 0.488\nsamples = 65\nvalue = [0, 17, 43, 0, 5]"] ;
12 -> 14 ;
}