digraph Tree {
node [shape=box] ;
0 [label="X[0] <= 0.5\ngini = 0.8\nsamples = 1600\nvalue = [301, 325, 306, 343, 325]"] ;
1 [label="X[1] <= 0.5\ngini = 0.79\nsamples = 121\nvalue = [17, 32, 19, 26, 27]"] ;
0 -> 1 [labeldistance=2.5, labelangle=45, headlabel="True"] ;
2 [label="X[4] <= 0.5\ngini = 0.75\nsamples = 12\nvalue = [1, 4, 3, 1, 3]"] ;
1 -> 2 ;
3 [label="gini = 0.625\nsamples = 4\nvalue = [0, 2, 0, 1, 1]"] ;
2 -> 3 ;
4 [label="gini = 0.719\nsamples = 8\nvalue = [1, 2, 3, 0, 2]"] ;
2 -> 4 ;
5 [label="X[2] <= 0.5\ngini = 0.79\nsamples = 109\nvalue = [16, 28, 16, 25, 24]"] ;
1 -> 5 ;
6 [label="X[4] <= 0.5\ngini = 0.78\nsamples = 10\nvalue = [2, 2, 2, 3, 1]"] ;
5 -> 6 ;
7 [label="gini = 0.56\nsamples = 5\nvalue = [0, 1, 1, 3, 0]"] ;
6 -> 7 ;
8 [label="gini = 0.72\nsamples = 5\nvalue = [2, 1, 1, 0, 1]"] ;
6 -> 8 ;
9 [label="X[4] <= 0.5\ngini = 0.788\nsamples = 99\nvalue = [14, 26, 14, 22, 23]"] ;
5 -> 9 ;
10 [label="gini = 0.79\nsamples = 48\nvalue = [7, 13, 8, 9, 11]"] ;
9 -> 10 ;
11 [label="gini = 0.782\nsamples = 51\nvalue = [7, 13, 6, 13, 12]"] ;
9 -> 11 ;
12 [label="X[2] <= 0.5\ngini = 0.8\nsamples = 1479\nvalue = [284, 293, 287, 317, 298]"] ;
0 -> 12 [labeldistance=2.5, labelangle=-45, headlabel="False"] ;
13 [label="X[4] <= 0.5\ngini = 0.796\nsamples = 124\nvalue = [30, 24, 24, 27, 19]"] ;
12 -> 13 ;
14 [label="gini = 0.786\nsamples = 40\nvalue = [10, 11, 6, 7, 6]"] ;
13 -> 14 ;
15 [label="gini = 0.793\nsamples = 84\nvalue = [20, 13, 18, 20, 13]"] ;
13 -> 15 ;
16 [label="X[4] <= 0.5\ngini = 0.8\nsamples = 1355\nvalue = [254, 269, 263, 290, 279]"] ;
12 -> 16 ;
17 [label="X[1] <= 0.5\ngini = 0.799\nsamples = 647\nvalue = [126, 127, 129, 143, 122]"] ;
16 -> 17 ;
18 [label="gini = 0.799\nsamples = 442\nvalue = [89, 91, 82, 99, 81]"] ;
17 -> 18 ;
19 [label="gini = 0.798\nsamples = 205\nvalue = [37, 36, 47, 44, 41]"] ;
17 -> 19 ;
20 [label="X[1] <= 0.5\ngini = 0.799\nsamples = 708\nvalue = [128, 142, 134, 147, 157]"] ;
16 -> 20 ;
21 [label="gini = 0.798\nsamples = 441\nvalue = [74, 80, 90, 98, 99]"] ;
20 -> 21 ;
22 [label="gini = 0.797\nsamples = 267\nvalue = [54, 62, 44, 49, 58]"] ;
20 -> 22 ;
}