digraph Tree {
node [shape=box] ;
0 [label="X[0] <= 0.5\ngini = 0.791\nsamples = 2400\nvalue = [350, 632, 411, 553, 454]"] ;
1 [label="X[2] <= 0.5\ngini = 0.785\nsamples = 674\nvalue = [76, 189, 126, 154, 129]"] ;
0 -> 1 [labeldistance=2.5, labelangle=45, headlabel="True"] ;
2 [label="X[1] <= 0.5\ngini = 0.787\nsamples = 161\nvalue = [22, 47, 30, 32, 30]"] ;
1 -> 2 ;
3 [label="X[4] <= 0.5\ngini = 0.79\nsamples = 69\nvalue = [8, 17, 16, 14, 14]"] ;
2 -> 3 ;
4 [label="gini = 0.791\nsamples = 49\nvalue = [6, 12, 10, 11, 10]"] ;
3 -> 4 ;
5 [label="gini = 0.775\nsamples = 20\nvalue = [2, 5, 6, 3, 4]"] ;
3 -> 5 ;
6 [label="X[3] <= 0.5\ngini = 0.779\nsamples = 92\nvalue = [14, 30, 14, 18, 16]"] ;
2 -> 6 ;
7 [label="gini = 0.761\nsamples = 37\nvalue = [8, 13, 3, 6, 7]"] ;
6 -> 7 ;
8 [label="gini = 0.778\nsamples = 55\nvalue = [6, 17, 11, 12, 9]"] ;
6 -> 8 ;
9 [label="X[1] <= 0.5\ngini = 0.783\nsamples = 513\nvalue = [54, 142, 96, 122, 99]"] ;
1 -> 9 ;
10 [label="X[4] <= 0.5\ngini = 0.772\nsamples = 111\nvalue = [11, 31, 15, 32, 22]"] ;
9 -> 10 ;
11 [label="gini = 0.773\nsamples = 68\nvalue = [7, 19, 9, 19, 14]"] ;
10 -> 11 ;
12 [label="gini = 0.768\nsamples = 43\nvalue = [4, 12, 6, 13, 8]"] ;
10 -> 12 ;
13 [label="X[4] <= 0.5\ngini = 0.785\nsamples = 402\nvalue = [43, 111, 81, 90, 77]"] ;
9 -> 13 ;
14 [label="gini = 0.788\nsamples = 213\nvalue = [27, 59, 39, 48, 40]"] ;
13 -> 14 ;
15 [label="gini = 0.78\nsamples = 189\nvalue = [16, 52, 42, 42, 37]"] ;
13 -> 15 ;
16 [label="X[1] <= 0.5\ngini = 0.793\nsamples = 1726\nvalue = [274, 443, 285, 399, 325]"] ;
0 -> 16 [labeldistance=2.5, labelangle=-45, headlabel="False"] ;
17 [label="X[4] <= 0.5\ngini = 0.793\nsamples = 535\nvalue = [87, 132, 90, 130, 96]"] ;
16 -> 17 ;
18 [label="X[2] <= 0.5\ngini = 0.793\nsamples = 283\nvalue = [47, 64, 44, 73, 55]"] ;
17 -> 18 ;
19 [label="gini = 0.782\nsamples = 67\nvalue = [12, 12, 8, 20, 15]"] ;
18 -> 19 ;
20 [label="gini = 0.794\nsamples = 216\nvalue = [35, 52, 36, 53, 40]"] ;
18 -> 20 ;
21 [label="X[2] <= 0.5\ngini = 0.791\nsamples = 252\nvalue = [40, 68, 46, 57, 41]"] ;
17 -> 21 ;
22 [label="gini = 0.791\nsamples = 74\nvalue = [11, 20, 16, 15, 12]"] ;
21 -> 22 ;
23 [label="gini = 0.79\nsamples = 178\nvalue = [29, 48, 30, 42, 29]"] ;
21 -> 23 ;
24 [label="X[4] <= 0.5\ngini = 0.792\nsamples = 1191\nvalue = [187, 311, 195, 269, 229]"] ;
16 -> 24 ;
25 [label="X[2] <= 0.5\ngini = 0.79\nsamples = 650\nvalue = [100, 181, 112, 143, 114]"] ;
24 -> 25 ;
26 [label="gini = 0.79\nsamples = 209\nvalue = [31, 53, 34, 53, 38]"] ;
25 -> 26 ;
27 [label="gini = 0.789\nsamples = 441\nvalue = [69, 128, 78, 90, 76]"] ;
25 -> 27 ;
28 [label="X[2] <= 0.5\ngini = 0.793\nsamples = 541\nvalue = [87, 130, 83, 126, 115]"] ;
24 -> 28 ;
29 [label="gini = 0.793\nsamples = 181\nvalue = [27, 46, 30, 41, 37]"] ;
28 -> 29 ;
30 [label="gini = 0.793\nsamples = 360\nvalue = [60, 84, 53, 85, 78]"] ;
28 -> 30 ;
}