digraph Tree {
node [shape=box] ;
0 [label="X[4] <= 0.5\ngini = 0.757\nsamples = 49985\nvalue = [18162, 9542, 8719, 3863, 9699]"] ;
1 [label="X[2] <= 0.5\ngini = 0.775\nsamples = 27684\nvalue = [6758, 6420, 5155, 1948, 7403]"] ;
0 -> 1 [labeldistance=2.5, labelangle=45, headlabel="True"] ;
2 [label="X[0] <= 0.5\ngini = 0.773\nsamples = 25919\nvalue = [6747, 6139, 4119, 1936, 6978]"] ;
1 -> 2 ;
3 [label="gini = 0.609\nsamples = 216\nvalue = [10, 120, 32, 2, 52]"] ;
2 -> 3 ;
4 [label="gini = 0.773\nsamples = 25703\nvalue = [6737, 6019, 4087, 1934, 6926]"] ;
2 -> 4 ;
5 [label="X[0] <= 0.5\ngini = 0.572\nsamples = 1765\nvalue = [11, 281, 1036, 12, 425]"] ;
1 -> 5 ;
6 [label="gini = 0.66\nsamples = 133\nvalue = [0, 37, 44, 0, 52]"] ;
5 -> 6 ;
7 [label="X[1] <= 0.5\ngini = 0.556\nsamples = 1632\nvalue = [11, 244, 992, 12, 373]"] ;
5 -> 7 ;
8 [label="gini = 0.409\nsamples = 503\nvalue = [1, 75, 376, 0, 51]"] ;
7 -> 8 ;
9 [label="gini = 0.598\nsamples = 1129\nvalue = [10, 169, 616, 12, 322]"] ;
7 -> 9 ;
10 [label="X[1] <= 0.5\ngini = 0.675\nsamples = 22301\nvalue = [11404, 3122, 3564, 1915, 2296]"] ;
0 -> 10 [labeldistance=2.5, labelangle=-45, headlabel="False"] ;
11 [label="gini = 0.738\nsamples = 683\nvalue = [107, 121, 267, 34, 154]"] ;
10 -> 11 ;
12 [label="X[0] <= 0.5\ngini = 0.667\nsamples = 21618\nvalue = [11297, 3001, 3297, 1881, 2142]"] ;
10 -> 12 ;
13 [label="X[2] <= 0.5\ngini = 0.773\nsamples = 1494\nvalue = [418, 411, 307, 127, 231]"] ;
12 -> 13 ;
14 [label="gini = 0.773\nsamples = 1493\nvalue = [417, 411, 307, 127, 231]"] ;
13 -> 14 ;
15 [label="gini = 0.0\nsamples = 1\nvalue = [1, 0, 0, 0, 0]"] ;
13 -> 15 ;
16 [label="X[2] <= 0.5\ngini = 0.652\nsamples = 20124\nvalue = [10879, 2590, 2990, 1754, 1911]"] ;
12 -> 16 ;
17 [label="gini = 0.652\nsamples = 20119\nvalue = [10877, 2589, 2988, 1754, 1911]"] ;
16 -> 17 ;
18 [label="gini = 0.64\nsamples = 5\nvalue = [2, 1, 2, 0, 0]"] ;
16 -> 18 ;
}