digraph Tree {
node [shape=box] ;
0 [label="X[4] <= 0.5\ngini = 0.799\nsamples = 18400\nvalue = [3997, 3507, 3475, 3608, 3813]"] ;
1 [label="X[0] <= 0.5\ngini = 0.798\nsamples = 7797\nvalue = [1786, 1437, 1302, 1627, 1645]"] ;
0 -> 1 [labeldistance=2.5, labelangle=45, headlabel="True"] ;
2 [label="X[2] <= 0.5\ngini = 0.799\nsamples = 1014\nvalue = [213, 206, 196, 184, 215]"] ;
1 -> 2 ;
3 [label="gini = 0.798\nsamples = 317\nvalue = [55, 70, 69, 62, 61]"] ;
2 -> 3 ;
4 [label="gini = 0.798\nsamples = 697\nvalue = [158, 136, 127, 122, 154]"] ;
2 -> 4 ;
5 [label="X[1] <= 0.5\ngini = 0.797\nsamples = 6783\nvalue = [1573, 1231, 1106, 1443, 1430]"] ;
1 -> 5 ;
6 [label="gini = 0.706\nsamples = 29\nvalue = [13, 2, 7, 4, 3]"] ;
5 -> 6 ;
7 [label="X[2] <= 0.5\ngini = 0.797\nsamples = 6754\nvalue = [1560, 1229, 1099, 1439, 1427]"] ;
5 -> 7 ;
8 [label="gini = 0.8\nsamples = 186\nvalue = [40, 36, 35, 37, 38]"] ;
7 -> 8 ;
9 [label="gini = 0.797\nsamples = 6568\nvalue = [1520, 1193, 1064, 1402, 1389]"] ;
7 -> 9 ;
10 [label="X[0] <= 0.5\ngini = 0.8\nsamples = 10603\nvalue = [2211, 2070, 2173, 1981, 2168]"] ;
0 -> 10 [labeldistance=2.5, labelangle=-45, headlabel="False"] ;
11 [label="X[1] <= 0.5\ngini = 0.795\nsamples = 1910\nvalue = [417, 290, 451, 342, 410]"] ;
10 -> 11 ;
12 [label="gini = 0.776\nsamples = 368\nvalue = [103, 49, 105, 64, 47]"] ;
11 -> 12 ;
13 [label="X[2] <= 0.5\ngini = 0.796\nsamples = 1542\nvalue = [314, 241, 346, 278, 363]"] ;
11 -> 13 ;
14 [label="gini = 0.791\nsamples = 397\nvalue = [96, 68, 68, 61, 104]"] ;
13 -> 14 ;
15 [label="gini = 0.795\nsamples = 1145\nvalue = [218, 173, 278, 217, 259]"] ;
13 -> 15 ;
16 [label="X[1] <= 0.5\ngini = 0.8\nsamples = 8693\nvalue = [1794, 1780, 1722, 1639, 1758]"] ;
10 -> 16 ;
17 [label="gini = 0.8\nsamples = 4068\nvalue = [786, 842, 847, 805, 788]"] ;
16 -> 17 ;
18 [label="X[2] <= 0.5\ngini = 0.799\nsamples = 4625\nvalue = [1008, 938, 875, 834, 970]"] ;
16 -> 18 ;
19 [label="gini = 0.799\nsamples = 2746\nvalue = [605, 511, 560, 505, 565]"] ;
18 -> 19 ;
20 [label="gini = 0.797\nsamples = 1879\nvalue = [403, 427, 315, 329, 405]"] ;
18 -> 20 ;
}