digraph Tree {
node [shape=box] ;
0 [label="X[3] <= 0.5\ngini = 0.799\nsamples = 800\nvalue = [163, 174, 142, 174, 147]"] ;
1 [label="X[0] <= 0.5\ngini = 0.795\nsamples = 373\nvalue = [82, 56, 64, 83, 88]"] ;
0 -> 1 [labeldistance=2.5, labelangle=45, headlabel="True"] ;
2 [label="X[2] <= 0.5\ngini = 0.732\nsamples = 55\nvalue = [11, 5, 6, 23, 10]"] ;
1 -> 2 ;
3 [label="gini = 0.571\nsamples = 7\nvalue = [0, 1, 2, 0, 4]"] ;
2 -> 3 ;
4 [label="X[1] <= 0.5\ngini = 0.688\nsamples = 48\nvalue = [11, 4, 4, 23, 6]"] ;
2 -> 4 ;
5 [label="gini = 0.0\nsamples = 1\nvalue = [0, 0, 0, 0, 1]"] ;
4 -> 5 ;
6 [label="gini = 0.68\nsamples = 47\nvalue = [11, 4, 4, 23, 5]"] ;
4 -> 6 ;
7 [label="X[1] <= 0.5\ngini = 0.795\nsamples = 318\nvalue = [71, 51, 58, 60, 78]"] ;
1 -> 7 ;
8 [label="gini = 0.767\nsamples = 23\nvalue = [2, 7, 3, 5, 6]"] ;
7 -> 8 ;
9 [label="X[2] <= 0.5\ngini = 0.794\nsamples = 295\nvalue = [69, 44, 55, 55, 72]"] ;
7 -> 9 ;
10 [label="gini = 0.758\nsamples = 28\nvalue = [8, 3, 2, 7, 8]"] ;
9 -> 10 ;
11 [label="gini = 0.795\nsamples = 267\nvalue = [61, 41, 53, 48, 64]"] ;
9 -> 11 ;
12 [label="X[1] <= 0.5\ngini = 0.79\nsamples = 427\nvalue = [81, 118, 78, 91, 59]"] ;
0 -> 12 [labeldistance=2.5, labelangle=-45, headlabel="False"] ;
13 [label="X[0] <= 0.5\ngini = 0.685\nsamples = 18\nvalue = [4, 1, 7, 6, 0]"] ;
12 -> 13 ;
14 [label="gini = 0.5\nsamples = 2\nvalue = [1, 1, 0, 0, 0]"] ;
13 -> 14 ;
15 [label="gini = 0.633\nsamples = 16\nvalue = [3, 0, 7, 6, 0]"] ;
13 -> 15 ;
16 [label="X[2] <= 0.5\ngini = 0.789\nsamples = 409\nvalue = [77, 117, 71, 85, 59]"] ;
12 -> 16 ;
17 [label="X[0] <= 0.5\ngini = 0.758\nsamples = 37\nvalue = [11, 7, 6, 11, 2]"] ;
16 -> 17 ;
18 [label="gini = 0.0\nsamples = 1\nvalue = [0, 0, 0, 1, 0]"] ;
17 -> 18 ;
19 [label="gini = 0.761\nsamples = 36\nvalue = [11, 7, 6, 10, 2]"] ;
17 -> 19 ;
20 [label="X[0] <= 0.5\ngini = 0.788\nsamples = 372\nvalue = [66, 110, 65, 74, 57]"] ;
16 -> 20 ;
21 [label="gini = 0.722\nsamples = 12\nvalue = [3, 1, 1, 2, 5]"] ;
20 -> 21 ;
22 [label="gini = 0.785\nsamples = 360\nvalue = [63, 109, 64, 72, 52]"] ;
20 -> 22 ;
}