digraph Tree {
node [shape=box] ;
0 [label="X[0] <= 0.5\ngini = 0.73\nsamples = 934\nvalue = [266, 318, 234, 28, 88]"] ;
1 [label="X[1] <= 0.5\ngini = 0.549\nsamples = 66\nvalue = [2, 42, 6, 4, 12]"] ;
0 -> 1 [labeldistance=2.5, labelangle=45, headlabel="True"] ;
2 [label="gini = 0.684\nsamples = 14\nvalue = [0, 4, 1, 3, 6]"] ;
1 -> 2 ;
3 [label="X[2] <= 0.5\ngini = 0.442\nsamples = 52\nvalue = [2, 38, 5, 1, 6]"] ;
1 -> 3 ;
4 [label="gini = 0.402\nsamples = 50\nvalue = [2, 38, 3, 1, 6]"] ;
3 -> 4 ;
5 [label="gini = 0.0\nsamples = 2\nvalue = [0, 0, 2, 0, 0]"] ;
3 -> 5 ;
6 [label="X[2] <= 0.5\ngini = 0.729\nsamples = 868\nvalue = [264, 276, 228, 24, 76]"] ;
0 -> 6 [labeldistance=2.5, labelangle=-45, headlabel="False"] ;
7 [label="X[1] <= 0.5\ngini = 0.556\nsamples = 73\nvalue = [45, 17, 1, 6, 4]"] ;
6 -> 7 ;
8 [label="gini = 0.719\nsamples = 16\nvalue = [7, 3, 1, 3, 2]"] ;
7 -> 8 ;
9 [label="X[3] <= 0.5\ngini = 0.491\nsamples = 57\nvalue = [38, 14, 0, 3, 2]"] ;
7 -> 9 ;
10 [label="gini = 0.508\nsamples = 54\nvalue = [35, 14, 0, 3, 2]"] ;
9 -> 10 ;
11 [label="gini = 0.0\nsamples = 3\nvalue = [3, 0, 0, 0, 0]"] ;
9 -> 11 ;
12 [label="X[1] <= 0.5\ngini = 0.728\nsamples = 795\nvalue = [219, 259, 227, 18, 72]"] ;
6 -> 12 ;
13 [label="gini = 0.231\nsamples = 15\nvalue = [2, 0, 13, 0, 0]"] ;
12 -> 13 ;
14 [label="X[3] <= 0.5\ngini = 0.728\nsamples = 780\nvalue = [217, 259, 214, 18, 72]"] ;
12 -> 14 ;
15 [label="gini = 0.728\nsamples = 779\nvalue = [217, 259, 213, 18, 72]"] ;
14 -> 15 ;
16 [label="gini = 0.0\nsamples = 1\nvalue = [0, 0, 1, 0, 0]"] ;
14 -> 16 ;
}