digraph Tree {
node [shape=box] ;
0 [label="X[2] <= 0.5\ngini = 0.794\nsamples = 2400\nvalue = [366, 617, 447, 518, 452]"] ;
1 [label="X[4] <= 0.5\ngini = 0.797\nsamples = 699\nvalue = [124, 174, 136, 137, 128]"] ;
0 -> 1 [labeldistance=2.5, labelangle=45, headlabel="True"] ;
2 [label="X[0] <= 0.5\ngini = 0.795\nsamples = 449\nvalue = [86, 117, 84, 84, 78]"] ;
1 -> 2 ;
3 [label="X[1] <= 0.5\ngini = 0.792\nsamples = 165\nvalue = [28, 44, 26, 30, 37]"] ;
2 -> 3 ;
4 [label="gini = 0.781\nsamples = 75\nvalue = [12, 24, 11, 14, 14]"] ;
3 -> 4 ;
5 [label="gini = 0.794\nsamples = 90\nvalue = [16, 20, 15, 16, 23]"] ;
3 -> 5 ;
6 [label="X[1] <= 0.5\ngini = 0.794\nsamples = 284\nvalue = [58, 73, 58, 54, 41]"] ;
2 -> 6 ;
7 [label="gini = 0.785\nsamples = 80\nvalue = [13, 22, 15, 20, 10]"] ;
6 -> 7 ;
8 [label="gini = 0.794\nsamples = 204\nvalue = [45, 51, 43, 34, 31]"] ;
6 -> 8 ;
9 [label="X[0] <= 0.5\ngini = 0.797\nsamples = 250\nvalue = [38, 57, 52, 53, 50]"] ;
1 -> 9 ;
10 [label="X[1] <= 0.5\ngini = 0.789\nsamples = 72\nvalue = [13, 16, 20, 13, 10]"] ;
9 -> 10 ;
11 [label="gini = 0.789\nsamples = 31\nvalue = [7, 7, 8, 5, 4]"] ;
10 -> 11 ;
12 [label="gini = 0.785\nsamples = 41\nvalue = [6, 9, 12, 8, 6]"] ;
10 -> 12 ;
13 [label="X[1] <= 0.5\ngini = 0.794\nsamples = 178\nvalue = [25, 41, 32, 40, 40]"] ;
9 -> 13 ;
14 [label="gini = 0.783\nsamples = 52\nvalue = [6, 10, 12, 9, 15]"] ;
13 -> 14 ;
15 [label="gini = 0.792\nsamples = 126\nvalue = [19, 31, 20, 31, 25]"] ;
13 -> 15 ;
16 [label="X[1] <= 0.5\ngini = 0.792\nsamples = 1701\nvalue = [242, 443, 311, 381, 324]"] ;
0 -> 16 [labeldistance=2.5, labelangle=-45, headlabel="False"] ;
17 [label="X[0] <= 0.5\ngini = 0.787\nsamples = 512\nvalue = [64, 146, 98, 109, 95]"] ;
16 -> 17 ;
18 [label="X[4] <= 0.5\ngini = 0.769\nsamples = 120\nvalue = [17, 42, 16, 24, 21]"] ;
17 -> 18 ;
19 [label="gini = 0.731\nsamples = 79\nvalue = [13, 33, 5, 13, 15]"] ;
18 -> 19 ;
20 [label="gini = 0.777\nsamples = 41\nvalue = [4, 9, 11, 11, 6]"] ;
18 -> 20 ;
21 [label="X[4] <= 0.5\ngini = 0.789\nsamples = 392\nvalue = [47, 104, 82, 85, 74]"] ;
17 -> 21 ;
22 [label="gini = 0.789\nsamples = 239\nvalue = [28, 61, 53, 54, 43]"] ;
21 -> 22 ;
23 [label="gini = 0.788\nsamples = 153\nvalue = [19, 43, 29, 31, 31]"] ;
21 -> 23 ;
24 [label="X[0] <= 0.5\ngini = 0.794\nsamples = 1189\nvalue = [178, 297, 213, 272, 229]"] ;
16 -> 24 ;
25 [label="X[4] <= 0.5\ngini = 0.796\nsamples = 357\nvalue = [60, 89, 67, 74, 67]"] ;
24 -> 25 ;
26 [label="gini = 0.797\nsamples = 212\nvalue = [36, 51, 41, 44, 40]"] ;
25 -> 26 ;
27 [label="gini = 0.794\nsamples = 145\nvalue = [24, 38, 26, 30, 27]"] ;
25 -> 27 ;
28 [label="X[4] <= 0.5\ngini = 0.792\nsamples = 832\nvalue = [118, 208, 146, 198, 162]"] ;
24 -> 28 ;
29 [label="gini = 0.792\nsamples = 449\nvalue = [60, 114, 85, 100, 90]"] ;
28 -> 29 ;
30 [label="gini = 0.791\nsamples = 383\nvalue = [58, 94, 61, 98, 72]"] ;
28 -> 30 ;
}