digraph Tree {
node [shape=box] ;
0 [label="X[0] <= 0.5\ngini = 0.792\nsamples = 2400\nvalue = [365, 658, 433, 501, 443]"] ;
1 [label="X[3] <= 0.5\ngini = 0.785\nsamples = 708\nvalue = [117, 214, 106, 146, 125]"] ;
0 -> 1 [labeldistance=2.5, labelangle=45, headlabel="True"] ;
2 [label="X[2] <= 0.5\ngini = 0.789\nsamples = 257\nvalue = [36, 72, 48, 54, 47]"] ;
1 -> 2 ;
3 [label="X[1] <= 0.5\ngini = 0.778\nsamples = 60\nvalue = [6, 18, 14, 10, 12]"] ;
2 -> 3 ;
4 [label="gini = 0.762\nsamples = 30\nvalue = [2, 9, 4, 8, 7]"] ;
3 -> 4 ;
5 [label="gini = 0.749\nsamples = 30\nvalue = [4, 9, 10, 2, 5]"] ;
3 -> 5 ;
6 [label="X[1] <= 0.5\ngini = 0.79\nsamples = 197\nvalue = [30, 54, 34, 44, 35]"] ;
2 -> 6 ;
7 [label="gini = 0.786\nsamples = 33\nvalue = [6, 10, 6, 5, 6]"] ;
6 -> 7 ;
8 [label="gini = 0.79\nsamples = 164\nvalue = [24, 44, 28, 39, 29]"] ;
6 -> 8 ;
9 [label="X[1] <= 0.5\ngini = 0.781\nsamples = 451\nvalue = [81, 142, 58, 92, 78]"] ;
1 -> 9 ;
10 [label="X[2] <= 0.5\ngini = 0.783\nsamples = 164\nvalue = [34, 48, 22, 37, 23]"] ;
9 -> 10 ;
11 [label="gini = 0.784\nsamples = 74\nvalue = [15, 22, 9, 14, 14]"] ;
10 -> 11 ;
12 [label="gini = 0.776\nsamples = 90\nvalue = [19, 26, 13, 23, 9]"] ;
10 -> 12 ;
13 [label="X[2] <= 0.5\ngini = 0.777\nsamples = 287\nvalue = [47, 94, 36, 55, 55]"] ;
9 -> 13 ;
14 [label="gini = 0.765\nsamples = 102\nvalue = [19, 37, 13, 15, 18]"] ;
13 -> 14 ;
15 [label="gini = 0.78\nsamples = 185\nvalue = [28, 57, 23, 40, 37]"] ;
13 -> 15 ;
16 [label="X[1] <= 0.5\ngini = 0.793\nsamples = 1692\nvalue = [248, 444, 327, 355, 318]"] ;
0 -> 16 [labeldistance=2.5, labelangle=-45, headlabel="False"] ;
17 [label="X[4] <= 0.5\ngini = 0.786\nsamples = 457\nvalue = [54, 123, 78, 107, 95]"] ;
16 -> 17 ;
18 [label="X[2] <= 0.5\ngini = 0.787\nsamples = 281\nvalue = [37, 77, 45, 67, 55]"] ;
17 -> 18 ;
19 [label="gini = 0.793\nsamples = 117\nvalue = [16, 29, 22, 26, 24]"] ;
18 -> 19 ;
20 [label="gini = 0.78\nsamples = 164\nvalue = [21, 48, 23, 41, 31]"] ;
18 -> 20 ;
21 [label="X[2] <= 0.5\ngini = 0.784\nsamples = 176\nvalue = [17, 46, 33, 40, 40]"] ;
17 -> 21 ;
22 [label="gini = 0.754\nsamples = 57\nvalue = [4, 17, 6, 13, 17]"] ;
21 -> 22 ;
23 [label="gini = 0.788\nsamples = 119\nvalue = [13, 29, 27, 27, 23]"] ;
21 -> 23 ;
24 [label="X[2] <= 0.5\ngini = 0.794\nsamples = 1235\nvalue = [194, 321, 249, 248, 223]"] ;
16 -> 24 ;
25 [label="X[3] <= 0.5\ngini = 0.796\nsamples = 320\nvalue = [47, 72, 72, 68, 61]"] ;
24 -> 25 ;
26 [label="gini = 0.782\nsamples = 139\nvalue = [15, 36, 34, 33, 21]"] ;
25 -> 26 ;
27 [label="gini = 0.799\nsamples = 181\nvalue = [32, 36, 38, 35, 40]"] ;
25 -> 27 ;
28 [label="X[4] <= 0.5\ngini = 0.793\nsamples = 915\nvalue = [147, 249, 177, 180, 162]"] ;
24 -> 28 ;
29 [label="gini = 0.793\nsamples = 493\nvalue = [80, 135, 95, 91, 92]"] ;
28 -> 29 ;
30 [label="gini = 0.792\nsamples = 422\nvalue = [67, 114, 82, 89, 70]"] ;
28 -> 30 ;
}