digraph Tree {
node [shape=box] ;
0 [label="X[0] <= 0.5\ngini = 0.79\nsamples = 2400\nvalue = [373, 636, 361, 564, 466]"] ;
1 [label="X[1] <= 0.5\ngini = 0.789\nsamples = 572\nvalue = [87, 159, 89, 110, 127]"] ;
0 -> 1 [labeldistance=2.5, labelangle=45, headlabel="True"] ;
2 [label="X[2] <= 0.5\ngini = 0.758\nsamples = 116\nvalue = [20, 43, 11, 22, 20]"] ;
1 -> 2 ;
3 [label="X[4] <= 0.5\ngini = 0.732\nsamples = 43\nvalue = [13, 15, 1, 6, 8]"] ;
2 -> 3 ;
4 [label="gini = 0.74\nsamples = 20\nvalue = [3, 6, 1, 3, 7]"] ;
3 -> 4 ;
5 [label="gini = 0.639\nsamples = 23\nvalue = [10, 9, 0, 3, 1]"] ;
3 -> 5 ;
6 [label="X[3] <= 0.5\ngini = 0.75\nsamples = 73\nvalue = [7, 28, 10, 16, 12]"] ;
2 -> 6 ;
7 [label="gini = 0.765\nsamples = 40\nvalue = [5, 13, 5, 11, 6]"] ;
6 -> 7 ;
8 [label="gini = 0.711\nsamples = 33\nvalue = [2, 15, 5, 5, 6]"] ;
6 -> 8 ;
9 [label="X[2] <= 0.5\ngini = 0.792\nsamples = 456\nvalue = [67, 116, 78, 88, 107]"] ;
1 -> 9 ;
10 [label="X[4] <= 0.5\ngini = 0.784\nsamples = 90\nvalue = [9, 24, 21, 19, 17]"] ;
9 -> 10 ;
11 [label="gini = 0.779\nsamples = 46\nvalue = [5, 13, 12, 9, 7]"] ;
10 -> 11 ;
12 [label="gini = 0.784\nsamples = 44\nvalue = [4, 11, 9, 10, 10]"] ;
10 -> 12 ;
13 [label="X[4] <= 0.5\ngini = 0.791\nsamples = 366\nvalue = [58, 92, 57, 69, 90]"] ;
9 -> 13 ;
14 [label="gini = 0.793\nsamples = 191\nvalue = [27, 47, 33, 41, 43]"] ;
13 -> 14 ;
15 [label="gini = 0.786\nsamples = 175\nvalue = [31, 45, 24, 28, 47]"] ;
13 -> 15 ;
16 [label="X[2] <= 0.5\ngini = 0.789\nsamples = 1828\nvalue = [286, 477, 272, 454, 339]"] ;
0 -> 16 [labeldistance=2.5, labelangle=-45, headlabel="False"] ;
17 [label="X[1] <= 0.5\ngini = 0.785\nsamples = 480\nvalue = [76, 118, 60, 131, 95]"] ;
16 -> 17 ;
18 [label="X[3] <= 0.5\ngini = 0.762\nsamples = 78\nvalue = [9, 8, 14, 24, 23]"] ;
17 -> 18 ;
19 [label="gini = 0.779\nsamples = 43\nvalue = [4, 7, 10, 12, 10]"] ;
18 -> 19 ;
20 [label="gini = 0.71\nsamples = 35\nvalue = [5, 1, 4, 12, 13]"] ;
18 -> 20 ;
21 [label="X[3] <= 0.5\ngini = 0.781\nsamples = 402\nvalue = [67, 110, 46, 107, 72]"] ;
17 -> 21 ;
22 [label="gini = 0.773\nsamples = 195\nvalue = [35, 50, 20, 60, 30]"] ;
21 -> 22 ;
23 [label="gini = 0.784\nsamples = 207\nvalue = [32, 60, 26, 47, 42]"] ;
21 -> 23 ;
24 [label="X[4] <= 0.5\ngini = 0.79\nsamples = 1348\nvalue = [210, 359, 212, 323, 244]"] ;
16 -> 24 ;
25 [label="X[1] <= 0.5\ngini = 0.787\nsamples = 669\nvalue = [111, 171, 99, 178, 110]"] ;
24 -> 25 ;
26 [label="gini = 0.773\nsamples = 199\nvalue = [38, 50, 23, 62, 26]"] ;
25 -> 26 ;
27 [label="gini = 0.791\nsamples = 470\nvalue = [73, 121, 76, 116, 84]"] ;
25 -> 27 ;
28 [label="X[1] <= 0.5\ngini = 0.79\nsamples = 679\nvalue = [99, 188, 113, 145, 134]"] ;
24 -> 28 ;
29 [label="gini = 0.791\nsamples = 211\nvalue = [32, 56, 34, 48, 41]"] ;
28 -> 29 ;
30 [label="gini = 0.789\nsamples = 468\nvalue = [67, 132, 79, 97, 93]"] ;
28 -> 30 ;
}