digraph Tree {
node [shape=box] ;
0 [label="X[0] <= 0.5\ngini = 0.799\nsamples = 800\nvalue = [153, 182, 153, 169, 143]"] ;
1 [label="X[1] <= 0.5\ngini = 0.786\nsamples = 70\nvalue = [16, 9, 18, 17, 10]"] ;
0 -> 1 [labeldistance=2.5, labelangle=45, headlabel="True"] ;
2 [label="X[4] <= 0.5\ngini = 0.444\nsamples = 6\nvalue = [4, 0, 0, 0, 2]"] ;
1 -> 2 ;
3 [label="gini = 0.444\nsamples = 3\nvalue = [2, 0, 0, 0, 1]"] ;
2 -> 3 ;
4 [label="gini = 0.444\nsamples = 3\nvalue = [2, 0, 0, 0, 1]"] ;
2 -> 4 ;
5 [label="X[2] <= 0.5\ngini = 0.78\nsamples = 64\nvalue = [12, 9, 18, 17, 8]"] ;
1 -> 5 ;
6 [label="X[3] <= 0.5\ngini = 0.72\nsamples = 5\nvalue = [1, 1, 2, 0, 1]"] ;
5 -> 6 ;
7 [label="gini = 0.75\nsamples = 4\nvalue = [1, 1, 1, 0, 1]"] ;
6 -> 7 ;
8 [label="gini = 0.0\nsamples = 1\nvalue = [0, 0, 1, 0, 0]"] ;
6 -> 8 ;
9 [label="X[4] <= 0.5\ngini = 0.776\nsamples = 59\nvalue = [11, 8, 16, 17, 7]"] ;
5 -> 9 ;
10 [label="gini = 0.775\nsamples = 17\nvalue = [4, 2, 4, 5, 2]"] ;
9 -> 10 ;
11 [label="gini = 0.774\nsamples = 42\nvalue = [7, 6, 12, 12, 5]"] ;
9 -> 11 ;
12 [label="X[2] <= 0.5\ngini = 0.798\nsamples = 730\nvalue = [137, 173, 135, 152, 133]"] ;
0 -> 12 [labeldistance=2.5, labelangle=-45, headlabel="False"] ;
13 [label="X[3] <= 0.5\ngini = 0.791\nsamples = 92\nvalue = [16, 18, 16, 26, 16]"] ;
12 -> 13 ;
14 [label="gini = 0.796\nsamples = 61\nvalue = [11, 12, 13, 15, 10]"] ;
13 -> 14 ;
15 [label="gini = 0.764\nsamples = 31\nvalue = [5, 6, 3, 11, 6]"] ;
13 -> 15 ;
16 [label="X[3] <= 0.5\ngini = 0.798\nsamples = 638\nvalue = [121, 155, 119, 126, 117]"] ;
12 -> 16 ;
17 [label="X[1] <= 0.5\ngini = 0.794\nsamples = 374\nvalue = [68, 98, 63, 77, 68]"] ;
16 -> 17 ;
18 [label="gini = 0.784\nsamples = 46\nvalue = [7, 13, 11, 9, 6]"] ;
17 -> 18 ;
19 [label="gini = 0.794\nsamples = 328\nvalue = [61, 85, 52, 68, 62]"] ;
17 -> 19 ;
20 [label="X[1] <= 0.5\ngini = 0.799\nsamples = 264\nvalue = [53, 57, 56, 49, 49]"] ;
16 -> 20 ;
21 [label="gini = 0.787\nsamples = 25\nvalue = [5, 5, 7, 3, 5]"] ;
20 -> 21 ;
22 [label="gini = 0.799\nsamples = 239\nvalue = [48, 52, 49, 46, 44]"] ;
20 -> 22 ;
}