digraph Tree {
node [shape=box] ;
0 [label="X[3] <= 0.5\ngini = 0.8\nsamples = 11200\nvalue = [2221, 2384, 2276, 2179, 2140]"] ;
1 [label="X[0] <= 0.5\ngini = 0.799\nsamples = 9049\nvalue = [1711, 1977, 1856, 1781, 1724]"] ;
0 -> 1 [labeldistance=2.5, labelangle=45, headlabel="True"] ;
2 [label="X[2] <= 0.5\ngini = 0.8\nsamples = 3305\nvalue = [630, 690, 630, 655, 700]"] ;
1 -> 2 ;
3 [label="gini = 0.797\nsamples = 936\nvalue = [144, 188, 194, 200, 210]"] ;
2 -> 3 ;
4 [label="X[1] <= 0.5\ngini = 0.799\nsamples = 2369\nvalue = [486, 502, 436, 455, 490]"] ;
2 -> 4 ;
5 [label="gini = 0.8\nsamples = 1860\nvalue = [373, 404, 351, 357, 375]"] ;
4 -> 5 ;
6 [label="gini = 0.798\nsamples = 509\nvalue = [113, 98, 85, 98, 115]"] ;
4 -> 6 ;
7 [label="X[2] <= 0.5\ngini = 0.799\nsamples = 5744\nvalue = [1081, 1287, 1226, 1126, 1024]"] ;
1 -> 7 ;
8 [label="gini = 0.798\nsamples = 3607\nvalue = [705, 804, 773, 722, 603]"] ;
7 -> 8 ;
9 [label="X[1] <= 0.5\ngini = 0.798\nsamples = 2137\nvalue = [376, 483, 453, 404, 421]"] ;
7 -> 9 ;
10 [label="gini = 0.794\nsamples = 71\nvalue = [19, 13, 13, 12, 14]"] ;
9 -> 10 ;
11 [label="gini = 0.798\nsamples = 2066\nvalue = [357, 470, 440, 392, 407]"] ;
9 -> 11 ;
12 [label="X[1] <= 0.5\ngini = 0.798\nsamples = 2151\nvalue = [510, 407, 420, 398, 416]"] ;
0 -> 12 [labeldistance=2.5, labelangle=-45, headlabel="False"] ;
13 [label="X[0] <= 0.5\ngini = 0.77\nsamples = 191\nvalue = [19, 35, 65, 37, 35]"] ;
12 -> 13 ;
14 [label="gini = 0.625\nsamples = 4\nvalue = [0, 1, 2, 1, 0]"] ;
13 -> 14 ;
15 [label="gini = 0.771\nsamples = 187\nvalue = [19, 34, 63, 36, 35]"] ;
13 -> 15 ;
16 [label="X[0] <= 0.5\ngini = 0.797\nsamples = 1960\nvalue = [491, 372, 355, 361, 381]"] ;
12 -> 16 ;
17 [label="X[2] <= 0.5\ngini = 0.768\nsamples = 246\nvalue = [80, 38, 63, 25, 40]"] ;
16 -> 17 ;
18 [label="gini = 0.5\nsamples = 2\nvalue = [1, 0, 0, 0, 1]"] ;
17 -> 18 ;
19 [label="gini = 0.768\nsamples = 244\nvalue = [79, 38, 63, 25, 39]"] ;
17 -> 19 ;
20 [label="X[2] <= 0.5\ngini = 0.797\nsamples = 1714\nvalue = [411, 334, 292, 336, 341]"] ;
16 -> 20 ;
21 [label="gini = 0.697\nsamples = 27\nvalue = [10, 0, 6, 9, 2]"] ;
20 -> 21 ;
22 [label="gini = 0.798\nsamples = 1687\nvalue = [401, 334, 286, 327, 339]"] ;
20 -> 22 ;
}