digraph Tree {
node [shape=box] ;
0 [label="X[0] <= 0.5\ngini = 0.726\nsamples = 1290\nvalue = [341, 441, 365, 47, 96]"] ;
1 [label="X[2] <= 0.5\ngini = 0.373\nsamples = 65\nvalue = [4, 51, 3, 3, 4]"] ;
0 -> 1 [labeldistance=2.5, labelangle=45, headlabel="True"] ;
2 [label="X[3] <= 0.5\ngini = 0.313\nsamples = 62\nvalue = [4, 51, 0, 3, 4]"] ;
1 -> 2 ;
3 [label="gini = 0.305\nsamples = 58\nvalue = [3, 48, 0, 3, 4]"] ;
2 -> 3 ;
4 [label="gini = 0.375\nsamples = 4\nvalue = [1, 3, 0, 0, 0]"] ;
2 -> 4 ;
5 [label="gini = 0.0\nsamples = 3\nvalue = [0, 0, 3, 0, 0]"] ;
1 -> 5 ;
6 [label="X[2] <= 0.5\ngini = 0.729\nsamples = 1225\nvalue = [337, 390, 362, 44, 92]"] ;
0 -> 6 [labeldistance=2.5, labelangle=-45, headlabel="False"] ;
7 [label="X[3] <= 0.5\ngini = 0.106\nsamples = 54\nvalue = [51, 0, 0, 2, 1]"] ;
6 -> 7 ;
8 [label="X[1] <= 0.5\ngini = 0.114\nsamples = 50\nvalue = [47, 0, 0, 2, 1]"] ;
7 -> 8 ;
9 [label="gini = 0.0\nsamples = 3\nvalue = [3, 0, 0, 0, 0]"] ;
8 -> 9 ;
10 [label="gini = 0.121\nsamples = 47\nvalue = [44, 0, 0, 2, 1]"] ;
8 -> 10 ;
11 [label="gini = 0.0\nsamples = 4\nvalue = [4, 0, 0, 0, 0]"] ;
7 -> 11 ;
12 [label="X[1] <= 0.5\ngini = 0.727\nsamples = 1171\nvalue = [286, 390, 362, 42, 91]"] ;
6 -> 12 ;
13 [label="X[3] <= 0.5\ngini = 0.444\nsamples = 9\nvalue = [3, 0, 6, 0, 0]"] ;
12 -> 13 ;
14 [label="gini = 0.469\nsamples = 8\nvalue = [3, 0, 5, 0, 0]"] ;
13 -> 14 ;
15 [label="gini = 0.0\nsamples = 1\nvalue = [0, 0, 1, 0, 0]"] ;
13 -> 15 ;
16 [label="X[3] <= 0.5\ngini = 0.727\nsamples = 1162\nvalue = [283, 390, 356, 42, 91]"] ;
12 -> 16 ;
17 [label="gini = 0.727\nsamples = 1160\nvalue = [282, 390, 355, 42, 91]"] ;
16 -> 17 ;
18 [label="gini = 0.5\nsamples = 2\nvalue = [1, 0, 1, 0, 0]"] ;
16 -> 18 ;
}