digraph Tree {
node [shape=box] ;
0 [label="X[1] <= 0.5\ngini = 0.791\nsamples = 2400\nvalue = [343, 651, 458, 497, 451]"] ;
1 [label="X[2] <= 0.5\ngini = 0.787\nsamples = 678\nvalue = [82, 188, 143, 141, 124]"] ;
0 -> 1 [labeldistance=2.5, labelangle=45, headlabel="True"] ;
2 [label="X[0] <= 0.5\ngini = 0.794\nsamples = 176\nvalue = [24, 35, 37, 41, 39]"] ;
1 -> 2 ;
3 [label="X[4] <= 0.5\ngini = 0.782\nsamples = 61\nvalue = [7, 12, 14, 18, 10]"] ;
2 -> 3 ;
4 [label="gini = 0.784\nsamples = 40\nvalue = [4, 8, 9, 11, 8]"] ;
3 -> 4 ;
5 [label="gini = 0.766\nsamples = 21\nvalue = [3, 4, 5, 7, 2]"] ;
3 -> 5 ;
6 [label="X[3] <= 0.5\ngini = 0.795\nsamples = 115\nvalue = [17, 23, 23, 23, 29]"] ;
2 -> 6 ;
7 [label="gini = 0.768\nsamples = 44\nvalue = [3, 12, 8, 8, 13]"] ;
6 -> 7 ;
8 [label="gini = 0.797\nsamples = 71\nvalue = [14, 11, 15, 15, 16]"] ;
6 -> 8 ;
9 [label="X[4] <= 0.5\ngini = 0.781\nsamples = 502\nvalue = [58, 153, 106, 100, 85]"] ;
1 -> 9 ;
10 [label="X[0] <= 0.5\ngini = 0.766\nsamples = 248\nvalue = [18, 79, 48, 62, 41]"] ;
9 -> 10 ;
11 [label="gini = 0.75\nsamples = 58\nvalue = [1, 18, 13, 15, 11]"] ;
10 -> 11 ;
12 [label="gini = 0.769\nsamples = 190\nvalue = [17, 61, 35, 47, 30]"] ;
10 -> 12 ;
13 [label="X[0] <= 0.5\ngini = 0.786\nsamples = 254\nvalue = [40, 74, 58, 38, 44]"] ;
9 -> 13 ;
14 [label="gini = 0.762\nsamples = 35\nvalue = [5, 11, 10, 6, 3]"] ;
13 -> 14 ;
15 [label="gini = 0.787\nsamples = 219\nvalue = [35, 63, 48, 32, 41]"] ;
13 -> 15 ;
16 [label="X[3] <= 0.5\ngini = 0.792\nsamples = 1722\nvalue = [261, 463, 315, 356, 327]"] ;
0 -> 16 [labeldistance=2.5, labelangle=-45, headlabel="False"] ;
17 [label="X[2] <= 0.5\ngini = 0.79\nsamples = 851\nvalue = [125, 237, 158, 182, 149]"] ;
16 -> 17 ;
18 [label="X[0] <= 0.5\ngini = 0.787\nsamples = 208\nvalue = [31, 55, 47, 48, 27]"] ;
17 -> 18 ;
19 [label="gini = 0.773\nsamples = 43\nvalue = [4, 13, 8, 11, 7]"] ;
18 -> 19 ;
20 [label="gini = 0.788\nsamples = 165\nvalue = [27, 42, 39, 37, 20]"] ;
18 -> 20 ;
21 [label="X[0] <= 0.5\ngini = 0.789\nsamples = 643\nvalue = [94, 182, 111, 134, 122]"] ;
17 -> 21 ;
22 [label="gini = 0.786\nsamples = 194\nvalue = [26, 52, 42, 46, 28]"] ;
21 -> 22 ;
23 [label="gini = 0.787\nsamples = 449\nvalue = [68, 130, 69, 88, 94]"] ;
21 -> 23 ;
24 [label="X[0] <= 0.5\ngini = 0.794\nsamples = 871\nvalue = [136, 226, 157, 174, 178]"] ;
16 -> 24 ;
25 [label="X[2] <= 0.5\ngini = 0.796\nsamples = 240\nvalue = [41, 54, 45, 42, 58]"] ;
24 -> 25 ;
26 [label="gini = 0.716\nsamples = 44\nvalue = [14, 13, 0, 4, 13]"] ;
25 -> 26 ;
27 [label="gini = 0.794\nsamples = 196\nvalue = [27, 41, 45, 38, 45]"] ;
25 -> 27 ;
28 [label="X[2] <= 0.5\ngini = 0.792\nsamples = 631\nvalue = [95, 172, 112, 132, 120]"] ;
24 -> 28 ;
29 [label="gini = 0.792\nsamples = 163\nvalue = [23, 43, 34, 33, 30]"] ;
28 -> 29 ;
30 [label="gini = 0.791\nsamples = 468\nvalue = [72, 129, 78, 99, 90]"] ;
28 -> 30 ;
}