digraph Tree {
node [shape=box] ;
0 [label="X[4] <= 0.5\ngini = 0.79\nsamples = 2400\nvalue = [317, 635, 424, 557, 467]"] ;
1 [label="X[1] <= 0.5\ngini = 0.788\nsamples = 1346\nvalue = [185, 383, 228, 288, 262]"] ;
0 -> 1 [labeldistance=2.5, labelangle=45, headlabel="True"] ;
2 [label="X[2] <= 0.5\ngini = 0.775\nsamples = 473\nvalue = [49, 153, 82, 93, 96]"] ;
1 -> 2 ;
3 [label="X[0] <= 0.5\ngini = 0.761\nsamples = 190\nvalue = [18, 69, 34, 35, 34]"] ;
2 -> 3 ;
4 [label="gini = 0.76\nsamples = 79\nvalue = [11, 29, 14, 9, 16]"] ;
3 -> 4 ;
5 [label="gini = 0.753\nsamples = 111\nvalue = [7, 40, 20, 26, 18]"] ;
3 -> 5 ;
6 [label="X[0] <= 0.5\ngini = 0.781\nsamples = 283\nvalue = [31, 84, 48, 58, 62]"] ;
2 -> 6 ;
7 [label="gini = 0.76\nsamples = 117\nvalue = [8, 39, 17, 27, 26]"] ;
6 -> 7 ;
8 [label="gini = 0.791\nsamples = 166\nvalue = [23, 45, 31, 31, 36]"] ;
6 -> 8 ;
9 [label="X[0] <= 0.5\ngini = 0.792\nsamples = 873\nvalue = [136, 230, 146, 195, 166]"] ;
1 -> 9 ;
10 [label="X[2] <= 0.5\ngini = 0.788\nsamples = 321\nvalue = [56, 95, 56, 62, 52]"] ;
9 -> 10 ;
11 [label="gini = 0.789\nsamples = 86\nvalue = [13, 25, 16, 15, 17]"] ;
10 -> 11 ;
12 [label="gini = 0.787\nsamples = 235\nvalue = [43, 70, 40, 47, 35]"] ;
10 -> 12 ;
13 [label="X[2] <= 0.5\ngini = 0.792\nsamples = 552\nvalue = [80, 135, 90, 133, 114]"] ;
9 -> 13 ;
14 [label="gini = 0.796\nsamples = 205\nvalue = [30, 41, 43, 46, 45]"] ;
13 -> 14 ;
15 [label="gini = 0.785\nsamples = 347\nvalue = [50, 94, 47, 87, 69]"] ;
13 -> 15 ;
16 [label="X[2] <= 0.5\ngini = 0.79\nsamples = 1054\nvalue = [132, 252, 196, 269, 205]"] ;
0 -> 16 [labeldistance=2.5, labelangle=-45, headlabel="False"] ;
17 [label="X[1] <= 0.5\ngini = 0.782\nsamples = 287\nvalue = [44, 88, 43, 64, 48]"] ;
16 -> 17 ;
18 [label="X[0] <= 0.5\ngini = 0.787\nsamples = 79\nvalue = [10, 18, 19, 20, 12]"] ;
17 -> 18 ;
19 [label="gini = 0.726\nsamples = 21\nvalue = [1, 2, 8, 6, 4]"] ;
18 -> 19 ;
20 [label="gini = 0.787\nsamples = 58\nvalue = [9, 16, 11, 14, 8]"] ;
18 -> 20 ;
21 [label="X[0] <= 0.5\ngini = 0.772\nsamples = 208\nvalue = [34, 70, 24, 44, 36]"] ;
17 -> 21 ;
22 [label="gini = 0.726\nsamples = 25\nvalue = [3, 11, 4, 4, 3]"] ;
21 -> 22 ;
23 [label="gini = 0.775\nsamples = 183\nvalue = [31, 59, 20, 40, 33]"] ;
21 -> 23 ;
24 [label="X[1] <= 0.5\ngini = 0.788\nsamples = 767\nvalue = [88, 164, 153, 205, 157]"] ;
16 -> 24 ;
25 [label="X[0] <= 0.5\ngini = 0.773\nsamples = 202\nvalue = [23, 47, 31, 66, 35]"] ;
24 -> 25 ;
26 [label="gini = 0.702\nsamples = 42\nvalue = [2, 10, 5, 19, 6]"] ;
25 -> 26 ;
27 [label="gini = 0.784\nsamples = 160\nvalue = [21, 37, 26, 47, 29]"] ;
25 -> 27 ;
28 [label="X[0] <= 0.5\ngini = 0.79\nsamples = 565\nvalue = [65, 117, 122, 139, 122]"] ;
24 -> 28 ;
29 [label="gini = 0.793\nsamples = 181\nvalue = [23, 42, 38, 38, 40]"] ;
28 -> 29 ;
30 [label="gini = 0.787\nsamples = 384\nvalue = [42, 75, 84, 101, 82]"] ;
28 -> 30 ;
}