digraph Tree {
node [shape=box] ;
0 [label="X[0] <= 0.5\ngini = 0.719\nsamples = 1600\nvalue = [527, 418, 102, 505, 48]"] ;
1 [label="X[3] <= 0.5\ngini = 0.658\nsamples = 698\nvalue = [260, 302, 17, 78, 41]"] ;
0 -> 1 [labeldistance=2.5, labelangle=45, headlabel="True"] ;
2 [label="X[2] <= 0.5\ngini = 0.631\nsamples = 629\nvalue = [243, 288, 10, 48, 40]"] ;
1 -> 2 ;
3 [label="gini = 0.626\nsamples = 618\nvalue = [241, 284, 5, 48, 40]"] ;
2 -> 3 ;
4 [label="gini = 0.628\nsamples = 11\nvalue = [2, 4, 5, 0, 0]"] ;
2 -> 4 ;
5 [label="X[2] <= 0.5\ngini = 0.699\nsamples = 69\nvalue = [17, 14, 7, 30, 1]"] ;
1 -> 5 ;
6 [label="gini = 0.561\nsamples = 29\nvalue = [8, 4, 0, 17, 0]"] ;
5 -> 6 ;
7 [label="X[1] <= 0.5\ngini = 0.75\nsamples = 40\nvalue = [9, 10, 7, 13, 1]"] ;
5 -> 7 ;
8 [label="gini = 0.444\nsamples = 3\nvalue = [2, 1, 0, 0, 0]"] ;
7 -> 8 ;
9 [label="gini = 0.745\nsamples = 37\nvalue = [7, 9, 7, 13, 1]"] ;
7 -> 9 ;
10 [label="X[3] <= 0.5\ngini = 0.663\nsamples = 902\nvalue = [267, 116, 85, 427, 7]"] ;
0 -> 10 [labeldistance=2.5, labelangle=-45, headlabel="False"] ;
11 [label="X[2] <= 0.5\ngini = 0.669\nsamples = 503\nvalue = [216, 59, 45, 178, 5]"] ;
10 -> 11 ;
12 [label="gini = 0.421\nsamples = 168\nvalue = [124, 13, 2, 28, 1]"] ;
11 -> 12 ;
13 [label="X[1] <= 0.5\ngini = 0.689\nsamples = 335\nvalue = [92, 46, 43, 150, 4]"] ;
11 -> 13 ;
14 [label="gini = 0.545\nsamples = 22\nvalue = [4, 2, 14, 2, 0]"] ;
13 -> 14 ;
15 [label="gini = 0.669\nsamples = 313\nvalue = [88, 44, 29, 148, 4]"] ;
13 -> 15 ;
16 [label="X[2] <= 0.5\ngini = 0.564\nsamples = 399\nvalue = [51, 57, 40, 249, 2]"] ;
10 -> 16 ;
17 [label="gini = 0.524\nsamples = 205\nvalue = [33, 24, 11, 135, 2]"] ;
16 -> 17 ;
18 [label="X[1] <= 0.5\ngini = 0.595\nsamples = 194\nvalue = [18, 33, 29, 114, 0]"] ;
16 -> 18 ;
19 [label="gini = 0.64\nsamples = 15\nvalue = [2, 2, 3, 8, 0]"] ;
18 -> 19 ;
20 [label="gini = 0.59\nsamples = 179\nvalue = [16, 31, 26, 106, 0]"] ;
18 -> 20 ;
}