digraph Tree {
node [shape=box] ;
0 [label="X[3] <= 0.5\ngini = 0.604\nsamples = 13761\nvalue = [169, 6002, 6051, 1539]"] ;
1 [label="X[0] <= 0.5\ngini = 0.604\nsamples = 13325\nvalue = [165, 5919, 5752, 1489]"] ;
0 -> 1 [labeldistance=2.5, labelangle=45, headlabel="True"] ;
2 [label="gini = 0.612\nsamples = 4594\nvalue = [60, 2063, 1898, 573]"] ;
1 -> 2 ;
3 [label="gini = 0.599\nsamples = 8731\nvalue = [105, 3856, 3854, 916]"] ;
1 -> 3 ;
4 [label="gini = 0.48\nsamples = 436\nvalue = [4, 83, 299, 50]"] ;
0 -> 4 [labeldistance=2.5, labelangle=-45, headlabel="False"] ;
}