digraph Tree {
node [shape=box] ;
0 [label="X[3] <= 0.5\ngini = 0.769\nsamples = 35166\nvalue = [11695, 7129, 7197, 3148, 5997]"] ;
1 [label="X[0] <= 0.5\ngini = 0.752\nsamples = 23587\nvalue = [8857, 4472, 5046, 2112, 3100]"] ;
0 -> 1 [labeldistance=2.5, labelangle=45, headlabel="True"] ;
2 [label="X[2] <= 0.5\ngini = 0.774\nsamples = 2298\nvalue = [613, 654, 489, 222, 320]"] ;
1 -> 2 ;
3 [label="gini = 0.774\nsamples = 2295\nvalue = [613, 652, 488, 222, 320]"] ;
2 -> 3 ;
4 [label="gini = 0.444\nsamples = 3\nvalue = [0, 2, 1, 0, 0]"] ;
2 -> 4 ;
5 [label="X[2] <= 0.5\ngini = 0.747\nsamples = 21289\nvalue = [8244, 3818, 4557, 1890, 2780]"] ;
1 -> 5 ;
6 [label="gini = 0.746\nsamples = 21127\nvalue = [8218, 3781, 4499, 1884, 2745]"] ;
5 -> 6 ;
7 [label="X[1] <= 0.5\ngini = 0.746\nsamples = 162\nvalue = [26, 37, 58, 6, 35]"] ;
5 -> 7 ;
8 [label="gini = 0.747\nsamples = 161\nvalue = [26, 37, 57, 6, 35]"] ;
7 -> 8 ;
9 [label="gini = 0.0\nsamples = 1\nvalue = [0, 0, 1, 0, 0]"] ;
7 -> 9 ;
10 [label="X[0] <= 0.5\ngini = 0.782\nsamples = 11579\nvalue = [2838, 2657, 2151, 1036, 2897]"] ;
0 -> 10 [labeldistance=2.5, labelangle=-45, headlabel="False"] ;
11 [label="X[1] <= 0.5\ngini = 0.673\nsamples = 353\nvalue = [12, 153, 69, 8, 111]"] ;
10 -> 11 ;
12 [label="gini = 0.63\nsamples = 86\nvalue = [1, 22, 20, 0, 43]"] ;
11 -> 12 ;
13 [label="gini = 0.658\nsamples = 267\nvalue = [11, 131, 49, 8, 68]"] ;
11 -> 13 ;
14 [label="X[2] <= 0.5\ngini = 0.783\nsamples = 11226\nvalue = [2826, 2504, 2082, 1028, 2786]"] ;
10 -> 14 ;
15 [label="gini = 0.782\nsamples = 11181\nvalue = [2817, 2498, 2063, 1025, 2778]"] ;
14 -> 15 ;
16 [label="X[1] <= 0.5\ngini = 0.728\nsamples = 45\nvalue = [9, 6, 19, 3, 8]"] ;
14 -> 16 ;
17 [label="gini = 0.735\nsamples = 44\nvalue = [9, 6, 18, 3, 8]"] ;
16 -> 17 ;
18 [label="gini = 0.0\nsamples = 1\nvalue = [0, 0, 1, 0, 0]"] ;
16 -> 18 ;
}