digraph Tree {
node [shape=box] ;
0 [label="X[2] <= 0.5\ngini = 0.799\nsamples = 800\nvalue = [156, 162, 151, 154, 177]"] ;
1 [label="X[4] <= 0.5\ngini = 0.793\nsamples = 141\nvalue = [23, 22, 37, 29, 30]"] ;
0 -> 1 [labeldistance=2.5, labelangle=45, headlabel="True"] ;
2 [label="X[0] <= 0.5\ngini = 0.764\nsamples = 76\nvalue = [11, 8, 27, 14, 16]"] ;
1 -> 2 ;
3 [label="gini = 0.5\nsamples = 2\nvalue = [0, 1, 1, 0, 0]"] ;
2 -> 3 ;
4 [label="gini = 0.763\nsamples = 74\nvalue = [11, 7, 26, 14, 16]"] ;
2 -> 4 ;
5 [label="gini = 0.796\nsamples = 65\nvalue = [12, 14, 10, 15, 14]"] ;
1 -> 5 ;
6 [label="X[0] <= 0.5\ngini = 0.798\nsamples = 659\nvalue = [133, 140, 114, 125, 147]"] ;
0 -> 6 [labeldistance=2.5, labelangle=-45, headlabel="False"] ;
7 [label="X[1] <= 0.5\ngini = 0.79\nsamples = 145\nvalue = [27, 27, 19, 36, 36]"] ;
6 -> 7 ;
8 [label="X[3] <= 0.5\ngini = 0.722\nsamples = 12\nvalue = [4, 0, 2, 2, 4]"] ;
7 -> 8 ;
9 [label="gini = 0.694\nsamples = 7\nvalue = [1, 0, 2, 1, 3]"] ;
8 -> 9 ;
10 [label="gini = 0.56\nsamples = 5\nvalue = [3, 0, 0, 1, 1]"] ;
8 -> 10 ;
11 [label="X[3] <= 0.5\ngini = 0.789\nsamples = 133\nvalue = [23, 27, 17, 34, 32]"] ;
7 -> 11 ;
12 [label="gini = 0.795\nsamples = 55\nvalue = [9, 12, 10, 14, 10]"] ;
11 -> 12 ;
13 [label="gini = 0.777\nsamples = 78\nvalue = [14, 15, 7, 20, 22]"] ;
11 -> 13 ;
14 [label="X[3] <= 0.5\ngini = 0.798\nsamples = 514\nvalue = [106, 113, 95, 89, 111]"] ;
6 -> 14 ;
15 [label="X[1] <= 0.5\ngini = 0.795\nsamples = 262\nvalue = [60, 57, 43, 42, 60]"] ;
14 -> 15 ;
16 [label="gini = 0.791\nsamples = 43\nvalue = [9, 10, 9, 5, 10]"] ;
15 -> 16 ;
17 [label="gini = 0.795\nsamples = 219\nvalue = [51, 47, 34, 37, 50]"] ;
15 -> 17 ;
18 [label="X[1] <= 0.5\ngini = 0.799\nsamples = 252\nvalue = [46, 56, 52, 47, 51]"] ;
14 -> 18 ;
19 [label="gini = 0.773\nsamples = 42\nvalue = [6, 11, 5, 13, 7]"] ;
18 -> 19 ;
20 [label="gini = 0.798\nsamples = 210\nvalue = [40, 45, 47, 34, 44]"] ;
18 -> 20 ;
}