digraph Tree {
node [shape=box] ;
0 [label="X[0] <= 0.5\ngini = 0.789\nsamples = 2400\nvalue = [321, 654, 424, 548, 453]"] ;
1 [label="X[1] <= 0.5\ngini = 0.788\nsamples = 701\nvalue = [93, 182, 137, 177, 112]"] ;
0 -> 1 [labeldistance=2.5, labelangle=45, headlabel="True"] ;
2 [label="X[3] <= 0.5\ngini = 0.784\nsamples = 190\nvalue = [25, 56, 42, 36, 31]"] ;
1 -> 2 ;
3 [label="X[2] <= 0.5\ngini = 0.792\nsamples = 59\nvalue = [13, 14, 8, 10, 14]"] ;
2 -> 3 ;
4 [label="gini = 0.75\nsamples = 20\nvalue = [4, 5, 1, 3, 7]"] ;
3 -> 4 ;
5 [label="gini = 0.797\nsamples = 39\nvalue = [9, 9, 7, 7, 7]"] ;
3 -> 5 ;
6 [label="X[2] <= 0.5\ngini = 0.765\nsamples = 131\nvalue = [12, 42, 34, 26, 17]"] ;
2 -> 6 ;
7 [label="gini = 0.741\nsamples = 63\nvalue = [7, 25, 15, 7, 9]"] ;
6 -> 7 ;
8 [label="gini = 0.762\nsamples = 68\nvalue = [5, 17, 19, 19, 8]"] ;
6 -> 8 ;
9 [label="X[2] <= 0.5\ngini = 0.786\nsamples = 511\nvalue = [68, 126, 95, 141, 81]"] ;
1 -> 9 ;
10 [label="X[3] <= 0.5\ngini = 0.742\nsamples = 98\nvalue = [10, 28, 14, 36, 10]"] ;
9 -> 10 ;
11 [label="gini = 0.722\nsamples = 50\nvalue = [3, 20, 8, 14, 5]"] ;
10 -> 11 ;
12 [label="gini = 0.714\nsamples = 48\nvalue = [7, 8, 6, 22, 5]"] ;
10 -> 12 ;
13 [label="X[4] <= 0.5\ngini = 0.791\nsamples = 413\nvalue = [58, 98, 81, 105, 71]"] ;
9 -> 13 ;
14 [label="gini = 0.786\nsamples = 223\nvalue = [34, 59, 40, 58, 32]"] ;
13 -> 14 ;
15 [label="gini = 0.792\nsamples = 190\nvalue = [24, 39, 41, 47, 39]"] ;
13 -> 15 ;
16 [label="X[1] <= 0.5\ngini = 0.788\nsamples = 1699\nvalue = [228, 472, 287, 371, 341]"] ;
0 -> 16 [labeldistance=2.5, labelangle=-45, headlabel="False"] ;
17 [label="X[2] <= 0.5\ngini = 0.784\nsamples = 502\nvalue = [66, 140, 70, 113, 113]"] ;
16 -> 17 ;
18 [label="X[4] <= 0.5\ngini = 0.772\nsamples = 142\nvalue = [16, 35, 15, 39, 37]"] ;
17 -> 18 ;
19 [label="gini = 0.753\nsamples = 82\nvalue = [7, 15, 9, 27, 24]"] ;
18 -> 19 ;
20 [label="gini = 0.769\nsamples = 60\nvalue = [9, 20, 6, 12, 13]"] ;
18 -> 20 ;
21 [label="X[4] <= 0.5\ngini = 0.785\nsamples = 360\nvalue = [50, 105, 55, 74, 76]"] ;
17 -> 21 ;
22 [label="gini = 0.774\nsamples = 193\nvalue = [22, 62, 27, 42, 40]"] ;
21 -> 22 ;
23 [label="gini = 0.794\nsamples = 167\nvalue = [28, 43, 28, 32, 36]"] ;
21 -> 23 ;
24 [label="X[2] <= 0.5\ngini = 0.789\nsamples = 1197\nvalue = [162, 332, 217, 258, 228]"] ;
16 -> 24 ;
25 [label="X[3] <= 0.5\ngini = 0.79\nsamples = 305\nvalue = [49, 83, 51, 72, 50]"] ;
24 -> 25 ;
26 [label="gini = 0.772\nsamples = 140\nvalue = [21, 39, 22, 42, 16]"] ;
25 -> 26 ;
27 [label="gini = 0.794\nsamples = 165\nvalue = [28, 44, 29, 30, 34]"] ;
25 -> 27 ;
28 [label="X[4] <= 0.5\ngini = 0.788\nsamples = 892\nvalue = [113, 249, 166, 186, 178]"] ;
24 -> 28 ;
29 [label="gini = 0.788\nsamples = 495\nvalue = [66, 137, 89, 111, 92]"] ;
28 -> 29 ;
30 [label="gini = 0.786\nsamples = 397\nvalue = [47, 112, 77, 75, 86]"] ;
28 -> 30 ;
}