digraph Tree {
node [shape=box] ;
0 [label="X[0] <= 0.5\ngini = 0.686\nsamples = 128\nvalue = [54, 31, 35, 6, 2]"] ;
1 [label="X[2] <= 0.5\ngini = 0.325\nsamples = 38\nvalue = [2, 31, 1, 2, 2]"] ;
0 -> 1 [labeldistance=2.5, labelangle=45, headlabel="True"] ;
2 [label="gini = 0.211\nsamples = 35\nvalue = [1, 31, 0, 2, 1]"] ;
1 -> 2 ;
3 [label="X[4] <= 0.5\ngini = 0.667\nsamples = 3\nvalue = [1, 0, 1, 0, 1]"] ;
1 -> 3 ;
4 [label="gini = 0.0\nsamples = 1\nvalue = [0, 0, 1, 0, 0]"] ;
3 -> 4 ;
5 [label="X[1] <= 0.5\ngini = 0.5\nsamples = 2\nvalue = [1, 0, 0, 0, 1]"] ;
3 -> 5 ;
6 [label="gini = 0.0\nsamples = 1\nvalue = [1, 0, 0, 0, 0]"] ;
5 -> 6 ;
7 [label="gini = 0.0\nsamples = 1\nvalue = [0, 0, 0, 0, 1]"] ;
5 -> 7 ;
8 [label="X[2] <= 0.5\ngini = 0.521\nsamples = 90\nvalue = [52, 0, 34, 4, 0]"] ;
0 -> 8 [labeldistance=2.5, labelangle=-45, headlabel="False"] ;
9 [label="X[1] <= 0.5\ngini = 0.111\nsamples = 34\nvalue = [32, 0, 0, 2, 0]"] ;
8 -> 9 ;
10 [label="gini = 0.32\nsamples = 5\nvalue = [4, 0, 0, 1, 0]"] ;
9 -> 10 ;
11 [label="gini = 0.067\nsamples = 29\nvalue = [28, 0, 0, 1, 0]"] ;
9 -> 11 ;
12 [label="X[3] <= 0.5\ngini = 0.503\nsamples = 56\nvalue = [20, 0, 34, 2, 0]"] ;
8 -> 12 ;
13 [label="X[1] <= 0.5\ngini = 0.497\nsamples = 55\nvalue = [19, 0, 34, 2, 0]"] ;
12 -> 13 ;
14 [label="gini = 0.0\nsamples = 3\nvalue = [0, 0, 3, 0, 0]"] ;
13 -> 14 ;
15 [label="gini = 0.51\nsamples = 52\nvalue = [19, 0, 31, 2, 0]"] ;
13 -> 15 ;
16 [label="gini = 0.0\nsamples = 1\nvalue = [1, 0, 0, 0, 0]"] ;
12 -> 16 ;
}