digraph Tree {
node [shape=box] ;
0 [label="X[3] <= 0.5\ngini = 0.593\nsamples = 26808\nvalue = [318, 11787, 12111, 2592]"] ;
1 [label="X[0] <= 0.5\ngini = 0.593\nsamples = 26052\nvalue = [312, 11649, 11571, 2520]"] ;
0 -> 1 [labeldistance=2.5, labelangle=45, headlabel="True"] ;
2 [label="gini = 0.598\nsamples = 9883\nvalue = [105, 4395, 4337, 1046]"] ;
1 -> 2 ;
3 [label="gini = 0.59\nsamples = 16169\nvalue = [207, 7254, 7234, 1474]"] ;
1 -> 3 ;
4 [label="gini = 0.447\nsamples = 756\nvalue = [6, 138, 540, 72]"] ;
0 -> 4 [labeldistance=2.5, labelangle=-45, headlabel="False"] ;
}