digraph Tree {
node [shape=box] ;
0 [label="X[2] <= 0.5\ngini = 0.789\nsamples = 2400\nvalue = [343, 656, 390, 559, 452]"] ;
1 [label="X[3] <= 0.5\ngini = 0.781\nsamples = 603\nvalue = [74, 161, 87, 165, 116]"] ;
0 -> 1 [labeldistance=2.5, labelangle=45, headlabel="True"] ;
2 [label="X[0] <= 0.5\ngini = 0.784\nsamples = 268\nvalue = [31, 66, 42, 71, 58]"] ;
1 -> 2 ;
3 [label="X[1] <= 0.5\ngini = 0.792\nsamples = 34\nvalue = [7, 6, 7, 9, 5]"] ;
2 -> 3 ;
4 [label="gini = 0.694\nsamples = 11\nvalue = [4, 2, 0, 4, 1]"] ;
3 -> 4 ;
5 [label="gini = 0.783\nsamples = 23\nvalue = [3, 4, 7, 5, 4]"] ;
3 -> 5 ;
6 [label="X[1] <= 0.5\ngini = 0.78\nsamples = 234\nvalue = [24, 60, 35, 62, 53]"] ;
2 -> 6 ;
7 [label="gini = 0.774\nsamples = 38\nvalue = [5, 10, 4, 8, 11]"] ;
6 -> 7 ;
8 [label="gini = 0.779\nsamples = 196\nvalue = [19, 50, 31, 54, 42]"] ;
6 -> 8 ;
9 [label="X[1] <= 0.5\ngini = 0.776\nsamples = 335\nvalue = [43, 95, 45, 94, 58]"] ;
1 -> 9 ;
10 [label="X[0] <= 0.5\ngini = 0.784\nsamples = 53\nvalue = [9, 12, 11, 15, 6]"] ;
9 -> 10 ;
11 [label="gini = 0.796\nsamples = 14\nvalue = [2, 3, 3, 3, 3]"] ;
10 -> 11 ;
12 [label="gini = 0.772\nsamples = 39\nvalue = [7, 9, 8, 12, 3]"] ;
10 -> 12 ;
13 [label="X[0] <= 0.5\ngini = 0.772\nsamples = 282\nvalue = [34, 83, 34, 79, 52]"] ;
9 -> 13 ;
14 [label="gini = 0.782\nsamples = 39\nvalue = [5, 11, 6, 10, 7]"] ;
13 -> 14 ;
15 [label="gini = 0.77\nsamples = 243\nvalue = [29, 72, 28, 69, 45]"] ;
13 -> 15 ;
16 [label="X[3] <= 0.5\ngini = 0.79\nsamples = 1797\nvalue = [269, 495, 303, 394, 336]"] ;
0 -> 16 [labeldistance=2.5, labelangle=-45, headlabel="False"] ;
17 [label="X[1] <= 0.5\ngini = 0.789\nsamples = 832\nvalue = [115, 230, 138, 181, 168]"] ;
16 -> 17 ;
18 [label="X[0] <= 0.5\ngini = 0.787\nsamples = 250\nvalue = [32, 72, 46, 53, 47]"] ;
17 -> 18 ;
19 [label="gini = 0.727\nsamples = 30\nvalue = [1, 12, 7, 6, 4]"] ;
18 -> 19 ;
20 [label="gini = 0.79\nsamples = 220\nvalue = [31, 60, 39, 47, 43]"] ;
18 -> 20 ;
21 [label="X[0] <= 0.5\ngini = 0.789\nsamples = 582\nvalue = [83, 158, 92, 128, 121]"] ;
17 -> 21 ;
22 [label="gini = 0.792\nsamples = 185\nvalue = [27, 49, 32, 39, 38]"] ;
21 -> 22 ;
23 [label="gini = 0.788\nsamples = 397\nvalue = [56, 109, 60, 89, 83]"] ;
21 -> 23 ;
24 [label="X[1] <= 0.5\ngini = 0.791\nsamples = 965\nvalue = [154, 265, 165, 213, 168]"] ;
16 -> 24 ;
25 [label="X[0] <= 0.5\ngini = 0.796\nsamples = 288\nvalue = [50, 67, 45, 64, 62]"] ;
24 -> 25 ;
26 [label="gini = 0.793\nsamples = 31\nvalue = [6, 5, 7, 5, 8]"] ;
25 -> 26 ;
27 [label="gini = 0.794\nsamples = 257\nvalue = [44, 62, 38, 59, 54]"] ;
25 -> 27 ;
28 [label="X[0] <= 0.5\ngini = 0.786\nsamples = 677\nvalue = [104, 198, 120, 149, 106]"] ;
24 -> 28 ;
29 [label="gini = 0.792\nsamples = 180\nvalue = [33, 49, 31, 38, 29]"] ;
28 -> 29 ;
30 [label="gini = 0.784\nsamples = 497\nvalue = [71, 149, 89, 111, 77]"] ;
28 -> 30 ;
}