digraph Tree {
node [shape=box] ;
0 [label="X[3] <= 0.5\ngini = 0.588\nsamples = 18864\nvalue = [186, 8370, 8568, 1740]"] ;
1 [label="X[0] <= 0.5\ngini = 0.588\nsamples = 18380\nvalue = [184, 8280, 8222, 1694]"] ;
0 -> 1 [labeldistance=2.5, labelangle=45, headlabel="True"] ;
2 [label="gini = 0.593\nsamples = 6497\nvalue = [75, 2923, 2868, 631]"] ;
1 -> 2 ;
3 [label="gini = 0.586\nsamples = 11883\nvalue = [109, 5357, 5354, 1063]"] ;
1 -> 3 ;
4 [label="gini = 0.445\nsamples = 484\nvalue = [2, 90, 346, 46]"] ;
0 -> 4 [labeldistance=2.5, labelangle=-45, headlabel="False"] ;
}