digraph Tree {
node [shape=box] ;
0 [label="X[2] <= 0.5\ngini = 0.79\nsamples = 2400\nvalue = [376, 656, 419, 549, 400]"] ;
1 [label="X[0] <= 0.5\ngini = 0.782\nsamples = 673\nvalue = [107, 209, 101, 148, 108]"] ;
0 -> 1 [labeldistance=2.5, labelangle=45, headlabel="True"] ;
2 [label="X[4] <= 0.5\ngini = 0.767\nsamples = 174\nvalue = [23, 52, 15, 48, 36]"] ;
1 -> 2 ;
3 [label="X[1] <= 0.5\ngini = 0.772\nsamples = 100\nvalue = [16, 25, 7, 27, 25]"] ;
2 -> 3 ;
4 [label="gini = 0.747\nsamples = 42\nvalue = [6, 12, 1, 11, 12]"] ;
3 -> 4 ;
5 [label="gini = 0.783\nsamples = 58\nvalue = [10, 13, 6, 16, 13]"] ;
3 -> 5 ;
6 [label="X[1] <= 0.5\ngini = 0.744\nsamples = 74\nvalue = [7, 27, 8, 21, 11]"] ;
2 -> 6 ;
7 [label="gini = 0.714\nsamples = 31\nvalue = [1, 13, 4, 8, 5]"] ;
6 -> 7 ;
8 [label="gini = 0.755\nsamples = 43\nvalue = [6, 14, 4, 13, 6]"] ;
6 -> 8 ;
9 [label="X[1] <= 0.5\ngini = 0.782\nsamples = 499\nvalue = [84, 157, 86, 100, 72]"] ;
1 -> 9 ;
10 [label="X[3] <= 0.5\ngini = 0.798\nsamples = 156\nvalue = [30, 36, 28, 34, 28]"] ;
9 -> 10 ;
11 [label="gini = 0.796\nsamples = 79\nvalue = [15, 16, 13, 15, 20]"] ;
10 -> 11 ;
12 [label="gini = 0.785\nsamples = 77\nvalue = [15, 20, 15, 19, 8]"] ;
10 -> 12 ;
13 [label="X[3] <= 0.5\ngini = 0.769\nsamples = 343\nvalue = [54, 121, 58, 66, 44]"] ;
9 -> 13 ;
14 [label="gini = 0.763\nsamples = 167\nvalue = [25, 62, 25, 30, 25]"] ;
13 -> 14 ;
15 [label="gini = 0.772\nsamples = 176\nvalue = [29, 59, 33, 36, 19]"] ;
13 -> 15 ;
16 [label="X[4] <= 0.5\ngini = 0.792\nsamples = 1727\nvalue = [269, 447, 318, 401, 292]"] ;
0 -> 16 [labeldistance=2.5, labelangle=-45, headlabel="False"] ;
17 [label="X[0] <= 0.5\ngini = 0.788\nsamples = 958\nvalue = [149, 263, 149, 232, 165]"] ;
16 -> 17 ;
18 [label="X[1] <= 0.5\ngini = 0.779\nsamples = 259\nvalue = [35, 65, 39, 78, 42]"] ;
17 -> 18 ;
19 [label="gini = 0.759\nsamples = 40\nvalue = [3, 14, 8, 9, 6]"] ;
18 -> 19 ;
20 [label="gini = 0.778\nsamples = 219\nvalue = [32, 51, 31, 69, 36]"] ;
18 -> 20 ;
21 [label="X[1] <= 0.5\ngini = 0.789\nsamples = 699\nvalue = [114, 198, 110, 154, 123]"] ;
17 -> 21 ;
22 [label="gini = 0.79\nsamples = 228\nvalue = [39, 65, 43, 44, 37]"] ;
21 -> 22 ;
23 [label="gini = 0.787\nsamples = 471\nvalue = [75, 133, 67, 110, 86]"] ;
21 -> 23 ;
24 [label="X[0] <= 0.5\ngini = 0.795\nsamples = 769\nvalue = [120, 184, 169, 169, 127]"] ;
16 -> 24 ;
25 [label="X[1] <= 0.5\ngini = 0.775\nsamples = 187\nvalue = [20, 52, 53, 36, 26]"] ;
24 -> 25 ;
26 [label="gini = 0.688\nsamples = 32\nvalue = [2, 11, 13, 5, 1]"] ;
25 -> 26 ;
27 [label="gini = 0.784\nsamples = 155\nvalue = [18, 41, 40, 31, 25]"] ;
25 -> 27 ;
28 [label="X[1] <= 0.5\ngini = 0.797\nsamples = 582\nvalue = [100, 132, 116, 133, 101]"] ;
24 -> 28 ;
29 [label="gini = 0.789\nsamples = 207\nvalue = [29, 50, 50, 48, 30]"] ;
28 -> 29 ;
30 [label="gini = 0.798\nsamples = 375\nvalue = [71, 82, 66, 85, 71]"] ;
28 -> 30 ;
}