digraph Tree {
node [shape=box] ;
0 [label="X[4] <= 0.5\ngini = 0.713\nsamples = 800\nvalue = [223, 135, 106, 323, 13]"] ;
1 [label="X[2] <= 0.5\ngini = 0.613\nsamples = 404\nvalue = [31, 81, 56, 229, 7]"] ;
0 -> 1 [labeldistance=2.5, labelangle=45, headlabel="True"] ;
2 [label="X[0] <= 0.5\ngini = 0.562\nsamples = 164\nvalue = [13, 35, 13, 101, 2]"] ;
1 -> 2 ;
3 [label="gini = 0.663\nsamples = 14\nvalue = [3, 2, 2, 7, 0]"] ;
2 -> 3 ;
4 [label="gini = 0.549\nsamples = 150\nvalue = [10, 33, 11, 94, 2]"] ;
2 -> 4 ;
5 [label="X[0] <= 0.5\ngini = 0.641\nsamples = 240\nvalue = [18, 46, 43, 128, 5]"] ;
1 -> 5 ;
6 [label="X[1] <= 0.5\ngini = 0.67\nsamples = 32\nvalue = [3, 12, 4, 13, 0]"] ;
5 -> 6 ;
7 [label="gini = 0.375\nsamples = 4\nvalue = [1, 0, 0, 3, 0]"] ;
6 -> 7 ;
8 [label="gini = 0.663\nsamples = 28\nvalue = [2, 12, 4, 10, 0]"] ;
6 -> 8 ;
9 [label="X[1] <= 0.5\ngini = 0.627\nsamples = 208\nvalue = [15, 34, 39, 115, 5]"] ;
5 -> 9 ;
10 [label="gini = 0.704\nsamples = 14\nvalue = [3, 0, 2, 6, 3]"] ;
9 -> 10 ;
11 [label="gini = 0.613\nsamples = 194\nvalue = [12, 34, 37, 109, 2]"] ;
9 -> 11 ;
12 [label="X[2] <= 0.5\ngini = 0.674\nsamples = 396\nvalue = [192, 54, 50, 94, 6]"] ;
0 -> 12 [labeldistance=2.5, labelangle=-45, headlabel="False"] ;
13 [label="X[0] <= 0.5\ngini = 0.573\nsamples = 148\nvalue = [84, 19, 1, 44, 0]"] ;
12 -> 13 ;
14 [label="gini = 0.654\nsamples = 19\nvalue = [5, 8, 0, 6, 0]"] ;
13 -> 14 ;
15 [label="gini = 0.531\nsamples = 129\nvalue = [79, 11, 1, 38, 0]"] ;
13 -> 15 ;
16 [label="X[0] <= 0.5\ngini = 0.71\nsamples = 248\nvalue = [108, 35, 49, 50, 6]"] ;
12 -> 16 ;
17 [label="X[1] <= 0.5\ngini = 0.602\nsamples = 17\nvalue = [10, 1, 3, 1, 2]"] ;
16 -> 17 ;
18 [label="gini = 0.0\nsamples = 1\nvalue = [1, 0, 0, 0, 0]"] ;
17 -> 18 ;
19 [label="gini = 0.625\nsamples = 16\nvalue = [9, 1, 3, 1, 2]"] ;
17 -> 19 ;
20 [label="X[1] <= 0.5\ngini = 0.713\nsamples = 231\nvalue = [98, 34, 46, 49, 4]"] ;
16 -> 20 ;
21 [label="gini = 0.734\nsamples = 17\nvalue = [7, 3, 3, 3, 1]"] ;
20 -> 21 ;
22 [label="gini = 0.711\nsamples = 214\nvalue = [91, 31, 43, 46, 3]"] ;
20 -> 22 ;
}