digraph Tree {
node [shape=box] ;
0 [label="X[4] <= 0.5\ngini = 0.794\nsamples = 2400\nvalue = [362, 599, 421, 529, 489]"] ;
1 [label="X[2] <= 0.5\ngini = 0.796\nsamples = 1393\nvalue = [229, 324, 242, 307, 291]"] ;
0 -> 1 [labeldistance=2.5, labelangle=45, headlabel="True"] ;
2 [label="X[1] <= 0.5\ngini = 0.799\nsamples = 527\nvalue = [96, 112, 100, 106, 113]"] ;
1 -> 2 ;
3 [label="X[0] <= 0.5\ngini = 0.787\nsamples = 202\nvalue = [37, 52, 22, 45, 46]"] ;
2 -> 3 ;
4 [label="gini = 0.776\nsamples = 85\nvalue = [17, 23, 6, 18, 21]"] ;
3 -> 4 ;
5 [label="gini = 0.792\nsamples = 117\nvalue = [20, 29, 16, 27, 25]"] ;
3 -> 5 ;
6 [label="X[0] <= 0.5\ngini = 0.798\nsamples = 325\nvalue = [59, 60, 78, 61, 67]"] ;
2 -> 6 ;
7 [label="gini = 0.787\nsamples = 118\nvalue = [15, 22, 34, 23, 24]"] ;
6 -> 7 ;
8 [label="gini = 0.799\nsamples = 207\nvalue = [44, 38, 44, 38, 43]"] ;
6 -> 8 ;
9 [label="X[1] <= 0.5\ngini = 0.793\nsamples = 866\nvalue = [133, 212, 142, 201, 178]"] ;
1 -> 9 ;
10 [label="X[0] <= 0.5\ngini = 0.796\nsamples = 294\nvalue = [52, 74, 56, 57, 55]"] ;
9 -> 10 ;
11 [label="gini = 0.796\nsamples = 124\nvalue = [27, 29, 25, 18, 25]"] ;
10 -> 11 ;
12 [label="gini = 0.791\nsamples = 170\nvalue = [25, 45, 31, 39, 30]"] ;
10 -> 12 ;
13 [label="X[0] <= 0.5\ngini = 0.79\nsamples = 572\nvalue = [81, 138, 86, 144, 123]"] ;
9 -> 13 ;
14 [label="gini = 0.779\nsamples = 161\nvalue = [18, 39, 21, 41, 42]"] ;
13 -> 14 ;
15 [label="gini = 0.792\nsamples = 411\nvalue = [63, 99, 65, 103, 81]"] ;
13 -> 15 ;
16 [label="X[1] <= 0.5\ngini = 0.789\nsamples = 1007\nvalue = [133, 275, 179, 222, 198]"] ;
0 -> 16 [labeldistance=2.5, labelangle=-45, headlabel="False"] ;
17 [label="X[0] <= 0.5\ngini = 0.788\nsamples = 270\nvalue = [38, 77, 59, 45, 51]"] ;
16 -> 17 ;
18 [label="X[2] <= 0.5\ngini = 0.724\nsamples = 68\nvalue = [8, 29, 8, 7, 16]"] ;
17 -> 18 ;
19 [label="gini = 0.759\nsamples = 18\nvalue = [3, 6, 5, 2, 2]"] ;
18 -> 19 ;
20 [label="gini = 0.686\nsamples = 50\nvalue = [5, 23, 3, 5, 14]"] ;
18 -> 20 ;
21 [label="X[2] <= 0.5\ngini = 0.792\nsamples = 202\nvalue = [30, 48, 51, 38, 35]"] ;
17 -> 21 ;
22 [label="gini = 0.788\nsamples = 61\nvalue = [8, 16, 12, 10, 15]"] ;
21 -> 22 ;
23 [label="gini = 0.788\nsamples = 141\nvalue = [22, 32, 39, 28, 20]"] ;
21 -> 23 ;
24 [label="X[2] <= 0.5\ngini = 0.787\nsamples = 737\nvalue = [95, 198, 120, 177, 147]"] ;
16 -> 24 ;
25 [label="X[0] <= 0.5\ngini = 0.769\nsamples = 196\nvalue = [19, 64, 29, 47, 37]"] ;
24 -> 25 ;
26 [label="gini = 0.793\nsamples = 50\nvalue = [9, 12, 7, 12, 10]"] ;
25 -> 26 ;
27 [label="gini = 0.754\nsamples = 146\nvalue = [10, 52, 22, 35, 27]"] ;
25 -> 27 ;
28 [label="X[0] <= 0.5\ngini = 0.792\nsamples = 541\nvalue = [76, 134, 91, 130, 110]"] ;
24 -> 28 ;
29 [label="gini = 0.792\nsamples = 122\nvalue = [17, 32, 23, 26, 24]"] ;
28 -> 29 ;
30 [label="gini = 0.791\nsamples = 419\nvalue = [59, 102, 68, 104, 86]"] ;
28 -> 30 ;
}