digraph Tree {
node [shape=box] ;
0 [label="X[0] <= 0.5\ngini = 0.789\nsamples = 2400\nvalue = [351, 667, 426, 545, 411]"] ;
1 [label="X[3] <= 0.5\ngini = 0.783\nsamples = 611\nvalue = [69, 173, 104, 145, 120]"] ;
0 -> 1 [labeldistance=2.5, labelangle=45, headlabel="True"] ;
2 [label="X[2] <= 0.5\ngini = 0.767\nsamples = 267\nvalue = [22, 86, 48, 67, 44]"] ;
1 -> 2 ;
3 [label="X[1] <= 0.5\ngini = 0.788\nsamples = 61\nvalue = [8, 11, 13, 17, 12]"] ;
2 -> 3 ;
4 [label="gini = 0.771\nsamples = 29\nvalue = [5, 6, 10, 4, 4]"] ;
3 -> 4 ;
5 [label="gini = 0.73\nsamples = 32\nvalue = [3, 5, 3, 13, 8]"] ;
3 -> 5 ;
6 [label="X[1] <= 0.5\ngini = 0.751\nsamples = 206\nvalue = [14, 75, 35, 50, 32]"] ;
2 -> 6 ;
7 [label="gini = 0.708\nsamples = 45\nvalue = [0, 19, 7, 10, 9]"] ;
6 -> 7 ;
8 [label="gini = 0.759\nsamples = 161\nvalue = [14, 56, 28, 40, 23]"] ;
6 -> 8 ;
9 [label="X[1] <= 0.5\ngini = 0.791\nsamples = 344\nvalue = [47, 87, 56, 78, 76]"] ;
1 -> 9 ;
10 [label="X[2] <= 0.5\ngini = 0.747\nsamples = 78\nvalue = [5, 14, 15, 30, 14]"] ;
9 -> 10 ;
11 [label="gini = 0.75\nsamples = 32\nvalue = [2, 5, 5, 9, 11]"] ;
10 -> 11 ;
12 [label="gini = 0.698\nsamples = 46\nvalue = [3, 9, 10, 21, 3]"] ;
10 -> 12 ;
13 [label="X[2] <= 0.5\ngini = 0.789\nsamples = 266\nvalue = [42, 73, 41, 48, 62]"] ;
9 -> 13 ;
14 [label="gini = 0.777\nsamples = 57\nvalue = [12, 18, 8, 12, 7]"] ;
13 -> 14 ;
15 [label="gini = 0.786\nsamples = 209\nvalue = [30, 55, 33, 36, 55]"] ;
13 -> 15 ;
16 [label="X[2] <= 0.5\ngini = 0.79\nsamples = 1789\nvalue = [282, 494, 322, 400, 291]"] ;
0 -> 16 [labeldistance=2.5, labelangle=-45, headlabel="False"] ;
17 [label="X[4] <= 0.5\ngini = 0.786\nsamples = 469\nvalue = [69, 134, 71, 111, 84]"] ;
16 -> 17 ;
18 [label="X[1] <= 0.5\ngini = 0.776\nsamples = 283\nvalue = [30, 87, 46, 68, 52]"] ;
17 -> 18 ;
19 [label="gini = 0.781\nsamples = 82\nvalue = [14, 26, 13, 17, 12]"] ;
18 -> 19 ;
20 [label="gini = 0.771\nsamples = 201\nvalue = [16, 61, 33, 51, 40]"] ;
18 -> 20 ;
21 [label="X[1] <= 0.5\ngini = 0.791\nsamples = 186\nvalue = [39, 47, 25, 43, 32]"] ;
17 -> 21 ;
22 [label="gini = 0.769\nsamples = 46\nvalue = [13, 7, 5, 14, 7]"] ;
21 -> 22 ;
23 [label="gini = 0.789\nsamples = 140\nvalue = [26, 40, 20, 29, 25]"] ;
21 -> 23 ;
24 [label="X[4] <= 0.5\ngini = 0.791\nsamples = 1320\nvalue = [213, 360, 251, 289, 207]"] ;
16 -> 24 ;
25 [label="X[1] <= 0.5\ngini = 0.794\nsamples = 694\nvalue = [118, 177, 124, 160, 115]"] ;
24 -> 25 ;
26 [label="gini = 0.782\nsamples = 183\nvalue = [22, 48, 34, 50, 29]"] ;
25 -> 26 ;
27 [label="gini = 0.795\nsamples = 511\nvalue = [96, 129, 90, 110, 86]"] ;
25 -> 27 ;
28 [label="X[1] <= 0.5\ngini = 0.786\nsamples = 626\nvalue = [95, 183, 127, 129, 92]"] ;
24 -> 28 ;
29 [label="gini = 0.787\nsamples = 160\nvalue = [26, 46, 36, 28, 24]"] ;
28 -> 29 ;
30 [label="gini = 0.785\nsamples = 466\nvalue = [69, 137, 91, 101, 68]"] ;
28 -> 30 ;
}