digraph Tree {
node [shape=box] ;
0 [label="X[2] <= 0.5\ngini = 0.75\nsamples = 1290\nvalue = [384, 358, 332, 52, 164]"] ;
1 [label="X[1] <= 0.5\ngini = 0.689\nsamples = 359\nvalue = [120, 148, 18, 16, 57]"] ;
0 -> 1 [labeldistance=2.5, labelangle=45, headlabel="True"] ;
2 [label="X[0] <= 0.5\ngini = 0.627\nsamples = 134\nvalue = [73, 12, 8, 8, 33]"] ;
1 -> 2 ;
3 [label="gini = 0.76\nsamples = 63\nvalue = [22, 12, 8, 6, 15]"] ;
2 -> 3 ;
4 [label="X[4] <= 0.5\ngini = 0.419\nsamples = 71\nvalue = [51, 0, 0, 2, 18]"] ;
2 -> 4 ;
5 [label="gini = 0.0\nsamples = 1\nvalue = [1, 0, 0, 0, 0]"] ;
4 -> 5 ;
6 [label="gini = 0.423\nsamples = 70\nvalue = [50, 0, 0, 2, 18]"] ;
4 -> 6 ;
7 [label="X[0] <= 0.5\ngini = 0.576\nsamples = 225\nvalue = [47, 136, 10, 8, 24]"] ;
1 -> 7 ;
8 [label="X[3] <= 0.5\ngini = 0.317\nsamples = 110\nvalue = [6, 90, 2, 1, 11]"] ;
7 -> 8 ;
9 [label="gini = 0.32\nsamples = 109\nvalue = [6, 89, 2, 1, 11]"] ;
8 -> 9 ;
10 [label="gini = 0.0\nsamples = 1\nvalue = [0, 1, 0, 0, 0]"] ;
8 -> 10 ;
11 [label="X[3] <= 0.5\ngini = 0.692\nsamples = 115\nvalue = [41, 46, 8, 7, 13]"] ;
7 -> 11 ;
12 [label="gini = 0.694\nsamples = 111\nvalue = [37, 46, 8, 7, 13]"] ;
11 -> 12 ;
13 [label="gini = 0.0\nsamples = 4\nvalue = [4, 0, 0, 0, 0]"] ;
11 -> 13 ;
14 [label="X[1] <= 0.5\ngini = 0.74\nsamples = 931\nvalue = [264, 210, 314, 36, 107]"] ;
0 -> 14 [labeldistance=2.5, labelangle=-45, headlabel="False"] ;
15 [label="gini = 0.23\nsamples = 79\nvalue = [4, 0, 69, 1, 5]"] ;
14 -> 15 ;
16 [label="X[0] <= 0.5\ngini = 0.747\nsamples = 852\nvalue = [260, 210, 245, 35, 102]"] ;
14 -> 16 ;
17 [label="gini = 0.444\nsamples = 3\nvalue = [0, 0, 1, 0, 2]"] ;
16 -> 17 ;
18 [label="X[4] <= 0.5\ngini = 0.747\nsamples = 849\nvalue = [260, 210, 244, 35, 100]"] ;
16 -> 18 ;
19 [label="gini = 0.49\nsamples = 7\nvalue = [4, 0, 3, 0, 0]"] ;
18 -> 19 ;
20 [label="gini = 0.748\nsamples = 842\nvalue = [256, 210, 241, 35, 100]"] ;
18 -> 20 ;
}