digraph Tree {
node [shape=box] ;
0 [label="X[3] <= 0.5\ngini = 0.799\nsamples = 800\nvalue = [160, 171, 149, 146, 174]"] ;
1 [label="X[1] <= 0.5\ngini = 0.796\nsamples = 469\nvalue = [95, 111, 85, 75, 103]"] ;
0 -> 1 [labeldistance=2.5, labelangle=45, headlabel="True"] ;
2 [label="X[0] <= 0.5\ngini = 0.795\nsamples = 64\nvalue = [10, 11, 13, 15, 15]"] ;
1 -> 2 ;
3 [label="gini = 0.444\nsamples = 3\nvalue = [2, 0, 0, 0, 1]"] ;
2 -> 3 ;
4 [label="gini = 0.792\nsamples = 61\nvalue = [8, 11, 13, 15, 14]"] ;
2 -> 4 ;
5 [label="X[2] <= 0.5\ngini = 0.794\nsamples = 405\nvalue = [85, 100, 72, 60, 88]"] ;
1 -> 5 ;
6 [label="X[0] <= 0.5\ngini = 0.798\nsamples = 76\nvalue = [17, 15, 13, 15, 16]"] ;
5 -> 6 ;
7 [label="gini = 0.0\nsamples = 1\nvalue = [0, 1, 0, 0, 0]"] ;
6 -> 7 ;
8 [label="gini = 0.798\nsamples = 75\nvalue = [17, 14, 13, 15, 16]"] ;
6 -> 8 ;
9 [label="X[0] <= 0.5\ngini = 0.792\nsamples = 329\nvalue = [68, 85, 59, 45, 72]"] ;
5 -> 9 ;
10 [label="gini = 0.796\nsamples = 46\nvalue = [9, 11, 10, 9, 7]"] ;
9 -> 10 ;
11 [label="gini = 0.789\nsamples = 283\nvalue = [59, 74, 49, 36, 65]"] ;
9 -> 11 ;
12 [label="X[2] <= 0.5\ngini = 0.799\nsamples = 331\nvalue = [65, 60, 64, 71, 71]"] ;
0 -> 12 [labeldistance=2.5, labelangle=-45, headlabel="False"] ;
13 [label="X[0] <= 0.5\ngini = 0.781\nsamples = 38\nvalue = [9, 8, 5, 11, 5]"] ;
12 -> 13 ;
14 [label="gini = 0.0\nsamples = 1\nvalue = [1, 0, 0, 0, 0]"] ;
13 -> 14 ;
15 [label="gini = 0.782\nsamples = 37\nvalue = [8, 8, 5, 11, 5]"] ;
13 -> 15 ;
16 [label="X[1] <= 0.5\ngini = 0.799\nsamples = 293\nvalue = [56, 52, 59, 60, 66]"] ;
12 -> 16 ;
17 [label="X[0] <= 0.5\ngini = 0.791\nsamples = 44\nvalue = [11, 7, 7, 8, 11]"] ;
16 -> 17 ;
18 [label="gini = 0.0\nsamples = 1\nvalue = [0, 1, 0, 0, 0]"] ;
17 -> 18 ;
19 [label="gini = 0.789\nsamples = 43\nvalue = [11, 6, 7, 8, 11]"] ;
17 -> 19 ;
20 [label="X[0] <= 0.5\ngini = 0.799\nsamples = 249\nvalue = [45, 45, 52, 52, 55]"] ;
16 -> 20 ;
21 [label="gini = 0.797\nsamples = 25\nvalue = [5, 4, 5, 6, 5]"] ;
20 -> 21 ;
22 [label="gini = 0.799\nsamples = 224\nvalue = [40, 41, 47, 46, 50]"] ;
20 -> 22 ;
}