digraph Tree {
node [shape=box] ;
0 [label="X[2] <= 0.5\ngini = 0.717\nsamples = 4088\nvalue = [1166, 766, 1611, 142, 403]"] ;
1 [label="X[1] <= 0.5\ngini = 0.676\nsamples = 438\nvalue = [208, 118, 27, 26, 59]"] ;
0 -> 1 [labeldistance=2.5, labelangle=45, headlabel="True"] ;
2 [label="X[0] <= 0.5\ngini = 0.534\nsamples = 233\nvalue = [153, 12, 19, 15, 34]"] ;
1 -> 2 ;
3 [label="gini = 0.772\nsamples = 77\nvalue = [25, 10, 17, 9, 16]"] ;
2 -> 3 ;
4 [label="gini = 0.312\nsamples = 156\nvalue = [128, 2, 2, 6, 18]"] ;
2 -> 4 ;
5 [label="X[0] <= 0.5\ngini = 0.641\nsamples = 205\nvalue = [55, 106, 8, 11, 25]"] ;
1 -> 5 ;
6 [label="gini = 0.367\nsamples = 56\nvalue = [3, 44, 1, 2, 6]"] ;
5 -> 6 ;
7 [label="X[4] <= 0.5\ngini = 0.683\nsamples = 149\nvalue = [52, 62, 7, 9, 19]"] ;
5 -> 7 ;
8 [label="gini = 0.0\nsamples = 1\nvalue = [1, 0, 0, 0, 0]"] ;
7 -> 8 ;
9 [label="gini = 0.683\nsamples = 148\nvalue = [51, 62, 7, 9, 19]"] ;
7 -> 9 ;
10 [label="X[1] <= 0.5\ngini = 0.701\nsamples = 3650\nvalue = [958, 648, 1584, 116, 344]"] ;
0 -> 10 [labeldistance=2.5, labelangle=-45, headlabel="False"] ;
11 [label="X[4] <= 0.5\ngini = 0.059\nsamples = 295\nvalue = [0, 0, 286, 0, 9]"] ;
10 -> 11 ;
12 [label="gini = 0.0\nsamples = 2\nvalue = [0, 0, 2, 0, 0]"] ;
11 -> 12 ;
13 [label="gini = 0.06\nsamples = 293\nvalue = [0, 0, 284, 0, 9]"] ;
11 -> 13 ;
14 [label="X[3] <= 0.5\ngini = 0.72\nsamples = 3355\nvalue = [958, 648, 1298, 116, 335]"] ;
10 -> 14 ;
15 [label="X[0] <= 0.5\ngini = 0.72\nsamples = 3351\nvalue = [954, 648, 1298, 116, 335]"] ;
14 -> 15 ;
16 [label="gini = 0.0\nsamples = 1\nvalue = [0, 0, 1, 0, 0]"] ;
15 -> 16 ;
17 [label="gini = 0.72\nsamples = 3350\nvalue = [954, 648, 1297, 116, 335]"] ;
15 -> 17 ;
18 [label="gini = 0.0\nsamples = 4\nvalue = [4, 0, 0, 0, 0]"] ;
14 -> 18 ;
}