digraph Tree {
node [shape=box] ;
0 [label="X[3] <= 0.5\ngini = 0.592\nsamples = 9184\nvalue = [88, 4116, 4085, 895]"] ;
1 [label="X[0] <= 0.5\ngini = 0.592\nsamples = 8917\nvalue = [85, 4055, 3906, 871]"] ;
0 -> 1 [labeldistance=2.5, labelangle=45, headlabel="True"] ;
2 [label="gini = 0.602\nsamples = 3142\nvalue = [32, 1433, 1322, 355]"] ;
1 -> 2 ;
3 [label="gini = 0.586\nsamples = 5775\nvalue = [53, 2622, 2584, 516]"] ;
1 -> 3 ;
4 [label="gini = 0.49\nsamples = 267\nvalue = [3, 61, 179, 24]"] ;
0 -> 4 [labeldistance=2.5, labelangle=-45, headlabel="False"] ;
}