digraph Tree {
node [shape=box] ;
0 [label="X[3] <= 0.5\ngini = 0.592\nsamples = 30324\nvalue = [344, 13342, 13734, 2904]"] ;
1 [label="X[0] <= 0.5\ngini = 0.592\nsamples = 29491\nvalue = [341, 13208, 13110, 2832]"] ;
0 -> 1 [labeldistance=2.5, labelangle=45, headlabel="True"] ;
2 [label="gini = 0.6\nsamples = 10883\nvalue = [136, 4822, 4772, 1153]"] ;
1 -> 2 ;
3 [label="gini = 0.588\nsamples = 18608\nvalue = [205, 8386, 8338, 1679]"] ;
1 -> 3 ;
4 [label="gini = 0.405\nsamples = 833\nvalue = [3, 134, 624, 72]"] ;
0 -> 4 [labeldistance=2.5, labelangle=-45, headlabel="False"] ;
}