digraph Tree {
node [shape=box] ;
0 [label="X[2] <= 0.5\ngini = 0.744\nsamples = 1720\nvalue = [503, 509, 459, 81, 168]"] ;
1 [label="X[1] <= 0.5\ngini = 0.644\nsamples = 290\nvalue = [140, 96, 9, 21, 24]"] ;
0 -> 1 [labeldistance=2.5, labelangle=45, headlabel="True"] ;
2 [label="X[0] <= 0.5\ngini = 0.396\nsamples = 128\nvalue = [98, 2, 5, 10, 13]"] ;
1 -> 2 ;
3 [label="gini = 0.582\nsamples = 59\nvalue = [36, 2, 5, 9, 7]"] ;
2 -> 3 ;
4 [label="X[3] <= 0.5\ngini = 0.185\nsamples = 69\nvalue = [62, 0, 0, 1, 6]"] ;
2 -> 4 ;
5 [label="gini = 0.187\nsamples = 68\nvalue = [61, 0, 0, 1, 6]"] ;
4 -> 5 ;
6 [label="gini = 0.0\nsamples = 1\nvalue = [1, 0, 0, 0, 0]"] ;
4 -> 6 ;
7 [label="X[0] <= 0.5\ngini = 0.586\nsamples = 162\nvalue = [42, 94, 4, 11, 11]"] ;
1 -> 7 ;
8 [label="X[3] <= 0.5\ngini = 0.313\nsamples = 68\nvalue = [2, 56, 2, 4, 4]"] ;
7 -> 8 ;
9 [label="gini = 0.297\nsamples = 66\nvalue = [1, 55, 2, 4, 4]"] ;
8 -> 9 ;
10 [label="gini = 0.5\nsamples = 2\nvalue = [1, 1, 0, 0, 0]"] ;
8 -> 10 ;
11 [label="X[4] <= 0.5\ngini = 0.644\nsamples = 94\nvalue = [40, 38, 2, 7, 7]"] ;
7 -> 11 ;
12 [label="gini = 0.0\nsamples = 3\nvalue = [3, 0, 0, 0, 0]"] ;
11 -> 12 ;
13 [label="gini = 0.648\nsamples = 91\nvalue = [37, 38, 2, 7, 7]"] ;
11 -> 13 ;
14 [label="X[1] <= 0.5\ngini = 0.741\nsamples = 1430\nvalue = [363, 413, 450, 60, 144]"] ;
0 -> 14 [labeldistance=2.5, labelangle=-45, headlabel="False"] ;
15 [label="X[0] <= 0.5\ngini = 0.171\nsamples = 65\nvalue = [4, 0, 59, 0, 2]"] ;
14 -> 15 ;
16 [label="X[4] <= 0.5\ngini = 0.5\nsamples = 2\nvalue = [1, 0, 0, 0, 1]"] ;
15 -> 16 ;
17 [label="gini = 0.0\nsamples = 1\nvalue = [1, 0, 0, 0, 0]"] ;
16 -> 17 ;
18 [label="gini = 0.0\nsamples = 1\nvalue = [0, 0, 0, 0, 1]"] ;
16 -> 18 ;
19 [label="gini = 0.12\nsamples = 63\nvalue = [3, 0, 59, 0, 1]"] ;
15 -> 19 ;
20 [label="X[0] <= 0.5\ngini = 0.744\nsamples = 1365\nvalue = [359, 413, 391, 60, 142]"] ;
14 -> 20 ;
21 [label="gini = 0.0\nsamples = 2\nvalue = [0, 0, 2, 0, 0]"] ;
20 -> 21 ;
22 [label="X[3] <= 0.5\ngini = 0.745\nsamples = 1363\nvalue = [359, 413, 389, 60, 142]"] ;
20 -> 22 ;
23 [label="gini = 0.744\nsamples = 1357\nvalue = [357, 413, 387, 60, 140]"] ;
22 -> 23 ;
24 [label="gini = 0.667\nsamples = 6\nvalue = [2, 0, 2, 0, 2]"] ;
22 -> 24 ;
}