digraph Tree {
node [shape=box] ;
0 [label="X[1] <= 0.5\ngini = 0.636\nsamples = 12435\nvalue = [6814, 2412, 1372, 1433, 404]"] ;
1 [label="X[2] <= 0.5\ngini = 0.604\nsamples = 9382\nvalue = [5537, 1107, 1177, 1187, 374]"] ;
0 -> 1 [labeldistance=2.5, labelangle=45, headlabel="True"] ;
2 [label="X[0] <= 0.5\ngini = 0.536\nsamples = 6946\nvalue = [4556, 877, 499, 719, 295]"] ;
1 -> 2 ;
3 [label="gini = 0.31\nsamples = 1444\nvalue = [1192, 73, 77, 81, 21]"] ;
2 -> 3 ;
4 [label="X[3] <= 0.5\ngini = 0.583\nsamples = 5502\nvalue = [3364, 804, 422, 638, 274]"] ;
2 -> 4 ;
5 [label="gini = 0.583\nsamples = 5501\nvalue = [3363, 804, 422, 638, 274]"] ;
4 -> 5 ;
6 [label="gini = 0.0\nsamples = 1\nvalue = [1, 0, 0, 0, 0]"] ;
4 -> 6 ;
7 [label="X[0] <= 0.5\ngini = 0.713\nsamples = 2436\nvalue = [981, 230, 678, 468, 79]"] ;
1 -> 7 ;
8 [label="gini = 0.714\nsamples = 790\nvalue = [262, 101, 298, 102, 27]"] ;
7 -> 8 ;
9 [label="gini = 0.699\nsamples = 1646\nvalue = [719, 129, 380, 366, 52]"] ;
7 -> 9 ;
10 [label="X[2] <= 0.5\ngini = 0.632\nsamples = 3053\nvalue = [1277, 1305, 195, 246, 30]"] ;
0 -> 10 [labeldistance=2.5, labelangle=-45, headlabel="False"] ;
11 [label="X[0] <= 0.5\ngini = 0.63\nsamples = 2998\nvalue = [1237, 1305, 180, 246, 30]"] ;
10 -> 11 ;
12 [label="gini = 0.64\nsamples = 806\nvalue = [301, 365, 29, 94, 17]"] ;
11 -> 12 ;
13 [label="X[3] <= 0.5\ngini = 0.624\nsamples = 2192\nvalue = [936, 940, 151, 152, 13]"] ;
11 -> 13 ;
14 [label="gini = 0.624\nsamples = 2182\nvalue = [936, 933, 150, 150, 13]"] ;
13 -> 14 ;
15 [label="gini = 0.46\nsamples = 10\nvalue = [0, 7, 1, 2, 0]"] ;
13 -> 15 ;
16 [label="X[0] <= 0.5\ngini = 0.397\nsamples = 55\nvalue = [40, 0, 15, 0, 0]"] ;
10 -> 16 ;
17 [label="gini = 0.305\nsamples = 16\nvalue = [13, 0, 3, 0, 0]"] ;
16 -> 17 ;
18 [label="gini = 0.426\nsamples = 39\nvalue = [27, 0, 12, 0, 0]"] ;
16 -> 18 ;
}