digraph Tree {
node [shape=box] ;
0 [label="X[0] <= 0.5\ngini = 0.718\nsamples = 52684\nvalue = [9246, 8414, 9141, 2713, 23170]"] ;
1 [label="X[4] <= 0.5\ngini = 0.549\nsamples = 27064\nvalue = [2212, 3262, 3611, 615, 17364]"] ;
0 -> 1 [labeldistance=2.5, labelangle=45, headlabel="True"] ;
2 [label="X[1] <= 0.5\ngini = 0.535\nsamples = 25921\nvalue = [1985, 3051, 3368, 562, 16955]"] ;
1 -> 2 ;
3 [label="gini = 0.729\nsamples = 62\nvalue = [21, 15, 7, 18, 1]"] ;
2 -> 3 ;
4 [label="X[2] <= 0.5\ngini = 0.533\nsamples = 25859\nvalue = [1964, 3036, 3361, 544, 16954]"] ;
2 -> 4 ;
5 [label="gini = 0.533\nsamples = 25846\nvalue = [1964, 3036, 3361, 544, 16941]"] ;
4 -> 5 ;
6 [label="gini = 0.0\nsamples = 13\nvalue = [0, 0, 0, 0, 13]"] ;
4 -> 6 ;
7 [label="X[1] <= 0.5\ngini = 0.751\nsamples = 1143\nvalue = [227, 211, 243, 53, 409]"] ;
1 -> 7 ;
8 [label="gini = 0.669\nsamples = 325\nvalue = [50, 44, 57, 9, 165]"] ;
7 -> 8 ;
9 [label="gini = 0.768\nsamples = 818\nvalue = [177, 167, 186, 44, 244]"] ;
7 -> 9 ;
10 [label="X[2] <= 0.5\ngini = 0.78\nsamples = 25620\nvalue = [7034, 5152, 5530, 2098, 5806]"] ;
0 -> 10 [labeldistance=2.5, labelangle=-45, headlabel="False"] ;
11 [label="X[3] <= 0.5\ngini = 0.776\nsamples = 22974\nvalue = [6958, 4885, 3966, 2077, 5088]"] ;
10 -> 11 ;
12 [label="gini = 0.723\nsamples = 6108\nvalue = [2706, 924, 1050, 552, 876]"] ;
11 -> 12 ;
13 [label="gini = 0.781\nsamples = 16866\nvalue = [4252, 3961, 2916, 1525, 4212]"] ;
11 -> 13 ;
14 [label="X[3] <= 0.5\ngini = 0.566\nsamples = 2646\nvalue = [76, 267, 1564, 21, 718]"] ;
10 -> 14 ;
15 [label="X[1] <= 0.5\ngini = 0.742\nsamples = 60\nvalue = [10, 14, 12, 2, 22]"] ;
14 -> 15 ;
16 [label="gini = 0.739\nsamples = 56\nvalue = [10, 14, 11, 1, 20]"] ;
15 -> 16 ;
17 [label="gini = 0.625\nsamples = 4\nvalue = [0, 0, 1, 1, 2]"] ;
15 -> 17 ;
18 [label="X[1] <= 0.5\ngini = 0.557\nsamples = 2586\nvalue = [66, 253, 1552, 19, 696]"] ;
14 -> 18 ;
19 [label="gini = 0.53\nsamples = 332\nvalue = [8, 49, 215, 4, 56]"] ;
18 -> 19 ;
20 [label="gini = 0.559\nsamples = 2254\nvalue = [58, 204, 1337, 15, 640]"] ;
18 -> 20 ;
}