digraph Tree {
node [shape=box] ;
0 [label="X[1] <= 0.5\ngini = 0.639\nsamples = 7639\nvalue = [4172, 1449, 802, 914, 302]"] ;
1 [label="X[2] <= 0.5\ngini = 0.613\nsamples = 5834\nvalue = [3394, 686, 681, 791, 282]"] ;
0 -> 1 [labeldistance=2.5, labelangle=45, headlabel="True"] ;
2 [label="X[0] <= 0.5\ngini = 0.523\nsamples = 4244\nvalue = [2838, 472, 265, 454, 215]"] ;
1 -> 2 ;
3 [label="gini = 0.292\nsamples = 939\nvalue = [785, 78, 28, 31, 17]"] ;
2 -> 3 ;
4 [label="gini = 0.575\nsamples = 3305\nvalue = [2053, 394, 237, 423, 198]"] ;
2 -> 4 ;
5 [label="X[0] <= 0.5\ngini = 0.744\nsamples = 1590\nvalue = [556, 214, 416, 337, 67]"] ;
1 -> 5 ;
6 [label="X[3] <= 0.5\ngini = 0.743\nsamples = 793\nvalue = [253, 115, 254, 138, 33]"] ;
5 -> 6 ;
7 [label="gini = 0.742\nsamples = 792\nvalue = [253, 114, 254, 138, 33]"] ;
6 -> 7 ;
8 [label="gini = 0.0\nsamples = 1\nvalue = [0, 1, 0, 0, 0]"] ;
6 -> 8 ;
9 [label="X[4] <= 0.5\ngini = 0.735\nsamples = 797\nvalue = [303, 99, 162, 199, 34]"] ;
5 -> 9 ;
10 [label="gini = 0.0\nsamples = 1\nvalue = [1, 0, 0, 0, 0]"] ;
9 -> 10 ;
11 [label="gini = 0.735\nsamples = 796\nvalue = [302, 99, 162, 199, 34]"] ;
9 -> 11 ;
12 [label="X[2] <= 0.5\ngini = 0.626\nsamples = 1805\nvalue = [778, 763, 121, 123, 20]"] ;
0 -> 12 [labeldistance=2.5, labelangle=-45, headlabel="False"] ;
13 [label="X[4] <= 0.5\ngini = 0.619\nsamples = 1715\nvalue = [727, 754, 99, 115, 20]"] ;
12 -> 13 ;
14 [label="X[0] <= 0.5\ngini = 0.569\nsamples = 12\nvalue = [1, 5, 0, 6, 0]"] ;
13 -> 14 ;
15 [label="gini = 0.0\nsamples = 1\nvalue = [1, 0, 0, 0, 0]"] ;
14 -> 15 ;
16 [label="gini = 0.496\nsamples = 11\nvalue = [0, 5, 0, 6, 0]"] ;
14 -> 16 ;
17 [label="X[0] <= 0.5\ngini = 0.617\nsamples = 1703\nvalue = [726, 749, 99, 109, 20]"] ;
13 -> 17 ;
18 [label="gini = 0.651\nsamples = 380\nvalue = [138, 171, 16, 40, 15]"] ;
17 -> 18 ;
19 [label="gini = 0.605\nsamples = 1323\nvalue = [588, 578, 83, 69, 5]"] ;
17 -> 19 ;
20 [label="X[0] <= 0.5\ngini = 0.601\nsamples = 90\nvalue = [51, 9, 22, 8, 0]"] ;
12 -> 20 ;
21 [label="gini = 0.546\nsamples = 40\nvalue = [25, 2, 9, 4, 0]"] ;
20 -> 21 ;
22 [label="gini = 0.636\nsamples = 50\nvalue = [26, 7, 13, 4, 0]"] ;
20 -> 22 ;
}