digraph Tree {
node [shape=box] ;
0 [label="X[4] <= 0.5\ngini = 0.796\nsamples = 800\nvalue = [162, 126, 199, 158, 155]"] ;
1 [label="X[0] <= 0.5\ngini = 0.775\nsamples = 386\nvalue = [95, 63, 121, 64, 43]"] ;
0 -> 1 [labeldistance=2.5, labelangle=45, headlabel="True"] ;
2 [label="X[1] <= 0.5\ngini = 0.724\nsamples = 14\nvalue = [6, 2, 2, 3, 1]"] ;
1 -> 2 ;
3 [label="gini = 0.0\nsamples = 1\nvalue = [0, 1, 0, 0, 0]"] ;
2 -> 3 ;
4 [label="X[2] <= 0.5\ngini = 0.698\nsamples = 13\nvalue = [6, 1, 2, 3, 1]"] ;
2 -> 4 ;
5 [label="gini = 0.444\nsamples = 3\nvalue = [1, 0, 0, 2, 0]"] ;
4 -> 5 ;
6 [label="gini = 0.68\nsamples = 10\nvalue = [5, 1, 2, 1, 1]"] ;
4 -> 6 ;
7 [label="X[1] <= 0.5\ngini = 0.774\nsamples = 372\nvalue = [89, 61, 119, 61, 42]"] ;
1 -> 7 ;
8 [label="gini = 0.691\nsamples = 9\nvalue = [2, 1, 2, 4, 0]"] ;
7 -> 8 ;
9 [label="X[2] <= 0.5\ngini = 0.773\nsamples = 363\nvalue = [87, 60, 117, 57, 42]"] ;
7 -> 9 ;
10 [label="gini = 0.789\nsamples = 17\nvalue = [3, 4, 4, 2, 4]"] ;
9 -> 10 ;
11 [label="gini = 0.771\nsamples = 346\nvalue = [84, 56, 113, 55, 38]"] ;
9 -> 11 ;
12 [label="X[0] <= 0.5\ngini = 0.79\nsamples = 414\nvalue = [67, 63, 78, 94, 112]"] ;
0 -> 12 [labeldistance=2.5, labelangle=-45, headlabel="False"] ;
13 [label="X[2] <= 0.5\ngini = 0.604\nsamples = 26\nvalue = [1, 5, 15, 1, 4]"] ;
12 -> 13 ;
14 [label="gini = 0.625\nsamples = 4\nvalue = [0, 2, 1, 0, 1]"] ;
13 -> 14 ;
15 [label="gini = 0.554\nsamples = 22\nvalue = [1, 3, 14, 1, 3]"] ;
13 -> 15 ;
16 [label="X[2] <= 0.5\ngini = 0.787\nsamples = 388\nvalue = [66, 58, 63, 93, 108]"] ;
12 -> 16 ;
17 [label="gini = 0.76\nsamples = 32\nvalue = [8, 4, 9, 9, 2]"] ;
16 -> 17 ;
18 [label="X[1] <= 0.5\ngini = 0.783\nsamples = 356\nvalue = [58, 54, 54, 84, 106]"] ;
16 -> 18 ;
19 [label="gini = 0.771\nsamples = 21\nvalue = [4, 3, 6, 6, 2]"] ;
18 -> 19 ;
20 [label="gini = 0.78\nsamples = 335\nvalue = [54, 51, 48, 78, 104]"] ;
18 -> 20 ;
}