digraph Tree {
node [shape=box] ;
0 [label="X[1] <= 0.5\ngini = 0.546\nsamples = 14144\nvalue = [9063, 2444, 1235, 1040, 362]"] ;
1 [label="X[2] <= 0.5\ngini = 0.481\nsamples = 10432\nvalue = [7338, 950, 930, 884, 330]"] ;
0 -> 1 [labeldistance=2.5, labelangle=45, headlabel="True"] ;
2 [label="X[0] <= 0.5\ngini = 0.369\nsamples = 8120\nvalue = [6380, 703, 299, 480, 258]"] ;
1 -> 2 ;
3 [label="gini = 0.146\nsamples = 2268\nvalue = [2094, 52, 58, 47, 17]"] ;
2 -> 3 ;
4 [label="X[4] <= 0.5\ngini = 0.442\nsamples = 5852\nvalue = [4286, 651, 241, 433, 241]"] ;
2 -> 4 ;
5 [label="gini = 0.0\nsamples = 2\nvalue = [2, 0, 0, 0, 0]"] ;
4 -> 5 ;
6 [label="gini = 0.442\nsamples = 5850\nvalue = [4284, 651, 241, 433, 241]"] ;
4 -> 6 ;
7 [label="X[0] <= 0.5\ngini = 0.711\nsamples = 2312\nvalue = [958, 247, 631, 404, 72]"] ;
1 -> 7 ;
8 [label="gini = 0.696\nsamples = 904\nvalue = [300, 130, 363, 97, 14]"] ;
7 -> 8 ;
9 [label="gini = 0.689\nsamples = 1408\nvalue = [658, 117, 268, 307, 58]"] ;
7 -> 9 ;
10 [label="X[2] <= 0.5\ngini = 0.613\nsamples = 3712\nvalue = [1725, 1494, 305, 156, 32]"] ;
0 -> 10 [labeldistance=2.5, labelangle=-45, headlabel="False"] ;
11 [label="X[3] <= 0.5\ngini = 0.606\nsamples = 3331\nvalue = [1438, 1494, 216, 152, 31]"] ;
10 -> 11 ;
12 [label="X[0] <= 0.5\ngini = 0.604\nsamples = 3313\nvalue = [1438, 1486, 215, 144, 30]"] ;
11 -> 12 ;
13 [label="gini = 0.618\nsamples = 1181\nvalue = [458, 559, 61, 83, 20]"] ;
12 -> 13 ;
14 [label="gini = 0.594\nsamples = 2132\nvalue = [980, 927, 154, 61, 10]"] ;
12 -> 14 ;
15 [label="gini = 0.599\nsamples = 18\nvalue = [0, 8, 1, 8, 1]"] ;
11 -> 15 ;
16 [label="X[0] <= 0.5\ngini = 0.378\nsamples = 381\nvalue = [287, 0, 89, 4, 1]"] ;
10 -> 16 ;
17 [label="gini = 0.394\nsamples = 65\nvalue = [48, 0, 16, 0, 1]"] ;
16 -> 17 ;
18 [label="gini = 0.374\nsamples = 316\nvalue = [239, 0, 73, 4, 0]"] ;
16 -> 18 ;
}