digraph Tree {
node [shape=box] ;
0 [label="X[3] <= 0.5\ngini = 0.215\nsamples = 36840\nvalue = [1665, 2420, 32509, 246]"] ;
1 [label="X[0] <= 0.5\ngini = 0.215\nsamples = 33587\nvalue = [1510, 2216, 29636, 225]"] ;
0 -> 1 [labeldistance=2.5, labelangle=45, headlabel="True"] ;
2 [label="gini = 0.215\nsamples = 7550\nvalue = [336, 504, 6663, 47]"] ;
1 -> 2 ;
3 [label="gini = 0.215\nsamples = 26037\nvalue = [1174, 1712, 22973, 178]"] ;
1 -> 3 ;
4 [label="gini = 0.214\nsamples = 3253\nvalue = [155, 204, 2873, 21]"] ;
0 -> 4 [labeldistance=2.5, labelangle=-45, headlabel="False"] ;
}