digraph Tree {
node [shape=box] ;
0 [label="X[3] <= 0.5\ngini = 0.215\nsamples = 3710\nvalue = [179, 243, 3273, 15]"] ;
1 [label="X[0] <= 0.5\ngini = 0.211\nsamples = 3478\nvalue = [153, 233, 3077, 15]"] ;
0 -> 1 [labeldistance=2.5, labelangle=45, headlabel="True"] ;
2 [label="gini = 0.212\nsamples = 784\nvalue = [38, 52, 693, 1]"] ;
1 -> 2 ;
3 [label="gini = 0.211\nsamples = 2694\nvalue = [115, 181, 2384, 14]"] ;
1 -> 3 ;
4 [label="gini = 0.272\nsamples = 232\nvalue = [26, 10, 196, 0]"] ;
0 -> 4 [labeldistance=2.5, labelangle=-45, headlabel="False"] ;
}