digraph Tree {
node [shape=box] ;
0 [label="X[2] <= 0.5\ngini = 0.618\nsamples = 27892\nvalue = [16044, 4155, 2967, 3479, 1247]"] ;
1 [label="X[1] <= 0.5\ngini = 0.577\nsamples = 22276\nvalue = [13655, 3931, 1416, 2226, 1048]"] ;
0 -> 1 [labeldistance=2.5, labelangle=45, headlabel="True"] ;
2 [label="X[0] <= 0.5\ngini = 0.528\nsamples = 17792\nvalue = [11811, 2101, 1115, 1787, 978]"] ;
1 -> 2 ;
3 [label="gini = 0.339\nsamples = 4163\nvalue = [3354, 136, 350, 230, 93]"] ;
2 -> 3 ;
4 [label="X[3] <= 0.5\ngini = 0.574\nsamples = 13629\nvalue = [8457, 1965, 765, 1557, 885]"] ;
2 -> 4 ;
5 [label="gini = 0.574\nsamples = 13626\nvalue = [8454, 1965, 765, 1557, 885]"] ;
4 -> 5 ;
6 [label="gini = 0.0\nsamples = 3\nvalue = [3, 0, 0, 0, 0]"] ;
4 -> 6 ;
7 [label="X[0] <= 0.5\ngini = 0.65\nsamples = 4484\nvalue = [1844, 1830, 301, 439, 70]"] ;
1 -> 7 ;
8 [label="gini = 0.642\nsamples = 3571\nvalue = [1555, 1402, 168, 382, 64]"] ;
7 -> 8 ;
9 [label="X[3] <= 0.5\ngini = 0.655\nsamples = 913\nvalue = [289, 428, 133, 57, 6]"] ;
7 -> 9 ;
10 [label="gini = 0.65\nsamples = 895\nvalue = [289, 421, 132, 48, 5]"] ;
9 -> 10 ;
11 [label="gini = 0.593\nsamples = 18\nvalue = [0, 7, 1, 9, 1]"] ;
9 -> 11 ;
12 [label="X[1] <= 0.5\ngini = 0.69\nsamples = 5616\nvalue = [2389, 224, 1551, 1253, 199]"] ;
0 -> 12 [labeldistance=2.5, labelangle=-45, headlabel="False"] ;
13 [label="X[0] <= 0.5\ngini = 0.709\nsamples = 4422\nvalue = [1743, 221, 1041, 1219, 198]"] ;
12 -> 13 ;
14 [label="gini = 0.609\nsamples = 235\nvalue = [52, 14, 133, 31, 5]"] ;
13 -> 14 ;
15 [label="gini = 0.705\nsamples = 4187\nvalue = [1691, 207, 908, 1188, 193]"] ;
13 -> 15 ;
16 [label="X[3] <= 0.5\ngini = 0.524\nsamples = 1194\nvalue = [646, 3, 510, 34, 1]"] ;
12 -> 16 ;
17 [label="X[0] <= 0.5\ngini = 0.523\nsamples = 1193\nvalue = [646, 2, 510, 34, 1]"] ;
16 -> 17 ;
18 [label="gini = 0.525\nsamples = 458\nvalue = [258, 1, 181, 17, 1]"] ;
17 -> 18 ;
19 [label="gini = 0.52\nsamples = 735\nvalue = [388, 1, 329, 17, 0]"] ;
17 -> 19 ;
20 [label="gini = 0.0\nsamples = 1\nvalue = [0, 1, 0, 0, 0]"] ;
16 -> 20 ;
}