digraph Tree {
node [shape=box] ;
0 [label="X[3] <= 0.5\ngini = 0.691\nsamples = 800\nvalue = [224, 142, 75, 349, 10]"] ;
1 [label="X[2] <= 0.5\ngini = 0.706\nsamples = 422\nvalue = [176, 68, 50, 119, 9]"] ;
0 -> 1 [labeldistance=2.5, labelangle=45, headlabel="True"] ;
2 [label="X[0] <= 0.5\ngini = 0.522\nsamples = 103\nvalue = [68, 15, 0, 13, 7]"] ;
1 -> 2 ;
3 [label="gini = 0.625\nsamples = 4\nvalue = [1, 2, 0, 0, 1]"] ;
2 -> 3 ;
4 [label="gini = 0.504\nsamples = 99\nvalue = [67, 13, 0, 13, 6]"] ;
2 -> 4 ;
5 [label="X[0] <= 0.5\ngini = 0.723\nsamples = 319\nvalue = [108, 53, 50, 106, 2]"] ;
1 -> 5 ;
6 [label="gini = 0.659\nsamples = 29\nvalue = [6, 13, 9, 1, 0]"] ;
5 -> 6 ;
7 [label="X[1] <= 0.5\ngini = 0.706\nsamples = 290\nvalue = [102, 40, 41, 105, 2]"] ;
5 -> 7 ;
8 [label="gini = 0.645\nsamples = 22\nvalue = [1, 5, 11, 5, 0]"] ;
7 -> 8 ;
9 [label="gini = 0.689\nsamples = 268\nvalue = [101, 35, 30, 100, 2]"] ;
7 -> 9 ;
10 [label="X[0] <= 0.5\ngini = 0.571\nsamples = 378\nvalue = [48, 74, 25, 230, 1]"] ;
0 -> 10 [labeldistance=2.5, labelangle=-45, headlabel="False"] ;
11 [label="X[1] <= 0.5\ngini = 0.693\nsamples = 43\nvalue = [7, 18, 5, 13, 0]"] ;
10 -> 11 ;
12 [label="gini = 0.0\nsamples = 1\nvalue = [1, 0, 0, 0, 0]"] ;
11 -> 12 ;
13 [label="X[2] <= 0.5\ngini = 0.686\nsamples = 42\nvalue = [6, 18, 5, 13, 0]"] ;
11 -> 13 ;
14 [label="gini = 0.578\nsamples = 16\nvalue = [1, 9, 1, 5, 0]"] ;
13 -> 14 ;
15 [label="gini = 0.725\nsamples = 26\nvalue = [5, 9, 4, 8, 0]"] ;
13 -> 15 ;
16 [label="X[1] <= 0.5\ngini = 0.534\nsamples = 335\nvalue = [41, 56, 20, 217, 1]"] ;
10 -> 16 ;
17 [label="gini = 0.648\nsamples = 19\nvalue = [6, 1, 3, 9, 0]"] ;
16 -> 17 ;
18 [label="X[2] <= 0.5\ngini = 0.521\nsamples = 316\nvalue = [35, 55, 17, 208, 1]"] ;
16 -> 18 ;
19 [label="gini = 0.471\nsamples = 152\nvalue = [14, 28, 3, 106, 1]"] ;
18 -> 19 ;
20 [label="gini = 0.562\nsamples = 164\nvalue = [21, 27, 14, 102, 0]"] ;
18 -> 20 ;
}