digraph Tree {
node [shape=box] ;
0 [label="X[0] <= 0.5\ngini = 0.792\nsamples = 2400\nvalue = [388, 636, 410, 551, 415]"] ;
1 [label="X[3] <= 0.5\ngini = 0.776\nsamples = 618\nvalue = [103, 190, 93, 156, 76]"] ;
0 -> 1 [labeldistance=2.5, labelangle=45, headlabel="True"] ;
2 [label="X[2] <= 0.5\ngini = 0.778\nsamples = 343\nvalue = [58, 112, 49, 70, 54]"] ;
1 -> 2 ;
3 [label="X[1] <= 0.5\ngini = 0.762\nsamples = 90\nvalue = [14, 32, 9, 15, 20]"] ;
2 -> 3 ;
4 [label="gini = 0.76\nsamples = 23\nvalue = [7, 3, 2, 4, 7]"] ;
3 -> 4 ;
5 [label="gini = 0.726\nsamples = 67\nvalue = [7, 29, 7, 11, 13]"] ;
3 -> 5 ;
6 [label="X[1] <= 0.5\ngini = 0.779\nsamples = 253\nvalue = [44, 80, 40, 55, 34]"] ;
2 -> 6 ;
7 [label="gini = 0.774\nsamples = 57\nvalue = [12, 19, 9, 10, 7]"] ;
6 -> 7 ;
8 [label="gini = 0.78\nsamples = 196\nvalue = [32, 61, 31, 45, 27]"] ;
6 -> 8 ;
9 [label="X[1] <= 0.5\ngini = 0.763\nsamples = 275\nvalue = [45, 78, 44, 86, 22]"] ;
1 -> 9 ;
10 [label="X[2] <= 0.5\ngini = 0.724\nsamples = 87\nvalue = [11, 23, 14, 35, 4]"] ;
9 -> 10 ;
11 [label="gini = 0.708\nsamples = 24\nvalue = [2, 8, 6, 8, 0]"] ;
10 -> 11 ;
12 [label="gini = 0.719\nsamples = 63\nvalue = [9, 15, 8, 27, 4]"] ;
10 -> 12 ;
13 [label="X[2] <= 0.5\ngini = 0.773\nsamples = 188\nvalue = [34, 55, 30, 51, 18]"] ;
9 -> 13 ;
14 [label="gini = 0.754\nsamples = 57\nvalue = [18, 11, 7, 17, 4]"] ;
13 -> 14 ;
15 [label="gini = 0.763\nsamples = 131\nvalue = [16, 44, 23, 34, 14]"] ;
13 -> 15 ;
16 [label="X[2] <= 0.5\ngini = 0.795\nsamples = 1782\nvalue = [285, 446, 317, 395, 339]"] ;
0 -> 16 [labeldistance=2.5, labelangle=-45, headlabel="False"] ;
17 [label="X[4] <= 0.5\ngini = 0.797\nsamples = 486\nvalue = [96, 108, 99, 108, 75]"] ;
16 -> 17 ;
18 [label="X[1] <= 0.5\ngini = 0.793\nsamples = 202\nvalue = [31, 47, 43, 49, 32]"] ;
17 -> 18 ;
19 [label="gini = 0.784\nsamples = 18\nvalue = [3, 2, 5, 4, 4]"] ;
18 -> 19 ;
20 [label="gini = 0.791\nsamples = 184\nvalue = [28, 45, 38, 45, 28]"] ;
18 -> 20 ;
21 [label="X[1] <= 0.5\ngini = 0.797\nsamples = 284\nvalue = [65, 61, 56, 59, 43]"] ;
17 -> 21 ;
22 [label="gini = 0.772\nsamples = 47\nvalue = [12, 13, 10, 9, 3]"] ;
21 -> 22 ;
23 [label="gini = 0.798\nsamples = 237\nvalue = [53, 48, 46, 50, 40]"] ;
21 -> 23 ;
24 [label="X[1] <= 0.5\ngini = 0.792\nsamples = 1296\nvalue = [189, 338, 218, 287, 264]"] ;
16 -> 24 ;
25 [label="X[4] <= 0.5\ngini = 0.785\nsamples = 421\nvalue = [57, 108, 58, 108, 90]"] ;
24 -> 25 ;
26 [label="gini = 0.777\nsamples = 222\nvalue = [24, 59, 28, 56, 55]"] ;
25 -> 26 ;
27 [label="gini = 0.79\nsamples = 199\nvalue = [33, 49, 30, 52, 35]"] ;
25 -> 27 ;
28 [label="X[4] <= 0.5\ngini = 0.793\nsamples = 875\nvalue = [132, 230, 160, 179, 174]"] ;
24 -> 28 ;
29 [label="gini = 0.795\nsamples = 497\nvalue = [80, 124, 88, 100, 105]"] ;
28 -> 29 ;
30 [label="gini = 0.789\nsamples = 378\nvalue = [52, 106, 72, 79, 69]"] ;
28 -> 30 ;
}