digraph Tree {
node [shape=box] ;
0 [label="X[1] <= 0.5\ngini = 0.799\nsamples = 800\nvalue = [137, 169, 174, 167, 153]"] ;
1 [label="X[0] <= 0.5\ngini = 0.792\nsamples = 113\nvalue = [14, 26, 26, 25, 22]"] ;
0 -> 1 [labeldistance=2.5, labelangle=45, headlabel="True"] ;
2 [label="X[4] <= 0.5\ngini = 0.746\nsamples = 13\nvalue = [2, 3, 2, 5, 1]"] ;
1 -> 2 ;
3 [label="gini = 0.5\nsamples = 2\nvalue = [1, 0, 1, 0, 0]"] ;
2 -> 3 ;
4 [label="gini = 0.694\nsamples = 11\nvalue = [1, 3, 1, 5, 1]"] ;
2 -> 4 ;
5 [label="X[3] <= 0.5\ngini = 0.791\nsamples = 100\nvalue = [12, 23, 24, 20, 21]"] ;
1 -> 5 ;
6 [label="gini = 0.793\nsamples = 46\nvalue = [6, 9, 10, 11, 10]"] ;
5 -> 6 ;
7 [label="gini = 0.784\nsamples = 54\nvalue = [6, 14, 14, 9, 11]"] ;
5 -> 7 ;
8 [label="X[0] <= 0.5\ngini = 0.799\nsamples = 687\nvalue = [123, 143, 148, 142, 131]"] ;
0 -> 8 [labeldistance=2.5, labelangle=-45, headlabel="False"] ;
9 [label="X[4] <= 0.5\ngini = 0.792\nsamples = 113\nvalue = [18, 22, 30, 18, 25]"] ;
8 -> 9 ;
10 [label="X[2] <= 0.5\ngini = 0.797\nsamples = 63\nvalue = [11, 12, 14, 11, 15]"] ;
9 -> 10 ;
11 [label="gini = 0.667\nsamples = 3\nvalue = [1, 1, 0, 0, 1]"] ;
10 -> 11 ;
12 [label="gini = 0.796\nsamples = 60\nvalue = [10, 11, 14, 11, 14]"] ;
10 -> 12 ;
13 [label="X[2] <= 0.5\ngini = 0.778\nsamples = 50\nvalue = [7, 10, 16, 7, 10]"] ;
9 -> 13 ;
14 [label="gini = 0.76\nsamples = 10\nvalue = [2, 1, 3, 3, 1]"] ;
13 -> 14 ;
15 [label="gini = 0.768\nsamples = 40\nvalue = [5, 9, 13, 4, 9]"] ;
13 -> 15 ;
16 [label="X[2] <= 0.5\ngini = 0.799\nsamples = 574\nvalue = [105, 121, 118, 124, 106]"] ;
8 -> 16 ;
17 [label="X[4] <= 0.5\ngini = 0.793\nsamples = 97\nvalue = [15, 26, 18, 20, 18]"] ;
16 -> 17 ;
18 [label="gini = 0.79\nsamples = 46\nvalue = [7, 13, 8, 9, 9]"] ;
17 -> 18 ;
19 [label="gini = 0.794\nsamples = 51\nvalue = [8, 13, 10, 11, 9]"] ;
17 -> 19 ;
20 [label="X[4] <= 0.5\ngini = 0.799\nsamples = 477\nvalue = [90, 95, 100, 104, 88]"] ;
16 -> 20 ;
21 [label="gini = 0.798\nsamples = 213\nvalue = [40, 45, 38, 50, 40]"] ;
20 -> 21 ;
22 [label="gini = 0.798\nsamples = 264\nvalue = [50, 50, 62, 54, 48]"] ;
20 -> 22 ;
}