digraph Tree {
node [shape=box] ;
0 [label="X[3] <= 0.5\ngini = 0.719\nsamples = 800\nvalue = [289, 139, 96, 260, 16]"] ;
1 [label="X[0] <= 0.5\ngini = 0.622\nsamples = 431\nvalue = [244, 73, 54, 49, 11]"] ;
0 -> 1 [labeldistance=2.5, labelangle=45, headlabel="True"] ;
2 [label="X[1] <= 0.5\ngini = 0.706\nsamples = 38\nvalue = [9, 17, 6, 3, 3]"] ;
1 -> 2 ;
3 [label="gini = 0.375\nsamples = 4\nvalue = [3, 0, 0, 0, 1]"] ;
2 -> 3 ;
4 [label="X[2] <= 0.5\ngini = 0.676\nsamples = 34\nvalue = [6, 17, 6, 3, 2]"] ;
2 -> 4 ;
5 [label="gini = 0.755\nsamples = 14\nvalue = [5, 3, 1, 3, 2]"] ;
4 -> 5 ;
6 [label="gini = 0.445\nsamples = 20\nvalue = [1, 14, 5, 0, 0]"] ;
4 -> 6 ;
7 [label="X[1] <= 0.5\ngini = 0.593\nsamples = 393\nvalue = [235, 56, 48, 46, 8]"] ;
1 -> 7 ;
8 [label="gini = 0.626\nsamples = 27\nvalue = [8, 3, 14, 2, 0]"] ;
7 -> 8 ;
9 [label="X[2] <= 0.5\ngini = 0.571\nsamples = 366\nvalue = [227, 53, 34, 44, 8]"] ;
7 -> 9 ;
10 [label="gini = 0.507\nsamples = 171\nvalue = [115, 22, 4, 26, 4]"] ;
9 -> 10 ;
11 [label="gini = 0.612\nsamples = 195\nvalue = [112, 31, 30, 18, 4]"] ;
9 -> 11 ;
12 [label="X[0] <= 0.5\ngini = 0.613\nsamples = 369\nvalue = [45, 66, 42, 211, 5]"] ;
0 -> 12 [labeldistance=2.5, labelangle=-45, headlabel="False"] ;
13 [label="X[1] <= 0.5\ngini = 0.724\nsamples = 65\nvalue = [18, 15, 6, 24, 2]"] ;
12 -> 13 ;
14 [label="gini = 0.494\nsamples = 9\nvalue = [6, 0, 0, 2, 1]"] ;
13 -> 14 ;
15 [label="X[2] <= 0.5\ngini = 0.716\nsamples = 56\nvalue = [12, 15, 6, 22, 1]"] ;
13 -> 15 ;
16 [label="gini = 0.719\nsamples = 26\nvalue = [4, 8, 3, 10, 1]"] ;
15 -> 16 ;
17 [label="gini = 0.704\nsamples = 30\nvalue = [8, 7, 3, 12, 0]"] ;
15 -> 17 ;
18 [label="X[2] <= 0.5\ngini = 0.571\nsamples = 304\nvalue = [27, 51, 36, 187, 3]"] ;
12 -> 18 ;
19 [label="gini = 0.522\nsamples = 116\nvalue = [9, 23, 7, 76, 1]"] ;
18 -> 19 ;
20 [label="X[1] <= 0.5\ngini = 0.596\nsamples = 188\nvalue = [18, 28, 29, 111, 2]"] ;
18 -> 20 ;
21 [label="gini = 0.719\nsamples = 16\nvalue = [2, 3, 3, 7, 1]"] ;
20 -> 21 ;
22 [label="gini = 0.582\nsamples = 172\nvalue = [16, 25, 26, 104, 1]"] ;
20 -> 22 ;
}