digraph Tree {
node [shape=box] ;
0 [label="X[2] <= 0.5\ngini = 0.7\nsamples = 35364\nvalue = [16884, 5877, 5183, 4378, 3042]"] ;
1 [label="X[4] <= 0.5\ngini = 0.609\nsamples = 18740\nvalue = [11000, 1494, 1364, 2186, 2696]"] ;
0 -> 1 [labeldistance=2.5, labelangle=45, headlabel="True"] ;
2 [label="X[0] <= 0.5\ngini = 0.681\nsamples = 6890\nvalue = [2799, 498, 391, 656, 2546]"] ;
1 -> 2 ;
3 [label="gini = 0.685\nsamples = 18\nvalue = [6, 7, 1, 4, 0]"] ;
2 -> 3 ;
4 [label="gini = 0.68\nsamples = 6872\nvalue = [2793, 491, 390, 652, 2546]"] ;
2 -> 4 ;
5 [label="X[0] <= 0.5\ngini = 0.49\nsamples = 11850\nvalue = [8201, 996, 973, 1530, 150]"] ;
1 -> 5 ;
6 [label="gini = 0.688\nsamples = 2599\nvalue = [1225, 482, 434, 427, 31]"] ;
5 -> 6 ;
7 [label="gini = 0.41\nsamples = 9251\nvalue = [6976, 514, 539, 1103, 119]"] ;
5 -> 7 ;
8 [label="X[4] <= 0.5\ngini = 0.735\nsamples = 16624\nvalue = [5884, 4383, 3819, 2192, 346]"] ;
0 -> 8 [labeldistance=2.5, labelangle=-45, headlabel="False"] ;
9 [label="X[0] <= 0.5\ngini = 0.738\nsamples = 5679\nvalue = [1501, 1894, 1456, 692, 136]"] ;
8 -> 9 ;
10 [label="X[1] <= 0.5\ngini = 0.715\nsamples = 1804\nvalue = [659, 610, 246, 245, 44]"] ;
9 -> 10 ;
11 [label="gini = 0.705\nsamples = 346\nvalue = [129, 100, 24, 90, 3]"] ;
10 -> 11 ;
12 [label="gini = 0.71\nsamples = 1458\nvalue = [530, 510, 222, 155, 41]"] ;
10 -> 12 ;
13 [label="X[1] <= 0.5\ngini = 0.732\nsamples = 3875\nvalue = [842, 1284, 1210, 447, 92]"] ;
9 -> 13 ;
14 [label="gini = 0.736\nsamples = 2736\nvalue = [651, 888, 801, 340, 56]"] ;
13 -> 14 ;
15 [label="gini = 0.712\nsamples = 1139\nvalue = [191, 396, 409, 107, 36]"] ;
13 -> 15 ;
16 [label="X[1] <= 0.5\ngini = 0.722\nsamples = 10945\nvalue = [4383, 2489, 2363, 1500, 210]"] ;
8 -> 16 ;
17 [label="X[0] <= 0.5\ngini = 0.721\nsamples = 10030\nvalue = [4041, 2239, 2191, 1384, 175]"] ;
16 -> 17 ;
18 [label="gini = 0.669\nsamples = 60\nvalue = [30, 9, 8, 12, 1]"] ;
17 -> 18 ;
19 [label="gini = 0.721\nsamples = 9970\nvalue = [4011, 2230, 2183, 1372, 174]"] ;
17 -> 19 ;
20 [label="X[0] <= 0.5\ngini = 0.733\nsamples = 915\nvalue = [342, 250, 172, 116, 35]"] ;
16 -> 20 ;
21 [label="gini = 0.672\nsamples = 31\nvalue = [5, 7, 4, 0, 15]"] ;
20 -> 21 ;
22 [label="gini = 0.725\nsamples = 884\nvalue = [337, 243, 168, 116, 20]"] ;
20 -> 22 ;
}