digraph Tree {
node [shape=box] ;
0 [label="X[1] <= 0.5\ngini = 0.65\nsamples = 25902\nvalue = [67, 8407, 303, 193, 482, 117, 4285, 12048]"] ;
1 [label="X[2] <= 0.5\ngini = 0.645\nsamples = 3909\nvalue = [7, 1176, 46, 33, 65, 24, 664, 1894]"] ;
0 -> 1 [labeldistance=2.5, labelangle=45, headlabel="True"] ;
2 [label="X[3] <= 0.5\ngini = 0.66\nsamples = 1019\nvalue = [2, 323, 17, 6, 20, 5, 183, 463]"] ;
1 -> 2 ;
3 [label="X[0] <= 0.5\ngini = 0.661\nsamples = 1007\nvalue = [2, 322, 17, 6, 20, 5, 180, 455]"] ;
2 -> 3 ;
4 [label="gini = 0.659\nsamples = 609\nvalue = [1, 191, 10, 3, 9, 2, 117, 276]"] ;
3 -> 4 ;
5 [label="gini = 0.663\nsamples = 398\nvalue = [1, 131, 7, 3, 11, 3, 63, 179]"] ;
3 -> 5 ;
6 [label="gini = 0.486\nsamples = 12\nvalue = [0, 1, 0, 0, 0, 0, 3, 8]"] ;
2 -> 6 ;
7 [label="X[0] <= 0.5\ngini = 0.64\nsamples = 2890\nvalue = [5, 853, 29, 27, 45, 19, 481, 1431]"] ;
1 -> 7 ;
8 [label="X[5] <= 0.5\ngini = 0.648\nsamples = 1347\nvalue = [2, 383, 16, 12, 22, 11, 245, 656]"] ;
7 -> 8 ;
9 [label="gini = 0.648\nsamples = 1230\nvalue = [2, 349, 16, 10, 21, 8, 224, 600]"] ;
8 -> 9 ;
10 [label="gini = 0.653\nsamples = 117\nvalue = [0, 34, 0, 2, 1, 3, 21, 56]"] ;
8 -> 10 ;
11 [label="X[3] <= 0.5\ngini = 0.631\nsamples = 1543\nvalue = [3, 470, 13, 15, 23, 8, 236, 775]"] ;
7 -> 11 ;
12 [label="X[5] <= 0.5\ngini = 0.631\nsamples = 1490\nvalue = [3, 448, 13, 15, 23, 8, 229, 751]"] ;
11 -> 12 ;
13 [label="gini = 0.63\nsamples = 1200\nvalue = [3, 353, 9, 12, 17, 7, 190, 609]"] ;
12 -> 13 ;
14 [label="gini = 0.634\nsamples = 290\nvalue = [0, 95, 4, 3, 6, 1, 39, 142]"] ;
12 -> 14 ;
15 [label="X[5] <= 0.5\ngini = 0.605\nsamples = 53\nvalue = [0, 22, 0, 0, 0, 0, 7, 24]"] ;
11 -> 15 ;
16 [label="gini = 0.596\nsamples = 46\nvalue = [0, 17, 0, 0, 0, 0, 6, 23]"] ;
15 -> 16 ;
17 [label="gini = 0.449\nsamples = 7\nvalue = [0, 5, 0, 0, 0, 0, 1, 1]"] ;
15 -> 17 ;
18 [label="X[2] <= 0.5\ngini = 0.651\nsamples = 21993\nvalue = [60, 7231, 257, 160, 417, 93, 3621, 10154]"] ;
0 -> 18 [labeldistance=2.5, labelangle=-45, headlabel="False"] ;
19 [label="X[4] <= 0.5\ngini = 0.652\nsamples = 3799\nvalue = [6, 1296, 46, 24, 56, 22, 638, 1711]"] ;
18 -> 19 ;
20 [label="X[0] <= 0.5\ngini = 0.654\nsamples = 2963\nvalue = [3, 996, 42, 22, 45, 20, 496, 1339]"] ;
19 -> 20 ;
21 [label="gini = 0.662\nsamples = 1334\nvalue = [0, 466, 21, 9, 25, 12, 224, 577]"] ;
20 -> 21 ;
22 [label="X[3] <= 0.5\ngini = 0.647\nsamples = 1629\nvalue = [3, 530, 21, 13, 20, 8, 272, 762]"] ;
20 -> 22 ;
23 [label="gini = 0.648\nsamples = 1473\nvalue = [3, 471, 20, 13, 17, 8, 249, 692]"] ;
22 -> 23 ;
24 [label="gini = 0.633\nsamples = 156\nvalue = [0, 59, 1, 0, 3, 0, 23, 70]"] ;
22 -> 24 ;
25 [label="X[0] <= 0.5\ngini = 0.644\nsamples = 836\nvalue = [3, 300, 4, 2, 11, 2, 142, 372]"] ;
19 -> 25 ;
26 [label="gini = 0.633\nsamples = 390\nvalue = [2, 132, 2, 1, 2, 0, 67, 184]"] ;
25 -> 26 ;
27 [label="X[3] <= 0.5\ngini = 0.652\nsamples = 446\nvalue = [1, 168, 2, 1, 9, 2, 75, 188]"] ;
25 -> 27 ;
28 [label="gini = 0.652\nsamples = 428\nvalue = [1, 161, 2, 1, 9, 2, 71, 181]"] ;
27 -> 28 ;
29 [label="gini = 0.648\nsamples = 18\nvalue = [0, 7, 0, 0, 0, 0, 4, 7]"] ;
27 -> 29 ;
30 [label="X[0] <= 0.5\ngini = 0.651\nsamples = 18194\nvalue = [54, 5935, 211, 136, 361, 71, 2983, 8443]"] ;
18 -> 30 ;
31 [label="X[4] <= 0.5\ngini = 0.642\nsamples = 5060\nvalue = [15, 1618, 47, 39, 94, 19, 798, 2430]"] ;
30 -> 31 ;
32 [label="X[5] <= 0.5\ngini = 0.643\nsamples = 3875\nvalue = [11, 1257, 41, 29, 69, 17, 606, 1845]"] ;
31 -> 32 ;
33 [label="gini = 0.643\nsamples = 3310\nvalue = [10, 1077, 35, 25, 62, 15, 509, 1577]"] ;
32 -> 33 ;
34 [label="gini = 0.644\nsamples = 565\nvalue = [1, 180, 6, 4, 7, 2, 97, 268]"] ;
32 -> 34 ;
35 [label="X[5] <= 0.5\ngini = 0.637\nsamples = 1185\nvalue = [4, 361, 6, 10, 25, 2, 192, 585]"] ;
31 -> 35 ;
36 [label="gini = 0.638\nsamples = 970\nvalue = [4, 286, 4, 9, 22, 2, 161, 482]"] ;
35 -> 36 ;
37 [label="gini = 0.628\nsamples = 215\nvalue = [0, 75, 2, 1, 3, 0, 31, 103]"] ;
35 -> 37 ;
38 [label="X[5] <= 0.5\ngini = 0.654\nsamples = 13134\nvalue = [39, 4317, 164, 97, 267, 52, 2185, 6013]"] ;
30 -> 38 ;
39 [label="X[4] <= 0.5\ngini = 0.653\nsamples = 11622\nvalue = [37, 3841, 141, 83, 236, 47, 1912, 5325]"] ;
38 -> 39 ;
40 [label="X[3] <= 0.5\ngini = 0.653\nsamples = 9240\nvalue = [32, 3026, 113, 67, 188, 39, 1524, 4251]"] ;
39 -> 40 ;
41 [label="gini = 0.653\nsamples = 7679\nvalue = [27, 2518, 97, 56, 156, 34, 1260, 3531]"] ;
40 -> 41 ;
42 [label="gini = 0.652\nsamples = 1561\nvalue = [5, 508, 16, 11, 32, 5, 264, 720]"] ;
40 -> 42 ;
43 [label="X[3] <= 0.5\ngini = 0.653\nsamples = 2382\nvalue = [5, 815, 28, 16, 48, 8, 388, 1074]"] ;
39 -> 43 ;
44 [label="gini = 0.654\nsamples = 1953\nvalue = [4, 665, 21, 12, 38, 7, 330, 876]"] ;
43 -> 44 ;
45 [label="gini = 0.646\nsamples = 429\nvalue = [1, 150, 7, 4, 10, 1, 58, 198]"] ;
43 -> 45 ;
46 [label="X[3] <= 0.5\ngini = 0.66\nsamples = 1512\nvalue = [2, 476, 23, 14, 31, 5, 273, 688]"] ;
38 -> 46 ;
47 [label="X[4] <= 0.5\ngini = 0.66\nsamples = 1489\nvalue = [2, 471, 23, 14, 30, 5, 266, 678]"] ;
46 -> 47 ;
48 [label="gini = 0.66\nsamples = 1277\nvalue = [2, 402, 20, 12, 23, 4, 232, 582]"] ;
47 -> 48 ;
49 [label="gini = 0.662\nsamples = 212\nvalue = [0, 69, 3, 2, 7, 1, 34, 96]"] ;
47 -> 49 ;
50 [label="X[4] <= 0.5\ngini = 0.669\nsamples = 23\nvalue = [0, 5, 0, 0, 1, 0, 7, 10]"] ;
46 -> 50 ;
51 [label="gini = 0.678\nsamples = 22\nvalue = [0, 5, 0, 0, 1, 0, 7, 9]"] ;
50 -> 51 ;
52 [label="gini = 0.0\nsamples = 1\nvalue = [0, 0, 0, 0, 0, 0, 0, 1]"] ;
50 -> 52 ;
}