digraph Tree {
node [shape=box] ;
0 [label="X[2] <= 0.5\ngini = 0.697\nsamples = 1740\nvalue = [550, 350, 691, 28, 121]"] ;
1 [label="X[1] <= 0.5\ngini = 0.558\nsamples = 249\nvalue = [142, 84, 5, 7, 11]"] ;
0 -> 1 [labeldistance=2.5, labelangle=45, headlabel="True"] ;
2 [label="X[0] <= 0.5\ngini = 0.201\nsamples = 120\nvalue = [107, 1, 3, 2, 7]"] ;
1 -> 2 ;
3 [label="gini = 0.258\nsamples = 49\nvalue = [42, 0, 2, 2, 3]"] ;
2 -> 3 ;
4 [label="gini = 0.158\nsamples = 71\nvalue = [65, 1, 1, 0, 4]"] ;
2 -> 4 ;
5 [label="X[0] <= 0.5\ngini = 0.51\nsamples = 129\nvalue = [35, 83, 2, 5, 4]"] ;
1 -> 5 ;
6 [label="gini = 0.086\nsamples = 45\nvalue = [0, 43, 0, 1, 1]"] ;
5 -> 6 ;
7 [label="gini = 0.596\nsamples = 84\nvalue = [35, 40, 2, 4, 3]"] ;
5 -> 7 ;
8 [label="X[1] <= 0.5\ngini = 0.676\nsamples = 1491\nvalue = [408, 266, 686, 21, 110]"] ;
0 -> 8 [labeldistance=2.5, labelangle=-45, headlabel="False"] ;
9 [label="gini = 0.0\nsamples = 94\nvalue = [0, 0, 94, 0, 0]"] ;
8 -> 9 ;
10 [label="X[4] <= 0.5\ngini = 0.692\nsamples = 1397\nvalue = [408, 266, 592, 21, 110]"] ;
8 -> 10 ;
11 [label="gini = 0.5\nsamples = 2\nvalue = [1, 0, 1, 0, 0]"] ;
10 -> 11 ;
12 [label="gini = 0.693\nsamples = 1395\nvalue = [407, 266, 591, 21, 110]"] ;
10 -> 12 ;
}