digraph Tree {
node [shape=box] ;
0 [label="X[2] <= 0.5\ngini = 0.791\nsamples = 2400\nvalue = [361, 653, 406, 537, 443]"] ;
1 [label="X[1] <= 0.5\ngini = 0.794\nsamples = 582\nvalue = [98, 151, 96, 117, 120]"] ;
0 -> 1 [labeldistance=2.5, labelangle=45, headlabel="True"] ;
2 [label="X[0] <= 0.5\ngini = 0.789\nsamples = 129\nvalue = [24, 35, 19, 21, 30]"] ;
1 -> 2 ;
3 [label="X[3] <= 0.5\ngini = 0.726\nsamples = 25\nvalue = [3, 11, 4, 3, 4]"] ;
2 -> 3 ;
4 [label="gini = 0.711\nsamples = 11\nvalue = [1, 5, 1, 2, 2]"] ;
3 -> 4 ;
5 [label="gini = 0.724\nsamples = 14\nvalue = [2, 6, 3, 1, 2]"] ;
3 -> 5 ;
6 [label="X[3] <= 0.5\ngini = 0.793\nsamples = 104\nvalue = [21, 24, 15, 18, 26]"] ;
2 -> 6 ;
7 [label="gini = 0.776\nsamples = 39\nvalue = [5, 12, 6, 6, 10]"] ;
6 -> 7 ;
8 [label="gini = 0.791\nsamples = 65\nvalue = [16, 12, 9, 12, 16]"] ;
6 -> 8 ;
9 [label="X[0] <= 0.5\ngini = 0.794\nsamples = 453\nvalue = [74, 116, 77, 96, 90]"] ;
1 -> 9 ;
10 [label="X[3] <= 0.5\ngini = 0.798\nsamples = 72\nvalue = [16, 15, 14, 15, 12]"] ;
9 -> 10 ;
11 [label="gini = 0.788\nsamples = 42\nvalue = [10, 5, 8, 11, 8]"] ;
10 -> 11 ;
12 [label="gini = 0.773\nsamples = 30\nvalue = [6, 10, 6, 4, 4]"] ;
10 -> 12 ;
13 [label="X[3] <= 0.5\ngini = 0.792\nsamples = 381\nvalue = [58, 101, 63, 81, 78]"] ;
9 -> 13 ;
14 [label="gini = 0.793\nsamples = 161\nvalue = [28, 43, 26, 32, 32]"] ;
13 -> 14 ;
15 [label="gini = 0.79\nsamples = 220\nvalue = [30, 58, 37, 49, 46]"] ;
13 -> 15 ;
16 [label="X[0] <= 0.5\ngini = 0.789\nsamples = 1818\nvalue = [263, 502, 310, 420, 323]"] ;
0 -> 16 [labeldistance=2.5, labelangle=-45, headlabel="False"] ;
17 [label="X[3] <= 0.5\ngini = 0.792\nsamples = 477\nvalue = [74, 116, 81, 121, 85]"] ;
16 -> 17 ;
18 [label="X[1] <= 0.5\ngini = 0.783\nsamples = 229\nvalue = [29, 54, 41, 67, 38]"] ;
17 -> 18 ;
19 [label="gini = 0.793\nsamples = 42\nvalue = [6, 9, 10, 10, 7]"] ;
18 -> 19 ;
20 [label="gini = 0.779\nsamples = 187\nvalue = [23, 45, 31, 57, 31]"] ;
18 -> 20 ;
21 [label="X[1] <= 0.5\ngini = 0.795\nsamples = 248\nvalue = [45, 62, 40, 54, 47]"] ;
17 -> 21 ;
22 [label="gini = 0.786\nsamples = 28\nvalue = [5, 7, 6, 7, 3]"] ;
21 -> 22 ;
23 [label="gini = 0.795\nsamples = 220\nvalue = [40, 55, 34, 47, 44]"] ;
21 -> 23 ;
24 [label="X[1] <= 0.5\ngini = 0.787\nsamples = 1341\nvalue = [189, 386, 229, 299, 238]"] ;
16 -> 24 ;
25 [label="X[4] <= 0.5\ngini = 0.79\nsamples = 419\nvalue = [55, 111, 80, 97, 76]"] ;
24 -> 25 ;
26 [label="gini = 0.787\nsamples = 215\nvalue = [26, 57, 39, 52, 41]"] ;
25 -> 26 ;
27 [label="gini = 0.791\nsamples = 204\nvalue = [29, 54, 41, 45, 35]"] ;
25 -> 27 ;
28 [label="X[4] <= 0.5\ngini = 0.785\nsamples = 922\nvalue = [134, 275, 149, 202, 162]"] ;
24 -> 28 ;
29 [label="gini = 0.784\nsamples = 447\nvalue = [65, 136, 74, 92, 80]"] ;
28 -> 29 ;
30 [label="gini = 0.785\nsamples = 475\nvalue = [69, 139, 75, 110, 82]"] ;
28 -> 30 ;
}