digraph Tree {
node [shape=box] ;
0 [label="X[3] <= 0.5\ngini = 0.218\nsamples = 52982\nvalue = [2529, 3463, 46642, 348]"] ;
1 [label="X[0] <= 0.5\ngini = 0.217\nsamples = 48509\nvalue = [2278, 3162, 42747, 322]"] ;
0 -> 1 [labeldistance=2.5, labelangle=45, headlabel="True"] ;
2 [label="gini = 0.216\nsamples = 10872\nvalue = [507, 725, 9585, 55]"] ;
1 -> 2 ;
3 [label="gini = 0.217\nsamples = 37637\nvalue = [1771, 2437, 33162, 267]"] ;
1 -> 3 ;
4 [label="gini = 0.234\nsamples = 4473\nvalue = [251, 301, 3895, 26]"] ;
0 -> 4 [labeldistance=2.5, labelangle=-45, headlabel="False"] ;
}