digraph Tree {
node [shape=box] ;
0 [label="X[2] <= 0.5\ngini = 0.724\nsamples = 3912\nvalue = [1164, 744, 1456, 130, 418]"] ;
1 [label="X[1] <= 0.5\ngini = 0.71\nsamples = 540\nvalue = [215, 150, 29, 27, 119]"] ;
0 -> 1 [labeldistance=2.5, labelangle=45, headlabel="True"] ;
2 [label="X[0] <= 0.5\ngini = 0.638\nsamples = 289\nvalue = [140, 14, 21, 15, 99]"] ;
1 -> 2 ;
3 [label="gini = 0.736\nsamples = 118\nvalue = [37, 11, 21, 8, 41]"] ;
2 -> 3 ;
4 [label="gini = 0.52\nsamples = 171\nvalue = [103, 3, 0, 7, 58]"] ;
2 -> 4 ;
5 [label="X[0] <= 0.5\ngini = 0.607\nsamples = 251\nvalue = [75, 136, 8, 12, 20]"] ;
1 -> 5 ;
6 [label="X[4] <= 0.5\ngini = 0.356\nsamples = 83\nvalue = [5, 66, 4, 2, 6]"] ;
5 -> 6 ;
7 [label="gini = 0.32\nsamples = 5\nvalue = [1, 4, 0, 0, 0]"] ;
6 -> 7 ;
8 [label="gini = 0.356\nsamples = 78\nvalue = [4, 62, 4, 2, 6]"] ;
6 -> 8 ;
9 [label="X[4] <= 0.5\ngini = 0.642\nsamples = 168\nvalue = [70, 70, 4, 10, 14]"] ;
5 -> 9 ;
10 [label="gini = 0.0\nsamples = 2\nvalue = [2, 0, 0, 0, 0]"] ;
9 -> 10 ;
11 [label="gini = 0.643\nsamples = 166\nvalue = [68, 70, 4, 10, 14]"] ;
9 -> 11 ;
12 [label="X[1] <= 0.5\ngini = 0.702\nsamples = 3372\nvalue = [949, 594, 1427, 103, 299]"] ;
0 -> 12 [labeldistance=2.5, labelangle=-45, headlabel="False"] ;
13 [label="gini = 0.161\nsamples = 232\nvalue = [4, 0, 212, 2, 14]"] ;
12 -> 13 ;
14 [label="X[4] <= 0.5\ngini = 0.715\nsamples = 3140\nvalue = [945, 594, 1215, 101, 285]"] ;
12 -> 14 ;
15 [label="gini = 0.198\nsamples = 9\nvalue = [8, 0, 1, 0, 0]"] ;
14 -> 15 ;
16 [label="X[0] <= 0.5\ngini = 0.715\nsamples = 3131\nvalue = [937, 594, 1214, 101, 285]"] ;
14 -> 16 ;
17 [label="gini = 0.0\nsamples = 1\nvalue = [0, 0, 1, 0, 0]"] ;
16 -> 17 ;
18 [label="gini = 0.715\nsamples = 3130\nvalue = [937, 594, 1213, 101, 285]"] ;
16 -> 18 ;
}