digraph Tree {
node [shape=box] ;
0 [label="X[2] <= 0.5\ngini = 0.717\nsamples = 4091\nvalue = [1333, 902, 1429, 112, 315]"] ;
1 [label="X[1] <= 0.5\ngini = 0.511\nsamples = 425\nvalue = [274, 112, 1, 18, 20]"] ;
0 -> 1 [labeldistance=2.5, labelangle=45, headlabel="True"] ;
2 [label="X[0] <= 0.5\ngini = 0.243\nsamples = 270\nvalue = [234, 12, 1, 13, 10]"] ;
1 -> 2 ;
3 [label="X[4] <= 0.5\ngini = 0.336\nsamples = 140\nvalue = [113, 10, 1, 11, 5]"] ;
2 -> 3 ;
4 [label="gini = 0.396\nsamples = 102\nvalue = [78, 8, 1, 11, 4]"] ;
3 -> 4 ;
5 [label="gini = 0.148\nsamples = 38\nvalue = [35, 2, 0, 0, 1]"] ;
3 -> 5 ;
6 [label="X[3] <= 0.5\ngini = 0.132\nsamples = 130\nvalue = [121, 2, 0, 2, 5]"] ;
2 -> 6 ;
7 [label="gini = 0.099\nsamples = 78\nvalue = [74, 1, 0, 1, 2]"] ;
6 -> 7 ;
8 [label="gini = 0.179\nsamples = 52\nvalue = [47, 1, 0, 1, 3]"] ;
6 -> 8 ;
9 [label="X[0] <= 0.5\ngini = 0.512\nsamples = 155\nvalue = [40, 100, 0, 5, 10]"] ;
1 -> 9 ;
10 [label="X[4] <= 0.5\ngini = 0.291\nsamples = 48\nvalue = [0, 40, 0, 3, 5]"] ;
9 -> 10 ;
11 [label="gini = 0.0\nsamples = 2\nvalue = [0, 0, 0, 2, 0]"] ;
10 -> 11 ;
12 [label="gini = 0.232\nsamples = 46\nvalue = [0, 40, 0, 1, 5]"] ;
10 -> 12 ;
13 [label="gini = 0.543\nsamples = 107\nvalue = [40, 60, 0, 2, 5]"] ;
9 -> 13 ;
14 [label="X[1] <= 0.5\ngini = 0.711\nsamples = 3666\nvalue = [1059, 790, 1428, 94, 295]"] ;
0 -> 14 [labeldistance=2.5, labelangle=-45, headlabel="False"] ;
15 [label="gini = 0.046\nsamples = 169\nvalue = [0, 3, 165, 1, 0]"] ;
14 -> 15 ;
16 [label="X[4] <= 0.5\ngini = 0.719\nsamples = 3497\nvalue = [1059, 787, 1263, 93, 295]"] ;
14 -> 16 ;
17 [label="gini = 0.48\nsamples = 5\nvalue = [0, 0, 2, 3, 0]"] ;
16 -> 17 ;
18 [label="gini = 0.719\nsamples = 3492\nvalue = [1059, 787, 1261, 90, 295]"] ;
16 -> 18 ;
}