digraph Tree {
node [shape=box] ;
0 [label="X[4] <= 0.5\ngini = 0.748\nsamples = 13262\nvalue = [5192, 2302, 2211, 1112, 2445]"] ;
1 [label="X[2] <= 0.5\ngini = 0.779\nsamples = 6838\nvalue = [1835, 1382, 1167, 651, 1803]"] ;
0 -> 1 [labeldistance=2.5, labelangle=45, headlabel="True"] ;
2 [label="X[0] <= 0.5\ngini = 0.779\nsamples = 6443\nvalue = [1828, 1346, 1024, 639, 1606]"] ;
1 -> 2 ;
3 [label="gini = 0.758\nsamples = 302\nvalue = [94, 89, 50, 20, 49]"] ;
2 -> 3 ;
4 [label="gini = 0.779\nsamples = 6141\nvalue = [1734, 1257, 974, 619, 1557]"] ;
2 -> 4 ;
5 [label="X[1] <= 0.5\ngini = 0.611\nsamples = 395\nvalue = [7, 36, 143, 12, 197]"] ;
1 -> 5 ;
6 [label="X[0] <= 0.5\ngini = 0.58\nsamples = 236\nvalue = [2, 32, 138, 7, 57]"] ;
5 -> 6 ;
7 [label="gini = 0.649\nsamples = 43\nvalue = [0, 10, 15, 0, 18]"] ;
6 -> 7 ;
8 [label="gini = 0.539\nsamples = 193\nvalue = [2, 22, 123, 7, 39]"] ;
6 -> 8 ;
9 [label="X[0] <= 0.5\ngini = 0.221\nsamples = 159\nvalue = [5, 4, 5, 5, 140]"] ;
5 -> 9 ;
10 [label="gini = 0.169\nsamples = 89\nvalue = [2, 4, 0, 2, 81]"] ;
9 -> 10 ;
11 [label="gini = 0.281\nsamples = 70\nvalue = [3, 0, 5, 3, 59]"] ;
9 -> 11 ;
12 [label="X[0] <= 0.5\ngini = 0.665\nsamples = 6424\nvalue = [3357, 920, 1044, 461, 642]"] ;
0 -> 12 [labeldistance=2.5, labelangle=-45, headlabel="False"] ;
13 [label="X[2] <= 0.5\ngini = 0.769\nsamples = 452\nvalue = [108, 141, 96, 36, 71]"] ;
12 -> 13 ;
14 [label="gini = 0.768\nsamples = 432\nvalue = [100, 140, 89, 35, 68]"] ;
13 -> 14 ;
15 [label="X[1] <= 0.5\ngini = 0.69\nsamples = 20\nvalue = [8, 1, 7, 1, 3]"] ;
13 -> 15 ;
16 [label="gini = 0.698\nsamples = 19\nvalue = [7, 1, 7, 1, 3]"] ;
15 -> 16 ;
17 [label="gini = 0.0\nsamples = 1\nvalue = [1, 0, 0, 0, 0]"] ;
15 -> 17 ;
18 [label="X[1] <= 0.5\ngini = 0.648\nsamples = 5972\nvalue = [3249, 779, 948, 425, 571]"] ;
12 -> 18 ;
19 [label="gini = 0.536\nsamples = 44\nvalue = [2, 3, 28, 1, 10]"] ;
18 -> 19 ;
20 [label="X[2] <= 0.5\ngini = 0.645\nsamples = 5928\nvalue = [3247, 776, 920, 424, 561]"] ;
18 -> 20 ;
21 [label="gini = 0.644\nsamples = 5920\nvalue = [3244, 776, 920, 421, 559]"] ;
20 -> 21 ;
22 [label="gini = 0.656\nsamples = 8\nvalue = [3, 0, 0, 3, 2]"] ;
20 -> 22 ;
}