digraph Tree {
node [shape=box] ;
0 [label="X[2] <= 0.5\ngini = 0.776\nsamples = 21564\nvalue = [6369, 4645, 4684, 1691, 4175]"] ;
1 [label="X[4] <= 0.5\ngini = 0.773\nsamples = 20191\nvalue = [6344, 4442, 3803, 1679, 3923]"] ;
0 -> 1 [labeldistance=2.5, labelangle=45, headlabel="True"] ;
2 [label="X[0] <= 0.5\ngini = 0.777\nsamples = 10716\nvalue = [2673, 2573, 1797, 873, 2800]"] ;
1 -> 2 ;
3 [label="gini = 0.601\nsamples = 101\nvalue = [2, 55, 14, 1, 29]"] ;
2 -> 3 ;
4 [label="gini = 0.777\nsamples = 10615\nvalue = [2671, 2518, 1783, 872, 2771]"] ;
2 -> 4 ;
5 [label="X[0] <= 0.5\ngini = 0.745\nsamples = 9475\nvalue = [3671, 1869, 2006, 806, 1123]"] ;
1 -> 5 ;
6 [label="gini = 0.767\nsamples = 922\nvalue = [232, 288, 197, 77, 128]"] ;
5 -> 6 ;
7 [label="gini = 0.739\nsamples = 8553\nvalue = [3439, 1581, 1809, 729, 995]"] ;
5 -> 7 ;
8 [label="X[1] <= 0.5\ngini = 0.532\nsamples = 1373\nvalue = [25, 203, 881, 12, 252]"] ;
0 -> 8 [labeldistance=2.5, labelangle=-45, headlabel="False"] ;
9 [label="X[4] <= 0.5\ngini = 0.647\nsamples = 660\nvalue = [20, 175, 325, 10, 130]"] ;
8 -> 9 ;
10 [label="X[0] <= 0.5\ngini = 0.619\nsamples = 558\nvalue = [1, 153, 286, 2, 116]"] ;
9 -> 10 ;
11 [label="gini = 0.651\nsamples = 47\nvalue = [1, 9, 20, 0, 17]"] ;
10 -> 11 ;
12 [label="gini = 0.612\nsamples = 511\nvalue = [0, 144, 266, 2, 99]"] ;
10 -> 12 ;
13 [label="gini = 0.748\nsamples = 102\nvalue = [19, 22, 39, 8, 14]"] ;
9 -> 13 ;
14 [label="X[0] <= 0.5\ngini = 0.361\nsamples = 713\nvalue = [5, 28, 556, 2, 122]"] ;
8 -> 14 ;
15 [label="gini = 0.0\nsamples = 1\nvalue = [0, 1, 0, 0, 0]"] ;
14 -> 15 ;
16 [label="gini = 0.359\nsamples = 712\nvalue = [5, 27, 556, 2, 122]"] ;
14 -> 16 ;
}