digraph Tree {
node [shape=box] ;
0 [label="X[1] <= 0.5\ngini = 0.79\nsamples = 2400\nvalue = [351, 649, 418, 547, 435]"] ;
1 [label="X[3] <= 0.5\ngini = 0.788\nsamples = 678\nvalue = [89, 189, 140, 140, 120]"] ;
0 -> 1 [labeldistance=2.5, labelangle=45, headlabel="True"] ;
2 [label="X[0] <= 0.5\ngini = 0.789\nsamples = 284\nvalue = [34, 70, 69, 58, 53]"] ;
1 -> 2 ;
3 [label="X[2] <= 0.5\ngini = 0.752\nsamples = 55\nvalue = [3, 19, 11, 8, 14]"] ;
2 -> 3 ;
4 [label="gini = 0.712\nsamples = 21\nvalue = [1, 9, 5, 2, 4]"] ;
3 -> 4 ;
5 [label="gini = 0.761\nsamples = 34\nvalue = [2, 10, 6, 6, 10]"] ;
3 -> 5 ;
6 [label="X[2] <= 0.5\ngini = 0.791\nsamples = 229\nvalue = [31, 51, 58, 50, 39]"] ;
2 -> 6 ;
7 [label="gini = 0.788\nsamples = 42\nvalue = [9, 12, 7, 8, 6]"] ;
6 -> 7 ;
8 [label="gini = 0.787\nsamples = 187\nvalue = [22, 39, 51, 42, 33]"] ;
6 -> 8 ;
9 [label="X[2] <= 0.5\ngini = 0.785\nsamples = 394\nvalue = [55, 119, 71, 82, 67]"] ;
1 -> 9 ;
10 [label="X[0] <= 0.5\ngini = 0.791\nsamples = 114\nvalue = [19, 30, 26, 23, 16]"] ;
9 -> 10 ;
11 [label="gini = 0.774\nsamples = 51\nvalue = [8, 16, 12, 10, 5]"] ;
10 -> 11 ;
12 [label="gini = 0.798\nsamples = 63\nvalue = [11, 14, 14, 13, 11]"] ;
10 -> 12 ;
13 [label="X[0] <= 0.5\ngini = 0.779\nsamples = 280\nvalue = [36, 89, 45, 59, 51]"] ;
9 -> 13 ;
14 [label="gini = 0.784\nsamples = 77\nvalue = [11, 23, 11, 16, 16]"] ;
13 -> 14 ;
15 [label="gini = 0.776\nsamples = 203\nvalue = [25, 66, 34, 43, 35]"] ;
13 -> 15 ;
16 [label="X[2] <= 0.5\ngini = 0.79\nsamples = 1722\nvalue = [262, 460, 278, 407, 315]"] ;
0 -> 16 [labeldistance=2.5, labelangle=-45, headlabel="False"] ;
17 [label="X[0] <= 0.5\ngini = 0.792\nsamples = 484\nvalue = [86, 120, 71, 117, 90]"] ;
16 -> 17 ;
18 [label="X[4] <= 0.5\ngini = 0.791\nsamples = 118\nvalue = [17, 31, 19, 25, 26]"] ;
17 -> 18 ;
19 [label="gini = 0.793\nsamples = 76\nvalue = [13, 20, 12, 16, 15]"] ;
18 -> 19 ;
20 [label="gini = 0.78\nsamples = 42\nvalue = [4, 11, 7, 9, 11]"] ;
18 -> 20 ;
21 [label="X[4] <= 0.5\ngini = 0.791\nsamples = 366\nvalue = [69, 89, 52, 92, 64]"] ;
17 -> 21 ;
22 [label="gini = 0.79\nsamples = 187\nvalue = [31, 49, 29, 46, 32]"] ;
21 -> 22 ;
23 [label="gini = 0.79\nsamples = 179\nvalue = [38, 40, 23, 46, 32]"] ;
21 -> 23 ;
24 [label="X[0] <= 0.5\ngini = 0.789\nsamples = 1238\nvalue = [176, 340, 207, 290, 225]"] ;
16 -> 24 ;
25 [label="X[4] <= 0.5\ngini = 0.779\nsamples = 343\nvalue = [42, 104, 57, 84, 56]"] ;
24 -> 25 ;
26 [label="gini = 0.782\nsamples = 179\nvalue = [22, 51, 26, 44, 36]"] ;
25 -> 26 ;
27 [label="gini = 0.771\nsamples = 164\nvalue = [20, 53, 31, 40, 20]"] ;
25 -> 27 ;
28 [label="X[4] <= 0.5\ngini = 0.791\nsamples = 895\nvalue = [134, 236, 150, 206, 169]"] ;
24 -> 28 ;
29 [label="gini = 0.792\nsamples = 470\nvalue = [73, 126, 81, 100, 90]"] ;
28 -> 29 ;
30 [label="gini = 0.789\nsamples = 425\nvalue = [61, 110, 69, 106, 79]"] ;
28 -> 30 ;
}