digraph Tree {
node [shape=box] ;
0 [label="X[3] <= 0.5\ngini = 0.216\nsamples = 38017\nvalue = [1722, 2495, 33519, 281]"] ;
1 [label="X[0] <= 0.5\ngini = 0.218\nsamples = 34900\nvalue = [1596, 2323, 30724, 257]"] ;
0 -> 1 [labeldistance=2.5, labelangle=45, headlabel="True"] ;
2 [label="gini = 0.219\nsamples = 7845\nvalue = [362, 523, 6902, 58]"] ;
1 -> 2 ;
3 [label="gini = 0.218\nsamples = 27055\nvalue = [1234, 1800, 23822, 199]"] ;
1 -> 3 ;
4 [label="gini = 0.191\nsamples = 3117\nvalue = [126, 172, 2795, 24]"] ;
0 -> 4 [labeldistance=2.5, labelangle=-45, headlabel="False"] ;
}