digraph Tree {
node [shape=box] ;
0 [label="X[0] <= 0.5\ngini = 0.8\nsamples = 35200\nvalue = [6973, 6682, 7257, 7004, 7284]"] ;
1 [label="X[1] <= 0.5\ngini = 0.799\nsamples = 22691\nvalue = [4523, 4122, 4611, 4540, 4895]"] ;
0 -> 1 [labeldistance=2.5, labelangle=45, headlabel="True"] ;
2 [label="X[3] <= 0.5\ngini = 0.799\nsamples = 16505\nvalue = [3196, 2921, 3424, 3363, 3601]"] ;
1 -> 2 ;
3 [label="gini = 0.799\nsamples = 16495\nvalue = [3193, 2917, 3424, 3362, 3599]"] ;
2 -> 3 ;
4 [label="gini = 0.7\nsamples = 10\nvalue = [3, 4, 0, 1, 2]"] ;
2 -> 4 ;
5 [label="X[2] <= 0.5\ngini = 0.8\nsamples = 6186\nvalue = [1327, 1201, 1187, 1177, 1294]"] ;
1 -> 5 ;
6 [label="X[3] <= 0.5\ngini = 0.789\nsamples = 470\nvalue = [109, 86, 57, 122, 96]"] ;
5 -> 6 ;
7 [label="gini = 0.789\nsamples = 466\nvalue = [107, 85, 56, 122, 96]"] ;
6 -> 7 ;
8 [label="gini = 0.625\nsamples = 4\nvalue = [2, 1, 1, 0, 0]"] ;
6 -> 8 ;
9 [label="X[4] <= 0.5\ngini = 0.799\nsamples = 5716\nvalue = [1218, 1115, 1130, 1055, 1198]"] ;
5 -> 9 ;
10 [label="gini = 0.799\nsamples = 2114\nvalue = [471, 408, 407, 381, 447]"] ;
9 -> 10 ;
11 [label="gini = 0.8\nsamples = 3602\nvalue = [747, 707, 723, 674, 751]"] ;
9 -> 11 ;
12 [label="X[1] <= 0.5\ngini = 0.8\nsamples = 12509\nvalue = [2450, 2560, 2646, 2464, 2389]"] ;
0 -> 12 [labeldistance=2.5, labelangle=-45, headlabel="False"] ;
13 [label="X[4] <= 0.5\ngini = 0.8\nsamples = 2421\nvalue = [514, 474, 485, 483, 465]"] ;
12 -> 13 ;
14 [label="gini = 0.762\nsamples = 30\nvalue = [5, 3, 8, 10, 4]"] ;
13 -> 14 ;
15 [label="gini = 0.8\nsamples = 2391\nvalue = [509, 471, 477, 473, 461]"] ;
13 -> 15 ;
16 [label="X[4] <= 0.5\ngini = 0.8\nsamples = 10088\nvalue = [1936, 2086, 2161, 1981, 1924]"] ;
12 -> 16 ;
17 [label="X[2] <= 0.5\ngini = 0.8\nsamples = 1121\nvalue = [208, 236, 223, 227, 227]"] ;
16 -> 17 ;
18 [label="gini = 0.776\nsamples = 14\nvalue = [3, 3, 3, 4, 1]"] ;
17 -> 18 ;
19 [label="gini = 0.8\nsamples = 1107\nvalue = [205, 233, 220, 223, 226]"] ;
17 -> 19 ;
20 [label="X[2] <= 0.5\ngini = 0.8\nsamples = 8967\nvalue = [1728, 1850, 1938, 1754, 1697]"] ;
16 -> 20 ;
21 [label="gini = 0.8\nsamples = 3959\nvalue = [752, 827, 845, 788, 747]"] ;
20 -> 21 ;
22 [label="gini = 0.799\nsamples = 5008\nvalue = [976, 1023, 1093, 966, 950]"] ;
20 -> 22 ;
}