digraph Tree {
node [shape=box] ;
0 [label="X[0] <= 0.5\ngini = 0.8\nsamples = 60000\nvalue = [12229, 11900, 11989, 11825, 12057]"] ;
1 [label="X[1] <= 0.5\ngini = 0.8\nsamples = 18944\nvalue = [3811, 3925, 3657, 3729, 3822]"] ;
0 -> 1 [labeldistance=2.5, labelangle=45, headlabel="True"] ;
2 [label="X[4] <= 0.5\ngini = 0.798\nsamples = 3581\nvalue = [742, 844, 656, 702, 637]"] ;
1 -> 2 ;
3 [label="gini = 0.799\nsamples = 1708\nvalue = [343, 371, 309, 322, 363]"] ;
2 -> 3 ;
4 [label="gini = 0.794\nsamples = 1873\nvalue = [399, 473, 347, 380, 274]"] ;
2 -> 4 ;
5 [label="X[2] <= 0.5\ngini = 0.8\nsamples = 15363\nvalue = [3069, 3081, 3001, 3027, 3185]"] ;
1 -> 5 ;
6 [label="X[4] <= 0.5\ngini = 0.8\nsamples = 11654\nvalue = [2340, 2317, 2217, 2348, 2432]"] ;
5 -> 6 ;
7 [label="gini = 0.8\nsamples = 6961\nvalue = [1397, 1425, 1319, 1413, 1407]"] ;
6 -> 7 ;
8 [label="gini = 0.799\nsamples = 4693\nvalue = [943, 892, 898, 935, 1025]"] ;
6 -> 8 ;
9 [label="X[4] <= 0.5\ngini = 0.8\nsamples = 3709\nvalue = [729, 764, 784, 679, 753]"] ;
5 -> 9 ;
10 [label="gini = 0.747\nsamples = 30\nvalue = [4, 12, 6, 4, 4]"] ;
9 -> 10 ;
11 [label="gini = 0.8\nsamples = 3679\nvalue = [725, 752, 778, 675, 749]"] ;
9 -> 11 ;
12 [label="X[2] <= 0.5\ngini = 0.8\nsamples = 41056\nvalue = [8418, 7975, 8332, 8096, 8235]"] ;
0 -> 12 [labeldistance=2.5, labelangle=-45, headlabel="False"] ;
13 [label="X[4] <= 0.5\ngini = 0.8\nsamples = 18413\nvalue = [3861, 3666, 3647, 3509, 3730]"] ;
12 -> 13 ;
14 [label="gini = 0.799\nsamples = 2408\nvalue = [517, 509, 465, 411, 506]"] ;
13 -> 14 ;
15 [label="gini = 0.8\nsamples = 16005\nvalue = [3344, 3157, 3182, 3098, 3224]"] ;
13 -> 15 ;
16 [label="X[1] <= 0.5\ngini = 0.8\nsamples = 22643\nvalue = [4557, 4309, 4685, 4587, 4505]"] ;
12 -> 16 ;
17 [label="X[4] <= 0.5\ngini = 0.8\nsamples = 16023\nvalue = [3339, 3010, 3206, 3299, 3169]"] ;
16 -> 17 ;
18 [label="gini = 0.798\nsamples = 1082\nvalue = [223, 175, 238, 230, 216]"] ;
17 -> 18 ;
19 [label="gini = 0.8\nsamples = 14941\nvalue = [3116, 2835, 2968, 3069, 2953]"] ;
17 -> 19 ;
20 [label="X[4] <= 0.5\ngini = 0.799\nsamples = 6620\nvalue = [1218, 1299, 1479, 1288, 1336]"] ;
16 -> 20 ;
21 [label="gini = 0.797\nsamples = 2178\nvalue = [341, 433, 515, 422, 467]"] ;
20 -> 21 ;
22 [label="gini = 0.8\nsamples = 4442\nvalue = [877, 866, 964, 866, 869]"] ;
20 -> 22 ;
}