digraph Tree {
node [shape=box] ;
0 [label="X[2] <= 0.5\ngini = 0.763\nsamples = 53908\nvalue = [12272, 8427, 12009, 3590, 17610]"] ;
1 [label="X[3] <= 0.5\ngini = 0.765\nsamples = 20422\nvalue = [7171, 4005, 3460, 1904, 3882]"] ;
0 -> 1 [labeldistance=2.5, labelangle=45, headlabel="True"] ;
2 [label="X[0] <= 0.5\ngini = 0.679\nsamples = 8000\nvalue = [4058, 1197, 1201, 772, 772]"] ;
1 -> 2 ;
3 [label="gini = 0.77\nsamples = 880\nvalue = [268, 224, 157, 68, 163]"] ;
2 -> 3 ;
4 [label="gini = 0.659\nsamples = 7120\nvalue = [3790, 973, 1044, 704, 609]"] ;
2 -> 4 ;
5 [label="X[0] <= 0.5\ngini = 0.782\nsamples = 12422\nvalue = [3113, 2808, 2259, 1132, 3110]"] ;
1 -> 5 ;
6 [label="gini = 0.771\nsamples = 1130\nvalue = [238, 329, 200, 79, 284]"] ;
5 -> 6 ;
7 [label="gini = 0.782\nsamples = 11292\nvalue = [2875, 2479, 2059, 1053, 2826]"] ;
5 -> 7 ;
8 [label="X[1] <= 0.5\ngini = 0.724\nsamples = 33486\nvalue = [5101, 4422, 8549, 1686, 13728]"] ;
0 -> 8 [labeldistance=2.5, labelangle=-45, headlabel="False"] ;
9 [label="X[4] <= 0.5\ngini = 0.721\nsamples = 32261\nvalue = [5066, 4253, 7688, 1668, 13586]"] ;
8 -> 9 ;
10 [label="gini = 0.72\nsamples = 31662\nvalue = [4953, 4128, 7582, 1640, 13359]"] ;
9 -> 10 ;
11 [label="X[0] <= 0.5\ngini = 0.744\nsamples = 599\nvalue = [113, 125, 106, 28, 227]"] ;
9 -> 11 ;
12 [label="gini = 0.444\nsamples = 3\nvalue = [0, 2, 0, 1, 0]"] ;
11 -> 12 ;
13 [label="gini = 0.743\nsamples = 596\nvalue = [113, 123, 106, 27, 227]"] ;
11 -> 13 ;
14 [label="X[0] <= 0.5\ngini = 0.472\nsamples = 1225\nvalue = [35, 169, 861, 18, 142]"] ;
8 -> 14 ;
15 [label="X[4] <= 0.5\ngini = 0.704\nsamples = 111\nvalue = [9, 35, 24, 1, 42]"] ;
14 -> 15 ;
16 [label="gini = 0.7\nsamples = 105\nvalue = [8, 30, 24, 1, 42]"] ;
15 -> 16 ;
17 [label="gini = 0.278\nsamples = 6\nvalue = [1, 5, 0, 0, 0]"] ;
15 -> 17 ;
18 [label="X[4] <= 0.5\ngini = 0.412\nsamples = 1114\nvalue = [26, 134, 837, 17, 100]"] ;
14 -> 18 ;
19 [label="gini = 0.409\nsamples = 1109\nvalue = [24, 133, 836, 17, 99]"] ;
18 -> 19 ;
20 [label="gini = 0.72\nsamples = 5\nvalue = [2, 1, 1, 0, 1]"] ;
18 -> 20 ;
}