digraph Tree {
node [shape=box] ;
0 [label="X[3] <= 0.5\ngini = 0.75\nsamples = 44844\nvalue = [17192, 7918, 7434, 3488, 8812]"] ;
1 [label="X[0] <= 0.5\ngini = 0.682\nsamples = 21628\nvalue = [10836, 3183, 3693, 1721, 2195]"] ;
0 -> 1 [labeldistance=2.5, labelangle=45, headlabel="True"] ;
2 [label="X[2] <= 0.5\ngini = 0.764\nsamples = 1682\nvalue = [410, 540, 366, 120, 246]"] ;
1 -> 2 ;
3 [label="gini = 0.762\nsamples = 1544\nvalue = [389, 500, 331, 118, 206]"] ;
2 -> 3 ;
4 [label="X[1] <= 0.5\ngini = 0.744\nsamples = 138\nvalue = [21, 40, 35, 2, 40]"] ;
2 -> 4 ;
5 [label="gini = 0.751\nsamples = 95\nvalue = [21, 28, 27, 2, 17]"] ;
4 -> 5 ;
6 [label="gini = 0.601\nsamples = 43\nvalue = [0, 12, 8, 0, 23]"] ;
4 -> 6 ;
7 [label="X[2] <= 0.5\ngini = 0.665\nsamples = 19946\nvalue = [10426, 2643, 3327, 1601, 1949]"] ;
1 -> 7 ;
8 [label="gini = 0.663\nsamples = 19812\nvalue = [10407, 2617, 3276, 1596, 1916]"] ;
7 -> 8 ;
9 [label="X[1] <= 0.5\ngini = 0.735\nsamples = 134\nvalue = [19, 26, 51, 5, 33]"] ;
7 -> 9 ;
10 [label="gini = 0.734\nsamples = 133\nvalue = [19, 25, 51, 5, 33]"] ;
9 -> 10 ;
11 [label="gini = 0.0\nsamples = 1\nvalue = [0, 1, 0, 0, 0]"] ;
9 -> 11 ;
12 [label="X[2] <= 0.5\ngini = 0.77\nsamples = 23216\nvalue = [6356, 4735, 3741, 1767, 6617]"] ;
0 -> 12 [labeldistance=2.5, labelangle=-45, headlabel="False"] ;
13 [label="X[0] <= 0.5\ngini = 0.767\nsamples = 22557\nvalue = [6347, 4687, 3197, 1767, 6559]"] ;
12 -> 13 ;
14 [label="gini = 0.529\nsamples = 137\nvalue = [12, 90, 14, 1, 20]"] ;
13 -> 14 ;
15 [label="gini = 0.767\nsamples = 22420\nvalue = [6335, 4597, 3183, 1766, 6539]"] ;
13 -> 15 ;
16 [label="X[1] <= 0.5\ngini = 0.305\nsamples = 659\nvalue = [9, 48, 544, 0, 58]"] ;
12 -> 16 ;
17 [label="gini = 0.544\nsamples = 68\nvalue = [3, 9, 43, 0, 13]"] ;
16 -> 17 ;
18 [label="gini = 0.271\nsamples = 591\nvalue = [6, 39, 501, 0, 45]"] ;
16 -> 18 ;
}