digraph Tree {
node [shape=box] ;
0 [label="X[2] <= 0.5\ngini = 0.705\nsamples = 3200\nvalue = [1113, 582, 1177, 97, 231]"] ;
1 [label="X[1] <= 0.5\ngini = 0.548\nsamples = 422\nvalue = [266, 90, 14, 21, 31]"] ;
0 -> 1 [labeldistance=2.5, labelangle=45, headlabel="True"] ;
2 [label="X[0] <= 0.5\ngini = 0.28\nsamples = 250\nvalue = [211, 5, 6, 16, 12]"] ;
1 -> 2 ;
3 [label="gini = 0.469\nsamples = 94\nvalue = [67, 5, 6, 11, 5]"] ;
2 -> 3 ;
4 [label="gini = 0.145\nsamples = 156\nvalue = [144, 0, 0, 5, 7]"] ;
2 -> 4 ;
5 [label="X[0] <= 0.5\ngini = 0.638\nsamples = 172\nvalue = [55, 85, 8, 5, 19]"] ;
1 -> 5 ;
6 [label="gini = 0.508\nsamples = 47\nvalue = [5, 31, 0, 1, 10]"] ;
5 -> 6 ;
7 [label="gini = 0.643\nsamples = 125\nvalue = [50, 54, 8, 4, 9]"] ;
5 -> 7 ;
8 [label="X[1] <= 0.5\ngini = 0.694\nsamples = 2778\nvalue = [847, 492, 1163, 76, 200]"] ;
0 -> 8 [labeldistance=2.5, labelangle=-45, headlabel="False"] ;
9 [label="X[0] <= 0.5\ngini = 0.154\nsamples = 183\nvalue = [1, 0, 168, 5, 9]"] ;
8 -> 9 ;
10 [label="gini = 0.477\nsamples = 16\nvalue = [0, 0, 11, 2, 3]"] ;
9 -> 10 ;
11 [label="gini = 0.115\nsamples = 167\nvalue = [1, 0, 157, 3, 6]"] ;
9 -> 11 ;
12 [label="X[0] <= 0.5\ngini = 0.705\nsamples = 2595\nvalue = [846, 492, 995, 71, 191]"] ;
8 -> 12 ;
13 [label="gini = 0.0\nsamples = 3\nvalue = [0, 0, 3, 0, 0]"] ;
12 -> 13 ;
14 [label="X[3] <= 0.5\ngini = 0.705\nsamples = 2592\nvalue = [846, 492, 992, 71, 191]"] ;
12 -> 14 ;
15 [label="gini = 0.705\nsamples = 2591\nvalue = [846, 492, 991, 71, 191]"] ;
14 -> 15 ;
16 [label="gini = 0.0\nsamples = 1\nvalue = [0, 0, 1, 0, 0]"] ;
14 -> 16 ;
}