digraph Tree {
node [shape=box] ;
0 [label="X[2] <= 0.5\ngini = 0.715\nsamples = 5648\nvalue = [1688, 1162, 2154, 163, 481]"] ;
1 [label="X[1] <= 0.5\ngini = 0.696\nsamples = 701\nvalue = [310, 187, 48, 34, 122]"] ;
0 -> 1 [labeldistance=2.5, labelangle=45, headlabel="True"] ;
2 [label="X[0] <= 0.5\ngini = 0.581\nsamples = 379\nvalue = [225, 15, 32, 18, 89]"] ;
1 -> 2 ;
3 [label="X[4] <= 0.5\ngini = 0.688\nsamples = 210\nvalue = [92, 12, 30, 12, 64]"] ;
2 -> 3 ;
4 [label="gini = 0.681\nsamples = 138\nvalue = [58, 8, 17, 7, 48]"] ;
3 -> 4 ;
5 [label="gini = 0.687\nsamples = 72\nvalue = [34, 4, 13, 5, 16]"] ;
3 -> 5 ;
6 [label="X[4] <= 0.5\ngini = 0.357\nsamples = 169\nvalue = [133, 3, 2, 6, 25]"] ;
2 -> 6 ;
7 [label="gini = 0.254\nsamples = 42\nvalue = [36, 2, 0, 0, 4]"] ;
6 -> 7 ;
8 [label="gini = 0.387\nsamples = 127\nvalue = [97, 1, 2, 6, 21]"] ;
6 -> 8 ;
9 [label="X[0] <= 0.5\ngini = 0.63\nsamples = 322\nvalue = [85, 172, 16, 16, 33]"] ;
1 -> 9 ;
10 [label="gini = 0.407\nsamples = 125\nvalue = [10, 95, 4, 8, 8]"] ;
9 -> 10 ;
11 [label="X[4] <= 0.5\ngini = 0.681\nsamples = 197\nvalue = [75, 77, 12, 8, 25]"] ;
9 -> 11 ;
12 [label="gini = 0.0\nsamples = 3\nvalue = [3, 0, 0, 0, 0]"] ;
11 -> 12 ;
13 [label="gini = 0.683\nsamples = 194\nvalue = [72, 77, 12, 8, 25]"] ;
11 -> 13 ;
14 [label="X[1] <= 0.5\ngini = 0.696\nsamples = 4947\nvalue = [1378, 975, 2106, 129, 359]"] ;
0 -> 14 [labeldistance=2.5, labelangle=-45, headlabel="False"] ;
15 [label="gini = 0.119\nsamples = 256\nvalue = [3, 0, 240, 3, 10]"] ;
14 -> 15 ;
16 [label="X[4] <= 0.5\ngini = 0.706\nsamples = 4691\nvalue = [1375, 975, 1866, 126, 349]"] ;
14 -> 16 ;
17 [label="gini = 0.625\nsamples = 4\nvalue = [1, 0, 1, 2, 0]"] ;
16 -> 17 ;
18 [label="X[0] <= 0.5\ngini = 0.706\nsamples = 4687\nvalue = [1374, 975, 1865, 124, 349]"] ;
16 -> 18 ;
19 [label="gini = 0.0\nsamples = 1\nvalue = [0, 0, 1, 0, 0]"] ;
18 -> 19 ;
20 [label="gini = 0.706\nsamples = 4686\nvalue = [1374, 975, 1864, 124, 349]"] ;
18 -> 20 ;
}