digraph Tree {
node [shape=box] ;
0 [label="X[4] <= 0.5\ngini = 0.795\nsamples = 4800\nvalue = [773, 1056, 1072, 1117, 782]"] ;
1 [label="X[0] <= 0.5\ngini = 0.797\nsamples = 3019\nvalue = [573, 652, 617, 703, 474]"] ;
0 -> 1 [labeldistance=2.5, labelangle=45, headlabel="True"] ;
2 [label="X[1] <= 0.5\ngini = 0.774\nsamples = 241\nvalue = [34, 54, 79, 31, 43]"] ;
1 -> 2 ;
3 [label="gini = 0.774\nsamples = 238\nvalue = [33, 54, 78, 31, 42]"] ;
2 -> 3 ;
4 [label="gini = 0.667\nsamples = 3\nvalue = [1, 0, 1, 0, 1]"] ;
2 -> 4 ;
5 [label="X[2] <= 0.5\ngini = 0.796\nsamples = 2778\nvalue = [539, 598, 538, 672, 431]"] ;
1 -> 5 ;
6 [label="gini = 0.656\nsamples = 8\nvalue = [1, 4, 1, 2, 0]"] ;
5 -> 6 ;
7 [label="X[1] <= 0.5\ngini = 0.796\nsamples = 2770\nvalue = [538, 594, 537, 670, 431]"] ;
5 -> 7 ;
8 [label="gini = 0.796\nsamples = 2739\nvalue = [535, 587, 530, 664, 423]"] ;
7 -> 8 ;
9 [label="gini = 0.785\nsamples = 31\nvalue = [3, 7, 7, 6, 8]"] ;
7 -> 9 ;
10 [label="X[0] <= 0.5\ngini = 0.787\nsamples = 1781\nvalue = [200, 404, 455, 414, 308]"] ;
0 -> 10 [labeldistance=2.5, labelangle=-45, headlabel="False"] ;
11 [label="X[2] <= 0.5\ngini = 0.785\nsamples = 202\nvalue = [40, 50, 26, 31, 55]"] ;
10 -> 11 ;
12 [label="gini = 0.65\nsamples = 51\nvalue = [0, 14, 3, 9, 25]"] ;
11 -> 12 ;
13 [label="X[1] <= 0.5\ngini = 0.789\nsamples = 151\nvalue = [40, 36, 23, 22, 30]"] ;
11 -> 13 ;
14 [label="gini = 0.779\nsamples = 128\nvalue = [35, 34, 15, 17, 27]"] ;
13 -> 14 ;
15 [label="gini = 0.76\nsamples = 23\nvalue = [5, 2, 8, 5, 3]"] ;
13 -> 15 ;
16 [label="X[1] <= 0.5\ngini = 0.781\nsamples = 1579\nvalue = [160, 354, 429, 383, 253]"] ;
10 -> 16 ;
17 [label="gini = 0.776\nsamples = 1421\nvalue = [125, 316, 400, 354, 226]"] ;
16 -> 17 ;
18 [label="X[2] <= 0.5\ngini = 0.797\nsamples = 158\nvalue = [35, 38, 29, 29, 27]"] ;
16 -> 18 ;
19 [label="gini = 0.792\nsamples = 103\nvalue = [26, 25, 17, 17, 18]"] ;
18 -> 19 ;
20 [label="gini = 0.795\nsamples = 55\nvalue = [9, 13, 12, 12, 9]"] ;
18 -> 20 ;
}