digraph Tree {
node [shape=box] ;
0 [label="X[0] <= 0.5\ngini = 0.728\nsamples = 965\nvalue = [270, 323, 265, 38, 69]"] ;
1 [label="X[1] <= 0.5\ngini = 0.386\nsamples = 79\nvalue = [9, 61, 1, 4, 4]"] ;
0 -> 1 [labeldistance=2.5, labelangle=45, headlabel="True"] ;
2 [label="gini = 0.708\nsamples = 12\nvalue = [5, 2, 0, 3, 2]"] ;
1 -> 2 ;
3 [label="X[2] <= 0.5\ngini = 0.22\nsamples = 67\nvalue = [4, 59, 1, 1, 2]"] ;
1 -> 3 ;
4 [label="gini = 0.196\nsamples = 66\nvalue = [4, 59, 0, 1, 2]"] ;
3 -> 4 ;
5 [label="gini = 0.0\nsamples = 1\nvalue = [0, 0, 1, 0, 0]"] ;
3 -> 5 ;
6 [label="X[2] <= 0.5\ngini = 0.73\nsamples = 886\nvalue = [261, 262, 264, 34, 65]"] ;
0 -> 6 [labeldistance=2.5, labelangle=-45, headlabel="False"] ;
7 [label="X[1] <= 0.5\ngini = 0.458\nsamples = 77\nvalue = [55, 12, 1, 5, 4]"] ;
6 -> 7 ;
8 [label="gini = 0.337\nsamples = 14\nvalue = [11, 0, 0, 3, 0]"] ;
7 -> 8 ;
9 [label="X[3] <= 0.5\ngini = 0.471\nsamples = 63\nvalue = [44, 12, 1, 2, 4]"] ;
7 -> 9 ;
10 [label="gini = 0.482\nsamples = 61\nvalue = [42, 12, 1, 2, 4]"] ;
9 -> 10 ;
11 [label="gini = 0.0\nsamples = 2\nvalue = [2, 0, 0, 0, 0]"] ;
9 -> 11 ;
12 [label="X[1] <= 0.5\ngini = 0.727\nsamples = 809\nvalue = [206, 250, 263, 29, 61]"] ;
6 -> 12 ;
13 [label="gini = 0.111\nsamples = 17\nvalue = [0, 0, 16, 1, 0]"] ;
12 -> 13 ;
14 [label="gini = 0.728\nsamples = 792\nvalue = [206, 250, 247, 28, 61]"] ;
12 -> 14 ;
}