digraph Tree {
node [shape=box] ;
0 [label="X[2] <= 0.5\ngini = 0.797\nsamples = 2400\nvalue = [526, 407, 469, 428, 570]"] ;
1 [label="X[3] <= 0.5\ngini = 0.796\nsamples = 1724\nvalue = [416, 276, 337, 328, 367]"] ;
0 -> 1 [labeldistance=2.5, labelangle=45, headlabel="True"] ;
2 [label="X[0] <= 0.5\ngini = 0.796\nsamples = 1710\nvalue = [413, 273, 333, 325, 366]"] ;
1 -> 2 ;
3 [label="gini = 0.797\nsamples = 371\nvalue = [89, 64, 65, 74, 79]"] ;
2 -> 3 ;
4 [label="gini = 0.796\nsamples = 1339\nvalue = [324, 209, 268, 251, 287]"] ;
2 -> 4 ;
5 [label="X[0] <= 0.5\ngini = 0.776\nsamples = 14\nvalue = [3, 3, 4, 3, 1]"] ;
1 -> 5 ;
6 [label="gini = 0.5\nsamples = 2\nvalue = [1, 0, 0, 1, 0]"] ;
5 -> 6 ;
7 [label="gini = 0.764\nsamples = 12\nvalue = [2, 3, 4, 2, 1]"] ;
5 -> 7 ;
8 [label="X[1] <= 0.5\ngini = 0.786\nsamples = 676\nvalue = [110, 131, 132, 100, 203]"] ;
0 -> 8 [labeldistance=2.5, labelangle=-45, headlabel="False"] ;
9 [label="X[3] <= 0.5\ngini = 0.783\nsamples = 205\nvalue = [56, 27, 37, 31, 54]"] ;
8 -> 9 ;
10 [label="X[0] <= 0.5\ngini = 0.781\nsamples = 185\nvalue = [50, 22, 31, 31, 51]"] ;
9 -> 10 ;
11 [label="gini = 0.56\nsamples = 5\nvalue = [3, 1, 0, 1, 0]"] ;
10 -> 11 ;
12 [label="gini = 0.78\nsamples = 180\nvalue = [47, 21, 31, 30, 51]"] ;
10 -> 12 ;
13 [label="X[0] <= 0.5\ngini = 0.735\nsamples = 20\nvalue = [6, 5, 6, 0, 3]"] ;
9 -> 13 ;
14 [label="gini = 0.5\nsamples = 2\nvalue = [1, 0, 0, 0, 1]"] ;
13 -> 14 ;
15 [label="gini = 0.722\nsamples = 18\nvalue = [5, 5, 6, 0, 2]"] ;
13 -> 15 ;
16 [label="X[4] <= 0.5\ngini = 0.776\nsamples = 471\nvalue = [54, 104, 95, 69, 149]"] ;
8 -> 16 ;
17 [label="X[0] <= 0.5\ngini = 0.764\nsamples = 271\nvalue = [44, 58, 35, 37, 97]"] ;
16 -> 17 ;
18 [label="gini = 0.724\nsamples = 14\nvalue = [1, 6, 2, 3, 2]"] ;
17 -> 18 ;
19 [label="gini = 0.76\nsamples = 257\nvalue = [43, 52, 33, 34, 95]"] ;
17 -> 19 ;
20 [label="X[0] <= 0.5\ngini = 0.761\nsamples = 200\nvalue = [10, 46, 60, 32, 52]"] ;
16 -> 20 ;
21 [label="gini = 0.765\nsamples = 9\nvalue = [2, 1, 1, 3, 2]"] ;
20 -> 21 ;
22 [label="gini = 0.756\nsamples = 191\nvalue = [8, 45, 59, 29, 50]"] ;
20 -> 22 ;
}