digraph Tree {
node [shape=box] ;
0 [label="X[4] <= 0.5\ngini = 0.7\nsamples = 800\nvalue = [268, 130, 77, 312, 13]"] ;
1 [label="X[2] <= 0.5\ngini = 0.543\nsamples = 411\nvalue = [37, 71, 33, 264, 6]"] ;
0 -> 1 [labeldistance=2.5, labelangle=45, headlabel="True"] ;
2 [label="X[0] <= 0.5\ngini = 0.43\nsamples = 165\nvalue = [11, 27, 2, 121, 4]"] ;
1 -> 2 ;
3 [label="gini = 0.529\nsamples = 31\nvalue = [4, 6, 0, 20, 1]"] ;
2 -> 3 ;
4 [label="gini = 0.404\nsamples = 134\nvalue = [7, 21, 2, 101, 3]"] ;
2 -> 4 ;
5 [label="X[0] <= 0.5\ngini = 0.603\nsamples = 246\nvalue = [26, 44, 31, 143, 2]"] ;
1 -> 5 ;
6 [label="X[1] <= 0.5\ngini = 0.74\nsamples = 28\nvalue = [9, 5, 7, 7, 0]"] ;
5 -> 6 ;
7 [label="gini = 0.0\nsamples = 1\nvalue = [1, 0, 0, 0, 0]"] ;
6 -> 7 ;
8 [label="gini = 0.743\nsamples = 27\nvalue = [8, 5, 7, 7, 0]"] ;
6 -> 8 ;
9 [label="X[1] <= 0.5\ngini = 0.561\nsamples = 218\nvalue = [17, 39, 24, 136, 2]"] ;
5 -> 9 ;
10 [label="gini = 0.702\nsamples = 22\nvalue = [3, 3, 5, 10, 1]"] ;
9 -> 10 ;
11 [label="gini = 0.538\nsamples = 196\nvalue = [14, 36, 19, 126, 1]"] ;
9 -> 11 ;
12 [label="X[0] <= 0.5\ngini = 0.596\nsamples = 389\nvalue = [231, 59, 44, 48, 7]"] ;
0 -> 12 [labeldistance=2.5, labelangle=-45, headlabel="False"] ;
13 [label="X[1] <= 0.5\ngini = 0.659\nsamples = 19\nvalue = [5, 7, 7, 0, 0]"] ;
12 -> 13 ;
14 [label="gini = 0.444\nsamples = 3\nvalue = [2, 0, 1, 0, 0]"] ;
13 -> 14 ;
15 [label="X[2] <= 0.5\ngini = 0.633\nsamples = 16\nvalue = [3, 7, 6, 0, 0]"] ;
13 -> 15 ;
16 [label="gini = 0.444\nsamples = 3\nvalue = [1, 2, 0, 0, 0]"] ;
15 -> 16 ;
17 [label="gini = 0.615\nsamples = 13\nvalue = [2, 5, 6, 0, 0]"] ;
15 -> 17 ;
18 [label="X[1] <= 0.5\ngini = 0.58\nsamples = 370\nvalue = [226, 52, 37, 48, 7]"] ;
12 -> 18 ;
19 [label="gini = 0.749\nsamples = 29\nvalue = [9, 6, 9, 3, 2]"] ;
18 -> 19 ;
20 [label="X[2] <= 0.5\ngini = 0.552\nsamples = 341\nvalue = [217, 46, 28, 45, 5]"] ;
18 -> 20 ;
21 [label="gini = 0.478\nsamples = 143\nvalue = [100, 20, 6, 15, 2]"] ;
20 -> 21 ;
22 [label="gini = 0.598\nsamples = 198\nvalue = [117, 26, 22, 30, 3]"] ;
20 -> 22 ;
}