digraph Tree {
node [shape=box] ;
0 [label="X[3] <= 0.5\ngini = 0.789\nsamples = 2400\nvalue = [350, 681, 408, 508, 453]"] ;
1 [label="X[2] <= 0.5\ngini = 0.785\nsamples = 1068\nvalue = [149, 314, 174, 241, 190]"] ;
0 -> 1 [labeldistance=2.5, labelangle=45, headlabel="True"] ;
2 [label="X[0] <= 0.5\ngini = 0.784\nsamples = 248\nvalue = [44, 73, 34, 57, 40]"] ;
1 -> 2 ;
3 [label="X[1] <= 0.5\ngini = 0.759\nsamples = 39\nvalue = [4, 11, 3, 11, 10]"] ;
2 -> 3 ;
4 [label="gini = 0.702\nsamples = 15\nvalue = [0, 5, 1, 5, 4]"] ;
3 -> 4 ;
5 [label="gini = 0.778\nsamples = 24\nvalue = [4, 6, 2, 6, 6]"] ;
3 -> 5 ;
6 [label="X[1] <= 0.5\ngini = 0.784\nsamples = 209\nvalue = [40, 62, 31, 46, 30]"] ;
2 -> 6 ;
7 [label="gini = 0.726\nsamples = 21\nvalue = [6, 8, 2, 4, 1]"] ;
6 -> 7 ;
8 [label="gini = 0.787\nsamples = 188\nvalue = [34, 54, 29, 42, 29]"] ;
6 -> 8 ;
9 [label="X[0] <= 0.5\ngini = 0.784\nsamples = 820\nvalue = [105, 241, 140, 184, 150]"] ;
1 -> 9 ;
10 [label="X[1] <= 0.5\ngini = 0.776\nsamples = 165\nvalue = [20, 50, 28, 43, 24]"] ;
9 -> 10 ;
11 [label="gini = 0.766\nsamples = 16\nvalue = [3, 5, 4, 1, 3]"] ;
10 -> 11 ;
12 [label="gini = 0.771\nsamples = 149\nvalue = [17, 45, 24, 42, 21]"] ;
10 -> 12 ;
13 [label="X[1] <= 0.5\ngini = 0.786\nsamples = 655\nvalue = [85, 191, 112, 141, 126]"] ;
9 -> 13 ;
14 [label="gini = 0.781\nsamples = 177\nvalue = [19, 49, 27, 44, 38]"] ;
13 -> 14 ;
15 [label="gini = 0.786\nsamples = 478\nvalue = [66, 142, 85, 97, 88]"] ;
13 -> 15 ;
16 [label="X[2] <= 0.5\ngini = 0.791\nsamples = 1332\nvalue = [201, 367, 234, 267, 263]"] ;
0 -> 16 [labeldistance=2.5, labelangle=-45, headlabel="False"] ;
17 [label="X[0] <= 0.5\ngini = 0.793\nsamples = 324\nvalue = [47, 78, 53, 73, 73]"] ;
16 -> 17 ;
18 [label="X[1] <= 0.5\ngini = 0.791\nsamples = 70\nvalue = [13, 18, 10, 12, 17]"] ;
17 -> 18 ;
19 [label="gini = 0.793\nsamples = 27\nvalue = [5, 7, 4, 5, 6]"] ;
18 -> 19 ;
20 [label="gini = 0.789\nsamples = 43\nvalue = [8, 11, 6, 7, 11]"] ;
18 -> 20 ;
21 [label="X[1] <= 0.5\ngini = 0.791\nsamples = 254\nvalue = [34, 60, 43, 61, 56]"] ;
17 -> 21 ;
22 [label="gini = 0.797\nsamples = 46\nvalue = [8, 9, 8, 11, 10]"] ;
21 -> 22 ;
23 [label="gini = 0.789\nsamples = 208\nvalue = [26, 51, 35, 50, 46]"] ;
21 -> 23 ;
24 [label="X[0] <= 0.5\ngini = 0.79\nsamples = 1008\nvalue = [154, 289, 181, 194, 190]"] ;
16 -> 24 ;
25 [label="X[1] <= 0.5\ngini = 0.798\nsamples = 206\nvalue = [37, 48, 39, 38, 44]"] ;
24 -> 25 ;
26 [label="gini = 0.799\nsamples = 33\nvalue = [6, 7, 7, 6, 7]"] ;
25 -> 26 ;
27 [label="gini = 0.798\nsamples = 173\nvalue = [31, 41, 32, 32, 37]"] ;
25 -> 27 ;
28 [label="X[1] <= 0.5\ngini = 0.786\nsamples = 802\nvalue = [117, 241, 142, 156, 146]"] ;
24 -> 28 ;
29 [label="gini = 0.793\nsamples = 182\nvalue = [36, 50, 32, 32, 32]"] ;
28 -> 29 ;
30 [label="gini = 0.783\nsamples = 620\nvalue = [81, 191, 110, 124, 114]"] ;
28 -> 30 ;
}