digraph Tree {
node [shape=box] ;
0 [label="X[2] <= 0.5\ngini = 0.713\nsamples = 320\nvalue = [129, 42, 70, 78, 1]"] ;
1 [label="X[4] <= 0.5\ngini = 0.722\nsamples = 38\nvalue = [9, 14, 5, 10, 0]"] ;
0 -> 1 [labeldistance=2.5, labelangle=45, headlabel="True"] ;
2 [label="gini = 0.5\nsamples = 4\nvalue = [0, 0, 2, 2, 0]"] ;
1 -> 2 ;
3 [label="X[0] <= 0.5\ngini = 0.697\nsamples = 34\nvalue = [9, 14, 3, 8, 0]"] ;
1 -> 3 ;
4 [label="gini = 0.375\nsamples = 4\nvalue = [3, 1, 0, 0, 0]"] ;
3 -> 4 ;
5 [label="gini = 0.691\nsamples = 30\nvalue = [6, 13, 3, 8, 0]"] ;
3 -> 5 ;
6 [label="X[0] <= 0.5\ngini = 0.698\nsamples = 282\nvalue = [120, 28, 65, 68, 1]"] ;
0 -> 6 [labeldistance=2.5, labelangle=-45, headlabel="False"] ;
7 [label="X[1] <= 0.5\ngini = 0.71\nsamples = 45\nvalue = [9, 5, 15, 16, 0]"] ;
6 -> 7 ;
8 [label="gini = 0.519\nsamples = 9\nvalue = [1, 1, 6, 1, 0]"] ;
7 -> 8 ;
9 [label="X[4] <= 0.5\ngini = 0.702\nsamples = 36\nvalue = [8, 4, 9, 15, 0]"] ;
7 -> 9 ;
10 [label="gini = 0.5\nsamples = 2\nvalue = [0, 0, 1, 1, 0]"] ;
9 -> 10 ;
11 [label="gini = 0.706\nsamples = 34\nvalue = [8, 4, 8, 14, 0]"] ;
9 -> 11 ;
12 [label="X[4] <= 0.5\ngini = 0.679\nsamples = 237\nvalue = [111, 23, 50, 52, 1]"] ;
6 -> 12 ;
13 [label="X[1] <= 0.5\ngini = 0.642\nsamples = 9\nvalue = [2, 0, 3, 4, 0]"] ;
12 -> 13 ;
14 [label="gini = 0.444\nsamples = 3\nvalue = [1, 0, 2, 0, 0]"] ;
13 -> 14 ;
15 [label="gini = 0.5\nsamples = 6\nvalue = [1, 0, 1, 4, 0]"] ;
13 -> 15 ;
16 [label="X[1] <= 0.5\ngini = 0.674\nsamples = 228\nvalue = [109, 23, 47, 48, 1]"] ;
12 -> 16 ;
17 [label="gini = 0.692\nsamples = 73\nvalue = [34, 11, 13, 14, 1]"] ;
16 -> 17 ;
18 [label="gini = 0.664\nsamples = 155\nvalue = [75, 12, 34, 34, 0]"] ;
16 -> 18 ;
}