digraph Tree {
node [shape=box] ;
0 [label="X[2] <= 0.5\ngini = 0.615\nsamples = 46054\nvalue = [24933, 11308, 8015, 1721, 77]"] ;
1 [label="X[0] <= 0.5\ngini = 0.635\nsamples = 19995\nvalue = [9053, 7595, 2342, 975, 30]"] ;
0 -> 1 [labeldistance=2.5, labelangle=45, headlabel="True"] ;
2 [label="X[3] <= 0.5\ngini = 0.543\nsamples = 2807\nvalue = [1779, 316, 557, 153, 2]"] ;
1 -> 2 ;
3 [label="gini = 0.542\nsamples = 2799\nvalue = [1776, 316, 557, 148, 2]"] ;
2 -> 3 ;
4 [label="gini = 0.469\nsamples = 8\nvalue = [3, 0, 0, 5, 0]"] ;
2 -> 4 ;
5 [label="X[4] <= 0.5\ngini = 0.628\nsamples = 17188\nvalue = [7274, 7279, 1785, 822, 28]"] ;
1 -> 5 ;
6 [label="gini = 0.226\nsamples = 56\nvalue = [1, 5, 1, 49, 0]"] ;
5 -> 6 ;
7 [label="gini = 0.627\nsamples = 17132\nvalue = [7273, 7274, 1784, 773, 28]"] ;
5 -> 7 ;
8 [label="X[0] <= 0.5\ngini = 0.56\nsamples = 26059\nvalue = [15880, 3713, 5673, 746, 47]"] ;
0 -> 8 [labeldistance=2.5, labelangle=-45, headlabel="False"] ;
9 [label="X[3] <= 0.5\ngini = 0.679\nsamples = 4277\nvalue = [1635, 1402, 1105, 125, 10]"] ;
8 -> 9 ;
10 [label="X[1] <= 0.5\ngini = 0.677\nsamples = 4264\nvalue = [1635, 1402, 1104, 113, 10]"] ;
9 -> 10 ;
11 [label="gini = 0.677\nsamples = 4263\nvalue = [1635, 1402, 1103, 113, 10]"] ;
10 -> 11 ;
12 [label="gini = 0.0\nsamples = 1\nvalue = [0, 0, 1, 0, 0]"] ;
10 -> 12 ;
13 [label="gini = 0.142\nsamples = 13\nvalue = [0, 0, 1, 12, 0]"] ;
9 -> 13 ;
14 [label="X[3] <= 0.5\ngini = 0.516\nsamples = 21782\nvalue = [14245, 2311, 4568, 621, 37]"] ;
8 -> 14 ;
15 [label="X[1] <= 0.5\ngini = 0.514\nsamples = 21701\nvalue = [14233, 2309, 4563, 559, 37]"] ;
14 -> 15 ;
16 [label="gini = 0.514\nsamples = 21685\nvalue = [14217, 2309, 4563, 559, 37]"] ;
15 -> 16 ;
17 [label="gini = 0.0\nsamples = 16\nvalue = [16, 0, 0, 0, 0]"] ;
15 -> 17 ;
18 [label="X[1] <= 0.5\ngini = 0.388\nsamples = 81\nvalue = [12, 2, 5, 62, 0]"] ;
14 -> 18 ;
19 [label="gini = 0.403\nsamples = 77\nvalue = [12, 2, 5, 58, 0]"] ;
18 -> 19 ;
20 [label="gini = 0.0\nsamples = 4\nvalue = [0, 0, 0, 4, 0]"] ;
18 -> 20 ;
}