digraph Tree {
node [shape=box] ;
0 [label="X[3] <= 0.5\ngini = 0.215\nsamples = 27414\nvalue = [1299, 1753, 24192, 170]"] ;
1 [label="X[0] <= 0.5\ngini = 0.214\nsamples = 25092\nvalue = [1156, 1623, 22159, 154]"] ;
0 -> 1 [labeldistance=2.5, labelangle=45, headlabel="True"] ;
2 [label="gini = 0.223\nsamples = 5605\nvalue = [283, 358, 4919, 45]"] ;
1 -> 2 ;
3 [label="gini = 0.211\nsamples = 19487\nvalue = [873, 1265, 17240, 109]"] ;
1 -> 3 ;
4 [label="gini = 0.226\nsamples = 2322\nvalue = [143, 130, 2033, 16]"] ;
0 -> 4 [labeldistance=2.5, labelangle=-45, headlabel="False"] ;
}