digraph Tree {
node [shape=box] ;
0 [label="X[1] <= 0.5\ngini = 0.63\nsamples = 3572\nvalue = [1999, 577, 469, 399, 128]"] ;
1 [label="X[2] <= 0.5\ngini = 0.603\nsamples = 2607\nvalue = [1543, 262, 350, 336, 116]"] ;
0 -> 1 [labeldistance=2.5, labelangle=45, headlabel="True"] ;
2 [label="X[0] <= 0.5\ngini = 0.549\nsamples = 2038\nvalue = [1316, 216, 173, 234, 99]"] ;
1 -> 2 ;
3 [label="gini = 0.459\nsamples = 400\nvalue = [287, 25, 52, 29, 7]"] ;
2 -> 3 ;
4 [label="gini = 0.567\nsamples = 1638\nvalue = [1029, 191, 121, 205, 92]"] ;
2 -> 4 ;
5 [label="X[0] <= 0.5\ngini = 0.705\nsamples = 569\nvalue = [227, 46, 177, 102, 17]"] ;
1 -> 5 ;
6 [label="gini = 0.709\nsamples = 182\nvalue = [48, 21, 76, 33, 4]"] ;
5 -> 6 ;
7 [label="gini = 0.681\nsamples = 387\nvalue = [179, 25, 101, 69, 13]"] ;
5 -> 7 ;
8 [label="X[2] <= 0.5\ngini = 0.651\nsamples = 965\nvalue = [456, 315, 119, 63, 12]"] ;
0 -> 8 [labeldistance=2.5, labelangle=-45, headlabel="False"] ;
9 [label="X[0] <= 0.5\ngini = 0.646\nsamples = 806\nvalue = [350, 315, 69, 60, 12]"] ;
8 -> 9 ;
10 [label="gini = 0.614\nsamples = 237\nvalue = [95, 110, 6, 23, 3]"] ;
9 -> 10 ;
11 [label="X[3] <= 0.5\ngini = 0.653\nsamples = 569\nvalue = [255, 205, 63, 37, 9]"] ;
9 -> 11 ;
12 [label="gini = 0.652\nsamples = 566\nvalue = [255, 203, 63, 36, 9]"] ;
11 -> 12 ;
13 [label="gini = 0.444\nsamples = 3\nvalue = [0, 2, 0, 1, 0]"] ;
11 -> 13 ;
14 [label="X[0] <= 0.5\ngini = 0.456\nsamples = 159\nvalue = [106, 0, 50, 3, 0]"] ;
8 -> 14 ;
15 [label="gini = 0.524\nsamples = 40\nvalue = [20, 0, 19, 1, 0]"] ;
14 -> 15 ;
16 [label="gini = 0.41\nsamples = 119\nvalue = [86, 0, 31, 2, 0]"] ;
14 -> 16 ;
}