digraph Tree {
node [shape=box] ;
0 [label="X[0] <= 0.5\ngini = 0.795\nsamples = 800\nvalue = [132, 148, 184, 138, 198]"] ;
1 [label="X[2] <= 0.5\ngini = 0.776\nsamples = 76\nvalue = [17, 13, 6, 20, 20]"] ;
0 -> 1 [labeldistance=2.5, labelangle=45, headlabel="True"] ;
2 [label="X[3] <= 0.5\ngini = 0.278\nsamples = 6\nvalue = [1, 0, 0, 5, 0]"] ;
1 -> 2 ;
3 [label="gini = 0.0\nsamples = 4\nvalue = [0, 0, 0, 4, 0]"] ;
2 -> 3 ;
4 [label="gini = 0.5\nsamples = 2\nvalue = [1, 0, 0, 1, 0]"] ;
2 -> 4 ;
5 [label="X[4] <= 0.5\ngini = 0.778\nsamples = 70\nvalue = [16, 13, 6, 15, 20]"] ;
1 -> 5 ;
6 [label="X[1] <= 0.5\ngini = 0.711\nsamples = 36\nvalue = [6, 7, 0, 15, 8]"] ;
5 -> 6 ;
7 [label="gini = 0.0\nsamples = 2\nvalue = [0, 0, 0, 2, 0]"] ;
6 -> 7 ;
8 [label="gini = 0.725\nsamples = 34\nvalue = [6, 7, 0, 13, 8]"] ;
6 -> 8 ;
9 [label="X[1] <= 0.5\ngini = 0.727\nsamples = 34\nvalue = [10, 6, 6, 0, 12]"] ;
5 -> 9 ;
10 [label="gini = 0.444\nsamples = 3\nvalue = [0, 1, 2, 0, 0]"] ;
9 -> 10 ;
11 [label="gini = 0.703\nsamples = 31\nvalue = [10, 5, 4, 0, 12]"] ;
9 -> 11 ;
12 [label="X[1] <= 0.5\ngini = 0.793\nsamples = 724\nvalue = [115, 135, 178, 118, 178]"] ;
0 -> 12 [labeldistance=2.5, labelangle=-45, headlabel="False"] ;
13 [label="X[4] <= 0.5\ngini = 0.772\nsamples = 49\nvalue = [13, 14, 6, 11, 5]"] ;
12 -> 13 ;
14 [label="gini = 0.745\nsamples = 20\nvalue = [3, 8, 4, 3, 2]"] ;
13 -> 14 ;
15 [label="gini = 0.747\nsamples = 29\nvalue = [10, 6, 2, 8, 3]"] ;
13 -> 15 ;
16 [label="X[3] <= 0.5\ngini = 0.789\nsamples = 675\nvalue = [102, 121, 172, 107, 173]"] ;
12 -> 16 ;
17 [label="X[2] <= 0.5\ngini = 0.784\nsamples = 331\nvalue = [37, 65, 81, 57, 91]"] ;
16 -> 17 ;
18 [label="gini = 0.744\nsamples = 22\nvalue = [7, 4, 7, 1, 3]"] ;
17 -> 18 ;
19 [label="gini = 0.78\nsamples = 309\nvalue = [30, 61, 74, 56, 88]"] ;
17 -> 19 ;
20 [label="X[2] <= 0.5\ngini = 0.79\nsamples = 344\nvalue = [65, 56, 91, 50, 82]"] ;
16 -> 20 ;
21 [label="gini = 0.745\nsamples = 20\nvalue = [3, 4, 2, 3, 8]"] ;
20 -> 21 ;
22 [label="gini = 0.789\nsamples = 324\nvalue = [62, 52, 89, 47, 74]"] ;
20 -> 22 ;
}