digraph Tree {
node [shape=box] ;
0 [label="X[4] <= 0.5\ngini = 0.727\nsamples = 800\nvalue = [264, 130, 99, 279, 28]"] ;
1 [label="X[1] <= 0.5\ngini = 0.63\nsamples = 388\nvalue = [43, 67, 46, 217, 15]"] ;
0 -> 1 [labeldistance=2.5, labelangle=45, headlabel="True"] ;
2 [label="X[0] <= 0.5\ngini = 0.766\nsamples = 29\nvalue = [6, 3, 10, 4, 6]"] ;
1 -> 2 ;
3 [label="gini = 0.694\nsamples = 7\nvalue = [3, 1, 0, 1, 2]"] ;
2 -> 3 ;
4 [label="gini = 0.715\nsamples = 22\nvalue = [3, 2, 10, 3, 4]"] ;
2 -> 4 ;
5 [label="X[0] <= 0.5\ngini = 0.595\nsamples = 359\nvalue = [37, 64, 36, 213, 9]"] ;
1 -> 5 ;
6 [label="X[2] <= 0.5\ngini = 0.739\nsamples = 49\nvalue = [11, 15, 4, 16, 3]"] ;
5 -> 6 ;
7 [label="gini = 0.705\nsamples = 20\nvalue = [4, 9, 1, 4, 2]"] ;
6 -> 7 ;
8 [label="gini = 0.716\nsamples = 29\nvalue = [7, 6, 3, 12, 1]"] ;
6 -> 8 ;
9 [label="X[2] <= 0.5\ngini = 0.553\nsamples = 310\nvalue = [26, 49, 32, 197, 6]"] ;
5 -> 9 ;
10 [label="gini = 0.486\nsamples = 142\nvalue = [9, 25, 6, 98, 4]"] ;
9 -> 10 ;
11 [label="gini = 0.598\nsamples = 168\nvalue = [17, 24, 26, 99, 2]"] ;
9 -> 11 ;
12 [label="X[2] <= 0.5\ngini = 0.649\nsamples = 412\nvalue = [221, 63, 53, 62, 13]"] ;
0 -> 12 [labeldistance=2.5, labelangle=-45, headlabel="False"] ;
13 [label="X[0] <= 0.5\ngini = 0.508\nsamples = 155\nvalue = [104, 17, 4, 26, 4]"] ;
12 -> 13 ;
14 [label="gini = 0.375\nsamples = 4\nvalue = [1, 3, 0, 0, 0]"] ;
13 -> 14 ;
15 [label="gini = 0.495\nsamples = 151\nvalue = [103, 14, 4, 26, 4]"] ;
13 -> 15 ;
16 [label="X[1] <= 0.5\ngini = 0.704\nsamples = 257\nvalue = [117, 46, 49, 36, 9]"] ;
12 -> 16 ;
17 [label="gini = 0.667\nsamples = 27\nvalue = [9, 4, 12, 1, 1]"] ;
16 -> 17 ;
18 [label="X[0] <= 0.5\ngini = 0.696\nsamples = 230\nvalue = [108, 42, 37, 35, 8]"] ;
16 -> 18 ;
19 [label="gini = 0.707\nsamples = 22\nvalue = [7, 8, 5, 0, 2]"] ;
18 -> 19 ;
20 [label="gini = 0.685\nsamples = 208\nvalue = [101, 34, 32, 35, 6]"] ;
18 -> 20 ;
}