digraph Tree {
node [shape=box] ;
0 [label="X[3] <= 0.5\ngini = 0.21\nsamples = 10359\nvalue = [454, 661, 9172, 72]"] ;
1 [label="X[0] <= 0.5\ngini = 0.213\nsamples = 9454\nvalue = [418, 618, 8353, 65]"] ;
0 -> 1 [labeldistance=2.5, labelangle=45, headlabel="True"] ;
2 [label="gini = 0.218\nsamples = 2089\nvalue = [81, 154, 1839, 15]"] ;
1 -> 2 ;
3 [label="gini = 0.212\nsamples = 7365\nvalue = [337, 464, 6514, 50]"] ;
1 -> 3 ;
4 [label="gini = 0.177\nsamples = 905\nvalue = [36, 43, 819, 7]"] ;
0 -> 4 [labeldistance=2.5, labelangle=-45, headlabel="False"] ;
}