digraph Tree {
node [shape=box] ;
0 [label="X[3] <= 0.5\ngini = 0.751\nsamples = 51892\nvalue = [19711, 9590, 9182, 3916, 9493]"] ;
1 [label="X[0] <= 0.5\ngini = 0.691\nsamples = 27035\nvalue = [13130, 4060, 4941, 2109, 2795]"] ;
0 -> 1 [labeldistance=2.5, labelangle=45, headlabel="True"] ;
2 [label="X[2] <= 0.5\ngini = 0.765\nsamples = 2015\nvalue = [523, 607, 472, 160, 253]"] ;
1 -> 2 ;
3 [label="gini = 0.765\nsamples = 2014\nvalue = [523, 607, 471, 160, 253]"] ;
2 -> 3 ;
4 [label="gini = 0.0\nsamples = 1\nvalue = [0, 0, 1, 0, 0]"] ;
2 -> 4 ;
5 [label="X[2] <= 0.5\ngini = 0.679\nsamples = 25020\nvalue = [12607, 3453, 4469, 1949, 2542]"] ;
1 -> 5 ;
6 [label="gini = 0.679\nsamples = 25015\nvalue = [12607, 3453, 4464, 1949, 2542]"] ;
5 -> 6 ;
7 [label="gini = 0.0\nsamples = 5\nvalue = [0, 0, 5, 0, 0]"] ;
5 -> 7 ;
8 [label="X[2] <= 0.5\ngini = 0.773\nsamples = 24857\nvalue = [6581, 5530, 4241, 1807, 6698]"] ;
0 -> 8 [labeldistance=2.5, labelangle=-45, headlabel="False"] ;
9 [label="X[0] <= 0.5\ngini = 0.772\nsamples = 24595\nvalue = [6575, 5520, 4011, 1807, 6682]"] ;
8 -> 9 ;
10 [label="gini = 0.53\nsamples = 184\nvalue = [7, 120, 25, 3, 29]"] ;
9 -> 10 ;
11 [label="gini = 0.772\nsamples = 24411\nvalue = [6568, 5400, 3986, 1804, 6653]"] ;
9 -> 11 ;
12 [label="gini = 0.224\nsamples = 262\nvalue = [6, 10, 230, 0, 16]"] ;
8 -> 12 ;
}