digraph Tree {
node [shape=box] ;
0 [label="X[4] <= 0.5\ngini = 0.789\nsamples = 2400\nvalue = [346, 654, 415, 555, 430]"] ;
1 [label="X[1] <= 0.5\ngini = 0.787\nsamples = 1356\nvalue = [199, 374, 228, 330, 225]"] ;
0 -> 1 [labeldistance=2.5, labelangle=45, headlabel="True"] ;
2 [label="X[2] <= 0.5\ngini = 0.785\nsamples = 453\nvalue = [66, 118, 68, 123, 78]"] ;
1 -> 2 ;
3 [label="X[0] <= 0.5\ngini = 0.785\nsamples = 177\nvalue = [24, 48, 28, 46, 31]"] ;
2 -> 3 ;
4 [label="gini = 0.786\nsamples = 73\nvalue = [11, 22, 12, 15, 13]"] ;
3 -> 4 ;
5 [label="gini = 0.779\nsamples = 104\nvalue = [13, 26, 16, 31, 18]"] ;
3 -> 5 ;
6 [label="X[0] <= 0.5\ngini = 0.785\nsamples = 276\nvalue = [42, 70, 40, 77, 47]"] ;
2 -> 6 ;
7 [label="gini = 0.77\nsamples = 95\nvalue = [14, 24, 11, 31, 15]"] ;
6 -> 7 ;
8 [label="gini = 0.79\nsamples = 181\nvalue = [28, 46, 29, 46, 32]"] ;
6 -> 8 ;
9 [label="X[0] <= 0.5\ngini = 0.787\nsamples = 903\nvalue = [133, 256, 160, 207, 147]"] ;
1 -> 9 ;
10 [label="X[2] <= 0.5\ngini = 0.794\nsamples = 268\nvalue = [40, 69, 50, 55, 54]"] ;
9 -> 10 ;
11 [label="gini = 0.794\nsamples = 90\nvalue = [13, 23, 19, 18, 17]"] ;
10 -> 11 ;
12 [label="gini = 0.793\nsamples = 178\nvalue = [27, 46, 31, 37, 37]"] ;
10 -> 12 ;
13 [label="X[2] <= 0.5\ngini = 0.783\nsamples = 635\nvalue = [93, 187, 110, 152, 93]"] ;
9 -> 13 ;
14 [label="gini = 0.78\nsamples = 182\nvalue = [26, 54, 38, 42, 22]"] ;
13 -> 14 ;
15 [label="gini = 0.783\nsamples = 453\nvalue = [67, 133, 72, 110, 71]"] ;
13 -> 15 ;
16 [label="X[2] <= 0.5\ngini = 0.791\nsamples = 1044\nvalue = [147, 280, 187, 225, 205]"] ;
0 -> 16 [labeldistance=2.5, labelangle=-45, headlabel="False"] ;
17 [label="X[0] <= 0.5\ngini = 0.789\nsamples = 296\nvalue = [37, 75, 51, 73, 60]"] ;
16 -> 17 ;
18 [label="X[1] <= 0.5\ngini = 0.779\nsamples = 82\nvalue = [11, 22, 9, 20, 20]"] ;
17 -> 18 ;
19 [label="gini = 0.777\nsamples = 38\nvalue = [6, 11, 4, 7, 10]"] ;
18 -> 19 ;
20 [label="gini = 0.773\nsamples = 44\nvalue = [5, 11, 5, 13, 10]"] ;
18 -> 20 ;
21 [label="X[1] <= 0.5\ngini = 0.789\nsamples = 214\nvalue = [26, 53, 42, 53, 40]"] ;
17 -> 21 ;
22 [label="gini = 0.769\nsamples = 85\nvalue = [7, 18, 16, 28, 16]"] ;
21 -> 22 ;
23 [label="gini = 0.792\nsamples = 129\nvalue = [19, 35, 26, 25, 24]"] ;
21 -> 23 ;
24 [label="X[1] <= 0.5\ngini = 0.791\nsamples = 748\nvalue = [110, 205, 136, 152, 145]"] ;
16 -> 24 ;
25 [label="X[0] <= 0.5\ngini = 0.785\nsamples = 211\nvalue = [28, 62, 42, 34, 45]"] ;
24 -> 25 ;
26 [label="gini = 0.79\nsamples = 64\nvalue = [10, 16, 9, 13, 16]"] ;
25 -> 26 ;
27 [label="gini = 0.777\nsamples = 147\nvalue = [18, 46, 33, 21, 29]"] ;
25 -> 27 ;
28 [label="X[0] <= 0.5\ngini = 0.792\nsamples = 537\nvalue = [82, 143, 94, 118, 100]"] ;
24 -> 28 ;
29 [label="gini = 0.786\nsamples = 182\nvalue = [31, 51, 34, 43, 23]"] ;
28 -> 29 ;
30 [label="gini = 0.792\nsamples = 355\nvalue = [51, 92, 60, 75, 77]"] ;
28 -> 30 ;
}