digraph Tree {
node [shape=box] ;
0 [label="X[2] <= 0.5\ngini = 0.754\nsamples = 1575\nvalue = [419, 462, 419, 73, 202]"] ;
1 [label="X[0] <= 0.5\ngini = 0.74\nsamples = 304\nvalue = [93, 94, 20, 22, 75]"] ;
0 -> 1 [labeldistance=2.5, labelangle=45, headlabel="True"] ;
2 [label="X[1] <= 0.5\ngini = 0.669\nsamples = 126\nvalue = [9, 64, 15, 11, 27]"] ;
1 -> 2 ;
3 [label="gini = 0.771\nsamples = 58\nvalue = [8, 11, 15, 6, 18]"] ;
2 -> 3 ;
4 [label="X[3] <= 0.5\ngini = 0.369\nsamples = 68\nvalue = [1, 53, 0, 5, 9]"] ;
2 -> 4 ;
5 [label="gini = 0.363\nsamples = 65\nvalue = [1, 51, 0, 5, 8]"] ;
4 -> 5 ;
6 [label="gini = 0.444\nsamples = 3\nvalue = [0, 2, 0, 0, 1]"] ;
4 -> 6 ;
7 [label="X[1] <= 0.5\ngini = 0.672\nsamples = 178\nvalue = [84, 30, 5, 11, 48]"] ;
1 -> 7 ;
8 [label="gini = 0.511\nsamples = 73\nvalue = [45, 2, 1, 1, 24]"] ;
7 -> 8 ;
9 [label="X[3] <= 0.5\ngini = 0.728\nsamples = 105\nvalue = [39, 28, 4, 10, 24]"] ;
7 -> 9 ;
10 [label="gini = 0.733\nsamples = 98\nvalue = [35, 28, 4, 10, 21]"] ;
9 -> 10 ;
11 [label="gini = 0.49\nsamples = 7\nvalue = [4, 0, 0, 0, 3]"] ;
9 -> 11 ;
12 [label="X[1] <= 0.5\ngini = 0.74\nsamples = 1271\nvalue = [326, 368, 399, 51, 127]"] ;
0 -> 12 [labeldistance=2.5, labelangle=-45, headlabel="False"] ;
13 [label="gini = 0.16\nsamples = 70\nvalue = [1, 0, 64, 1, 4]"] ;
12 -> 13 ;
14 [label="X[0] <= 0.5\ngini = 0.743\nsamples = 1201\nvalue = [325, 368, 335, 50, 123]"] ;
12 -> 14 ;
15 [label="gini = 0.0\nsamples = 3\nvalue = [0, 0, 3, 0, 0]"] ;
14 -> 15 ;
16 [label="X[3] <= 0.5\ngini = 0.743\nsamples = 1198\nvalue = [325, 368, 332, 50, 123]"] ;
14 -> 16 ;
17 [label="gini = 0.743\nsamples = 1197\nvalue = [324, 368, 332, 50, 123]"] ;
16 -> 17 ;
18 [label="gini = 0.0\nsamples = 1\nvalue = [1, 0, 0, 0, 0]"] ;
16 -> 18 ;
}