digraph Tree {
node [shape=box] ;
0 [label="X[2] <= 0.5\ngini = 0.774\nsamples = 37740\nvalue = [11737, 7644, 7602, 3160, 7597]"] ;
1 [label="X[3] <= 0.5\ngini = 0.771\nsamples = 35710\nvalue = [11633, 7415, 6463, 3112, 7087]"] ;
0 -> 1 [labeldistance=2.5, labelangle=45, headlabel="True"] ;
2 [label="X[0] <= 0.5\ngini = 0.744\nsamples = 18249\nvalue = [7236, 3289, 3747, 1653, 2324]"] ;
1 -> 2 ;
3 [label="gini = 0.77\nsamples = 1788\nvalue = [523, 500, 347, 171, 247]"] ;
2 -> 3 ;
4 [label="gini = 0.738\nsamples = 16461\nvalue = [6713, 2789, 3400, 1482, 2077]"] ;
2 -> 4 ;
5 [label="X[0] <= 0.5\ngini = 0.775\nsamples = 17461\nvalue = [4397, 4126, 2716, 1459, 4763]"] ;
1 -> 5 ;
6 [label="gini = 0.521\nsamples = 503\nvalue = [23, 95, 46, 8, 331]"] ;
5 -> 6 ;
7 [label="gini = 0.777\nsamples = 16958\nvalue = [4374, 4031, 2670, 1451, 4432]"] ;
5 -> 7 ;
8 [label="X[1] <= 0.5\ngini = 0.606\nsamples = 2030\nvalue = [104, 229, 1139, 48, 510]"] ;
0 -> 8 [labeldistance=2.5, labelangle=-45, headlabel="False"] ;
9 [label="X[4] <= 0.5\ngini = 0.733\nsamples = 914\nvalue = [93, 167, 320, 48, 286]"] ;
8 -> 9 ;
10 [label="gini = 0.684\nsamples = 513\nvalue = [32, 100, 234, 16, 131]"] ;
9 -> 10 ;
11 [label="X[0] <= 0.5\ngini = 0.747\nsamples = 401\nvalue = [61, 67, 86, 32, 155]"] ;
9 -> 11 ;
12 [label="gini = 0.0\nsamples = 2\nvalue = [0, 0, 2, 0, 0]"] ;
11 -> 12 ;
13 [label="gini = 0.747\nsamples = 399\nvalue = [61, 67, 84, 32, 155]"] ;
11 -> 13 ;
14 [label="X[0] <= 0.5\ngini = 0.418\nsamples = 1116\nvalue = [11, 62, 819, 0, 224]"] ;
8 -> 14 ;
15 [label="gini = 0.0\nsamples = 1\nvalue = [0, 1, 0, 0, 0]"] ;
14 -> 15 ;
16 [label="X[4] <= 0.5\ngini = 0.417\nsamples = 1115\nvalue = [11, 61, 819, 0, 224]"] ;
14 -> 16 ;
17 [label="gini = 0.417\nsamples = 1114\nvalue = [11, 61, 818, 0, 224]"] ;
16 -> 17 ;
18 [label="gini = 0.0\nsamples = 1\nvalue = [0, 0, 1, 0, 0]"] ;
16 -> 18 ;
}