digraph Tree {
node [shape=box] ;
0 [label="X[4] <= 0.5\ngini = 0.717\nsamples = 800\nvalue = [220, 167, 84, 312, 17]"] ;
1 [label="X[1] <= 0.5\ngini = 0.55\nsamples = 373\nvalue = [35, 72, 21, 236, 9]"] ;
0 -> 1 [labeldistance=2.5, labelangle=45, headlabel="True"] ;
2 [label="X[0] <= 0.5\ngini = 0.735\nsamples = 18\nvalue = [7, 5, 2, 2, 2]"] ;
1 -> 2 ;
3 [label="gini = 0.0\nsamples = 2\nvalue = [2, 0, 0, 0, 0]"] ;
2 -> 3 ;
4 [label="gini = 0.758\nsamples = 16\nvalue = [5, 5, 2, 2, 2]"] ;
2 -> 4 ;
5 [label="X[0] <= 0.5\ngini = 0.52\nsamples = 355\nvalue = [28, 67, 19, 234, 7]"] ;
1 -> 5 ;
6 [label="X[2] <= 0.5\ngini = 0.593\nsamples = 48\nvalue = [6, 15, 1, 26, 0]"] ;
5 -> 6 ;
7 [label="gini = 0.622\nsamples = 14\nvalue = [4, 7, 0, 3, 0]"] ;
6 -> 7 ;
8 [label="gini = 0.483\nsamples = 34\nvalue = [2, 8, 1, 23, 0]"] ;
6 -> 8 ;
9 [label="X[2] <= 0.5\ngini = 0.503\nsamples = 307\nvalue = [22, 52, 18, 208, 7]"] ;
5 -> 9 ;
10 [label="gini = 0.413\nsamples = 140\nvalue = [11, 18, 5, 105, 1]"] ;
9 -> 10 ;
11 [label="gini = 0.566\nsamples = 167\nvalue = [11, 34, 13, 103, 6]"] ;
9 -> 11 ;
12 [label="X[1] <= 0.5\ngini = 0.709\nsamples = 427\nvalue = [185, 95, 63, 76, 8]"] ;
0 -> 12 [labeldistance=2.5, labelangle=-45, headlabel="False"] ;
13 [label="gini = 0.659\nsamples = 34\nvalue = [5, 13, 14, 2, 0]"] ;
12 -> 13 ;
14 [label="X[0] <= 0.5\ngini = 0.695\nsamples = 393\nvalue = [180, 82, 49, 74, 8]"] ;
12 -> 14 ;
15 [label="X[2] <= 0.5\ngini = 0.635\nsamples = 32\nvalue = [10, 15, 7, 0, 0]"] ;
14 -> 15 ;
16 [label="gini = 0.469\nsamples = 8\nvalue = [3, 5, 0, 0, 0]"] ;
15 -> 16 ;
17 [label="gini = 0.656\nsamples = 24\nvalue = [7, 10, 7, 0, 0]"] ;
15 -> 17 ;
18 [label="X[2] <= 0.5\ngini = 0.688\nsamples = 361\nvalue = [170, 67, 42, 74, 8]"] ;
14 -> 18 ;
19 [label="gini = 0.65\nsamples = 173\nvalue = [88, 31, 6, 41, 7]"] ;
18 -> 19 ;
20 [label="gini = 0.706\nsamples = 188\nvalue = [82, 36, 36, 33, 1]"] ;
18 -> 20 ;
}