digraph Tree {
node [shape=box] ;
0 [label="X[4] <= 0.5\ngini = 0.715\nsamples = 3145\nvalue = [1427, 453, 543, 246, 476]"] ;
1 [label="X[0] <= 0.5\ngini = 0.751\nsamples = 1004\nvalue = [238, 177, 179, 51, 359]"] ;
0 -> 1 [labeldistance=2.5, labelangle=45, headlabel="True"] ;
2 [label="X[1] <= 0.5\ngini = 0.683\nsamples = 71\nvalue = [12, 16, 34, 4, 5]"] ;
1 -> 2 ;
3 [label="gini = 0.0\nsamples = 1\nvalue = [0, 1, 0, 0, 0]"] ;
2 -> 3 ;
4 [label="X[2] <= 0.5\ngini = 0.68\nsamples = 70\nvalue = [12, 15, 34, 4, 5]"] ;
2 -> 4 ;
5 [label="gini = 0.676\nsamples = 63\nvalue = [11, 13, 31, 3, 5]"] ;
4 -> 5 ;
6 [label="gini = 0.694\nsamples = 7\nvalue = [1, 2, 3, 1, 0]"] ;
4 -> 6 ;
7 [label="X[2] <= 0.5\ngini = 0.741\nsamples = 933\nvalue = [226, 161, 145, 47, 354]"] ;
1 -> 7 ;
8 [label="gini = 0.74\nsamples = 769\nvalue = [219, 109, 117, 44, 280]"] ;
7 -> 8 ;
9 [label="X[1] <= 0.5\ngini = 0.665\nsamples = 164\nvalue = [7, 52, 28, 3, 74]"] ;
7 -> 9 ;
10 [label="gini = 0.783\nsamples = 28\nvalue = [5, 8, 6, 3, 6]"] ;
9 -> 10 ;
11 [label="gini = 0.619\nsamples = 136\nvalue = [2, 44, 22, 0, 68]"] ;
9 -> 11 ;
12 [label="X[0] <= 0.5\ngini = 0.635\nsamples = 2141\nvalue = [1189, 276, 364, 195, 117]"] ;
0 -> 12 [labeldistance=2.5, labelangle=-45, headlabel="False"] ;
13 [label="X[2] <= 0.5\ngini = 0.75\nsamples = 161\nvalue = [51, 47, 35, 19, 9]"] ;
12 -> 13 ;
14 [label="gini = 0.749\nsamples = 156\nvalue = [51, 44, 34, 18, 9]"] ;
13 -> 14 ;
15 [label="X[1] <= 0.5\ngini = 0.56\nsamples = 5\nvalue = [0, 3, 1, 1, 0]"] ;
13 -> 15 ;
16 [label="gini = 0.444\nsamples = 3\nvalue = [0, 2, 0, 1, 0]"] ;
15 -> 16 ;
17 [label="gini = 0.5\nsamples = 2\nvalue = [0, 1, 1, 0, 0]"] ;
15 -> 17 ;
18 [label="X[2] <= 0.5\ngini = 0.618\nsamples = 1980\nvalue = [1138, 229, 329, 176, 108]"] ;
12 -> 18 ;
19 [label="gini = 0.613\nsamples = 1957\nvalue = [1136, 216, 324, 175, 106]"] ;
18 -> 19 ;
20 [label="X[1] <= 0.5\ngini = 0.616\nsamples = 23\nvalue = [2, 13, 5, 1, 2]"] ;
18 -> 20 ;
21 [label="gini = 0.625\nsamples = 4\nvalue = [1, 0, 0, 1, 2]"] ;
20 -> 21 ;
22 [label="gini = 0.46\nsamples = 19\nvalue = [1, 13, 5, 0, 0]"] ;
20 -> 22 ;
}