digraph Tree {
node [shape=box] ;
0 [label="X[2] <= 0.5\ngini = 0.777\nsamples = 35804\nvalue = [10464, 7833, 7712, 3020, 6775]"] ;
1 [label="X[4] <= 0.5\ngini = 0.776\nsamples = 33887\nvalue = [10310, 7573, 6566, 2965, 6473]"] ;
0 -> 1 [labeldistance=2.5, labelangle=45, headlabel="True"] ;
2 [label="X[0] <= 0.5\ngini = 0.781\nsamples = 18110\nvalue = [4370, 4509, 3269, 1589, 4373]"] ;
1 -> 2 ;
3 [label="gini = 0.714\nsamples = 260\nvalue = [34, 116, 35, 19, 56]"] ;
2 -> 3 ;
4 [label="gini = 0.781\nsamples = 17850\nvalue = [4336, 4393, 3234, 1570, 4317]"] ;
2 -> 4 ;
5 [label="X[0] <= 0.5\ngini = 0.752\nsamples = 15777\nvalue = [5940, 3064, 3297, 1376, 2100]"] ;
1 -> 5 ;
6 [label="gini = 0.773\nsamples = 1566\nvalue = [425, 462, 283, 155, 241]"] ;
5 -> 6 ;
7 [label="gini = 0.746\nsamples = 14211\nvalue = [5515, 2602, 3014, 1221, 1859]"] ;
5 -> 7 ;
8 [label="X[1] <= 0.5\ngini = 0.592\nsamples = 1917\nvalue = [154, 260, 1146, 55, 302]"] ;
0 -> 8 [labeldistance=2.5, labelangle=-45, headlabel="False"] ;
9 [label="X[3] <= 0.5\ngini = 0.74\nsamples = 1030\nvalue = [142, 217, 385, 44, 242]"] ;
8 -> 9 ;
10 [label="gini = 0.761\nsamples = 764\nvalue = [141, 156, 257, 44, 166]"] ;
9 -> 10 ;
11 [label="gini = 0.634\nsamples = 266\nvalue = [1, 61, 128, 0, 76]"] ;
9 -> 11 ;
12 [label="X[4] <= 0.5\ngini = 0.257\nsamples = 887\nvalue = [12, 43, 761, 11, 60]"] ;
8 -> 12 ;
13 [label="X[0] <= 0.5\ngini = 0.218\nsamples = 832\nvalue = [6, 34, 733, 3, 56]"] ;
12 -> 13 ;
14 [label="gini = 0.611\nsamples = 6\nvalue = [2, 3, 1, 0, 0]"] ;
13 -> 14 ;
15 [label="gini = 0.209\nsamples = 826\nvalue = [4, 31, 732, 3, 56]"] ;
13 -> 15 ;
16 [label="X[0] <= 0.5\ngini = 0.676\nsamples = 55\nvalue = [6, 9, 28, 8, 4]"] ;
12 -> 16 ;
17 [label="gini = 0.0\nsamples = 1\nvalue = [0, 1, 0, 0, 0]"] ;
16 -> 17 ;
18 [label="gini = 0.669\nsamples = 54\nvalue = [6, 8, 28, 8, 4]"] ;
16 -> 18 ;
}