digraph Tree {
node [shape=box] ;
0 [label="X[3] <= 0.5\ngini = 0.729\nsamples = 800\nvalue = [250, 135, 114, 282, 19]"] ;
1 [label="X[1] <= 0.5\ngini = 0.683\nsamples = 421\nvalue = [204, 61, 66, 80, 10]"] ;
0 -> 1 [labeldistance=2.5, labelangle=45, headlabel="True"] ;
2 [label="X[0] <= 0.5\ngini = 0.722\nsamples = 33\nvalue = [9, 6, 13, 4, 1]"] ;
1 -> 2 ;
3 [label="gini = 0.667\nsamples = 3\nvalue = [1, 1, 0, 1, 0]"] ;
2 -> 3 ;
4 [label="gini = 0.702\nsamples = 30\nvalue = [8, 5, 13, 3, 1]"] ;
2 -> 4 ;
5 [label="X[0] <= 0.5\ngini = 0.67\nsamples = 388\nvalue = [195, 55, 53, 76, 9]"] ;
1 -> 5 ;
6 [label="X[2] <= 0.5\ngini = 0.715\nsamples = 34\nvalue = [12, 12, 5, 4, 1]"] ;
5 -> 6 ;
7 [label="gini = 0.617\nsamples = 9\nvalue = [2, 5, 0, 1, 1]"] ;
6 -> 7 ;
8 [label="gini = 0.707\nsamples = 25\nvalue = [10, 7, 5, 3, 0]"] ;
6 -> 8 ;
9 [label="X[2] <= 0.5\ngini = 0.658\nsamples = 354\nvalue = [183, 43, 48, 72, 8]"] ;
5 -> 9 ;
10 [label="gini = 0.589\nsamples = 139\nvalue = [82, 18, 10, 28, 1]"] ;
9 -> 10 ;
11 [label="gini = 0.692\nsamples = 215\nvalue = [101, 25, 38, 44, 7]"] ;
9 -> 11 ;
12 [label="X[0] <= 0.5\ngini = 0.646\nsamples = 379\nvalue = [46, 74, 48, 202, 9]"] ;
0 -> 12 [labeldistance=2.5, labelangle=-45, headlabel="False"] ;
13 [label="X[1] <= 0.5\ngini = 0.746\nsamples = 65\nvalue = [14, 17, 6, 23, 5]"] ;
12 -> 13 ;
14 [label="gini = 0.56\nsamples = 5\nvalue = [3, 0, 1, 1, 0]"] ;
13 -> 14 ;
15 [label="X[2] <= 0.5\ngini = 0.738\nsamples = 60\nvalue = [11, 17, 5, 22, 5]"] ;
13 -> 15 ;
16 [label="gini = 0.756\nsamples = 22\nvalue = [5, 3, 2, 8, 4]"] ;
15 -> 16 ;
17 [label="gini = 0.697\nsamples = 38\nvalue = [6, 14, 3, 14, 1]"] ;
15 -> 17 ;
18 [label="X[1] <= 0.5\ngini = 0.614\nsamples = 314\nvalue = [32, 57, 42, 179, 4]"] ;
12 -> 18 ;
19 [label="gini = 0.63\nsamples = 25\nvalue = [1, 3, 10, 11, 0]"] ;
18 -> 19 ;
20 [label="X[2] <= 0.5\ngini = 0.603\nsamples = 289\nvalue = [31, 54, 32, 168, 4]"] ;
18 -> 20 ;
21 [label="gini = 0.588\nsamples = 115\nvalue = [12, 21, 10, 69, 3]"] ;
20 -> 21 ;
22 [label="gini = 0.612\nsamples = 174\nvalue = [19, 33, 22, 99, 1]"] ;
20 -> 22 ;
}