digraph Tree {
node [shape=box] ;
0 [label="X[1] <= 0.5\ngini = 0.634\nsamples = 35318\nvalue = [19483, 6683, 3731, 3993, 1428]"] ;
1 [label="X[2] <= 0.5\ngini = 0.614\nsamples = 27354\nvalue = [15902, 3355, 3215, 3544, 1338]"] ;
0 -> 1 [labeldistance=2.5, labelangle=45, headlabel="True"] ;
2 [label="X[0] <= 0.5\ngini = 0.542\nsamples = 21099\nvalue = [13746, 2548, 1485, 2247, 1073]"] ;
1 -> 2 ;
3 [label="gini = 0.351\nsamples = 4495\nvalue = [3590, 303, 243, 259, 100]"] ;
2 -> 3 ;
4 [label="X[4] <= 0.5\ngini = 0.584\nsamples = 16604\nvalue = [10156, 2245, 1242, 1988, 973]"] ;
2 -> 4 ;
5 [label="gini = 0.0\nsamples = 1\nvalue = [1, 0, 0, 0, 0]"] ;
4 -> 5 ;
6 [label="gini = 0.584\nsamples = 16603\nvalue = [10155, 2245, 1242, 1988, 973]"] ;
4 -> 6 ;
7 [label="X[0] <= 0.5\ngini = 0.743\nsamples = 6255\nvalue = [2156, 807, 1730, 1297, 265]"] ;
1 -> 7 ;
8 [label="gini = 0.731\nsamples = 2832\nvalue = [935, 386, 961, 450, 100]"] ;
7 -> 8 ;
9 [label="gini = 0.744\nsamples = 3423\nvalue = [1221, 421, 769, 847, 165]"] ;
7 -> 9 ;
10 [label="X[2] <= 0.5\ngini = 0.616\nsamples = 7964\nvalue = [3581, 3328, 516, 449, 90]"] ;
0 -> 10 [labeldistance=2.5, labelangle=-45, headlabel="False"] ;
11 [label="X[4] <= 0.5\ngini = 0.609\nsamples = 7580\nvalue = [3340, 3309, 403, 438, 90]"] ;
10 -> 11 ;
12 [label="gini = 0.565\nsamples = 27\nvalue = [0, 13, 0, 12, 2]"] ;
11 -> 12 ;
13 [label="X[0] <= 0.5\ngini = 0.608\nsamples = 7553\nvalue = [3340, 3296, 403, 426, 88]"] ;
11 -> 13 ;
14 [label="gini = 0.639\nsamples = 2046\nvalue = [827, 884, 92, 188, 55]"] ;
13 -> 14 ;
15 [label="gini = 0.595\nsamples = 5507\nvalue = [2513, 2412, 311, 238, 33]"] ;
13 -> 15 ;
16 [label="X[0] <= 0.5\ngini = 0.516\nsamples = 384\nvalue = [241, 19, 113, 11, 0]"] ;
10 -> 16 ;
17 [label="gini = 0.546\nsamples = 99\nvalue = [53, 0, 40, 6, 0]"] ;
16 -> 17 ;
18 [label="gini = 0.495\nsamples = 285\nvalue = [188, 19, 73, 5, 0]"] ;
16 -> 18 ;
}