digraph Tree {
node [shape=box] ;
0 [label="X[1] <= 0.5\ngini = 0.794\nsamples = 800\nvalue = [114, 169, 182, 188, 147]"] ;
1 [label="X[3] <= 0.5\ngini = 0.748\nsamples = 143\nvalue = [12, 46, 33, 41, 11]"] ;
0 -> 1 [labeldistance=2.5, labelangle=45, headlabel="True"] ;
2 [label="X[0] <= 0.5\ngini = 0.717\nsamples = 71\nvalue = [10, 8, 26, 24, 3]"] ;
1 -> 2 ;
3 [label="gini = 0.5\nsamples = 2\nvalue = [1, 0, 1, 0, 0]"] ;
2 -> 3 ;
4 [label="gini = 0.715\nsamples = 69\nvalue = [9, 8, 25, 24, 3]"] ;
2 -> 4 ;
5 [label="gini = 0.643\nsamples = 72\nvalue = [2, 38, 7, 17, 8]"] ;
1 -> 5 ;
6 [label="X[0] <= 0.5\ngini = 0.797\nsamples = 657\nvalue = [102, 123, 149, 147, 136]"] ;
0 -> 6 [labeldistance=2.5, labelangle=-45, headlabel="False"] ;
7 [label="X[4] <= 0.5\ngini = 0.781\nsamples = 60\nvalue = [12, 11, 8, 10, 19]"] ;
6 -> 7 ;
8 [label="X[2] <= 0.5\ngini = 0.754\nsamples = 34\nvalue = [4, 7, 5, 5, 13]"] ;
7 -> 8 ;
9 [label="gini = 0.0\nsamples = 1\nvalue = [0, 0, 0, 0, 1]"] ;
8 -> 9 ;
10 [label="gini = 0.762\nsamples = 33\nvalue = [4, 7, 5, 5, 12]"] ;
8 -> 10 ;
11 [label="gini = 0.778\nsamples = 26\nvalue = [8, 4, 3, 5, 6]"] ;
7 -> 11 ;
12 [label="X[4] <= 0.5\ngini = 0.795\nsamples = 597\nvalue = [90, 112, 141, 137, 117]"] ;
6 -> 12 ;
13 [label="X[2] <= 0.5\ngini = 0.797\nsamples = 255\nvalue = [42, 46, 54, 53, 60]"] ;
12 -> 13 ;
14 [label="gini = 0.79\nsamples = 37\nvalue = [7, 8, 5, 10, 7]"] ;
13 -> 14 ;
15 [label="gini = 0.795\nsamples = 218\nvalue = [35, 38, 49, 43, 53]"] ;
13 -> 15 ;
16 [label="X[2] <= 0.5\ngini = 0.79\nsamples = 342\nvalue = [48, 66, 87, 84, 57]"] ;
12 -> 16 ;
17 [label="gini = 0.782\nsamples = 39\nvalue = [7, 11, 9, 8, 4]"] ;
16 -> 17 ;
18 [label="gini = 0.789\nsamples = 303\nvalue = [41, 55, 78, 76, 53]"] ;
16 -> 18 ;
}