digraph Tree {
node [shape=box] ;
0 [label="X[1] <= 0.5\ngini = 0.758\nsamples = 12254\nvalue = [4082, 1967, 1997, 891, 3317]"] ;
1 [label="X[4] <= 0.5\ngini = 0.441\nsamples = 1793\nvalue = [63, 111, 261, 50, 1308]"] ;
0 -> 1 [labeldistance=2.5, labelangle=45, headlabel="True"] ;
2 [label="gini = 0.399\nsamples = 1655\nvalue = [41, 81, 226, 48, 1259]"] ;
1 -> 2 ;
3 [label="X[0] <= 0.5\ngini = 0.737\nsamples = 138\nvalue = [22, 30, 35, 2, 49]"] ;
1 -> 3 ;
4 [label="gini = 0.728\nsamples = 90\nvalue = [18, 16, 18, 2, 36]"] ;
3 -> 4 ;
5 [label="gini = 0.709\nsamples = 48\nvalue = [4, 14, 17, 0, 13]"] ;
3 -> 5 ;
6 [label="X[4] <= 0.5\ngini = 0.75\nsamples = 10461\nvalue = [4019, 1856, 1736, 841, 2009]"] ;
0 -> 6 [labeldistance=2.5, labelangle=-45, headlabel="False"] ;
7 [label="X[0] <= 0.5\ngini = 0.773\nsamples = 5253\nvalue = [1361, 1202, 877, 385, 1428]"] ;
6 -> 7 ;
8 [label="gini = 0.747\nsamples = 320\nvalue = [41, 122, 75, 28, 54]"] ;
7 -> 8 ;
9 [label="X[2] <= 0.5\ngini = 0.771\nsamples = 4933\nvalue = [1320, 1080, 802, 357, 1374]"] ;
7 -> 9 ;
10 [label="gini = 0.771\nsamples = 4932\nvalue = [1320, 1080, 801, 357, 1374]"] ;
9 -> 10 ;
11 [label="gini = 0.0\nsamples = 1\nvalue = [0, 0, 1, 0, 0]"] ;
9 -> 11 ;
12 [label="X[0] <= 0.5\ngini = 0.676\nsamples = 5208\nvalue = [2658, 654, 859, 456, 581]"] ;
6 -> 12 ;
13 [label="gini = 0.775\nsamples = 322\nvalue = [86, 87, 70, 27, 52]"] ;
12 -> 13 ;
14 [label="X[2] <= 0.5\ngini = 0.664\nsamples = 4886\nvalue = [2572, 567, 789, 429, 529]"] ;
12 -> 14 ;
15 [label="gini = 0.664\nsamples = 4882\nvalue = [2572, 567, 785, 429, 529]"] ;
14 -> 15 ;
16 [label="gini = 0.0\nsamples = 4\nvalue = [0, 0, 4, 0, 0]"] ;
14 -> 16 ;
}