digraph Tree {
node [shape=box] ;
0 [label="X[0] <= 0.5\ngini = 0.789\nsamples = 2400\nvalue = [346, 665, 403, 531, 455]"] ;
1 [label="X[1] <= 0.5\ngini = 0.788\nsamples = 596\nvalue = [98, 173, 90, 120, 115]"] ;
0 -> 1 [labeldistance=2.5, labelangle=45, headlabel="True"] ;
2 [label="X[2] <= 0.5\ngini = 0.791\nsamples = 164\nvalue = [26, 42, 23, 36, 37]"] ;
1 -> 2 ;
3 [label="X[4] <= 0.5\ngini = 0.791\nsamples = 74\nvalue = [12, 16, 11, 20, 15]"] ;
2 -> 3 ;
4 [label="gini = 0.789\nsamples = 57\nvalue = [11, 11, 7, 15, 13]"] ;
3 -> 4 ;
5 [label="gini = 0.754\nsamples = 17\nvalue = [1, 5, 4, 5, 2]"] ;
3 -> 5 ;
6 [label="X[3] <= 0.5\ngini = 0.783\nsamples = 90\nvalue = [14, 26, 12, 16, 22]"] ;
2 -> 6 ;
7 [label="gini = 0.79\nsamples = 23\nvalue = [4, 6, 3, 5, 5]"] ;
6 -> 7 ;
8 [label="gini = 0.779\nsamples = 67\nvalue = [10, 20, 9, 11, 17]"] ;
6 -> 8 ;
9 [label="X[2] <= 0.5\ngini = 0.786\nsamples = 432\nvalue = [72, 131, 67, 84, 78]"] ;
1 -> 9 ;
10 [label="X[4] <= 0.5\ngini = 0.774\nsamples = 93\nvalue = [12, 30, 18, 12, 21]"] ;
9 -> 10 ;
11 [label="gini = 0.76\nsamples = 63\nvalue = [7, 22, 12, 7, 15]"] ;
10 -> 11 ;
12 [label="gini = 0.793\nsamples = 30\nvalue = [5, 8, 6, 5, 6]"] ;
10 -> 12 ;
13 [label="X[4] <= 0.5\ngini = 0.786\nsamples = 339\nvalue = [60, 101, 49, 72, 57]"] ;
9 -> 13 ;
14 [label="gini = 0.791\nsamples = 172\nvalue = [29, 47, 28, 38, 30]"] ;
13 -> 14 ;
15 [label="gini = 0.778\nsamples = 167\nvalue = [31, 54, 21, 34, 27]"] ;
13 -> 15 ;
16 [label="X[3] <= 0.5\ngini = 0.789\nsamples = 1804\nvalue = [248, 492, 313, 411, 340]"] ;
0 -> 16 [labeldistance=2.5, labelangle=-45, headlabel="False"] ;
17 [label="X[1] <= 0.5\ngini = 0.788\nsamples = 835\nvalue = [107, 231, 159, 182, 156]"] ;
16 -> 17 ;
18 [label="X[2] <= 0.5\ngini = 0.797\nsamples = 196\nvalue = [34, 46, 44, 38, 34]"] ;
17 -> 18 ;
19 [label="gini = 0.765\nsamples = 28\nvalue = [3, 7, 9, 3, 6]"] ;
18 -> 19 ;
20 [label="gini = 0.797\nsamples = 168\nvalue = [31, 39, 35, 35, 28]"] ;
18 -> 20 ;
21 [label="X[2] <= 0.5\ngini = 0.784\nsamples = 639\nvalue = [73, 185, 115, 144, 122]"] ;
17 -> 21 ;
22 [label="gini = 0.786\nsamples = 185\nvalue = [23, 49, 37, 46, 30]"] ;
21 -> 22 ;
23 [label="gini = 0.781\nsamples = 454\nvalue = [50, 136, 78, 98, 92]"] ;
21 -> 23 ;
24 [label="X[1] <= 0.5\ngini = 0.789\nsamples = 969\nvalue = [141, 261, 154, 229, 184]"] ;
16 -> 24 ;
25 [label="X[2] <= 0.5\ngini = 0.783\nsamples = 256\nvalue = [27, 67, 45, 66, 51]"] ;
24 -> 25 ;
26 [label="gini = 0.791\nsamples = 68\nvalue = [10, 19, 13, 13, 13]"] ;
25 -> 26 ;
27 [label="gini = 0.777\nsamples = 188\nvalue = [17, 48, 32, 53, 38]"] ;
25 -> 27 ;
28 [label="X[2] <= 0.5\ngini = 0.79\nsamples = 713\nvalue = [114, 194, 109, 163, 133]"] ;
24 -> 28 ;
29 [label="gini = 0.791\nsamples = 182\nvalue = [29, 51, 30, 36, 36]"] ;
28 -> 29 ;
30 [label="gini = 0.789\nsamples = 531\nvalue = [85, 143, 79, 127, 97]"] ;
28 -> 30 ;
}