digraph Tree {
node [shape=box] ;
0 [label="X[4] <= 0.5\ngini = 0.763\nsamples = 15674\nvalue = [5394, 3133, 2780, 1187, 3180]"] ;
1 [label="X[2] <= 0.5\ngini = 0.773\nsamples = 8149\nvalue = [2049, 2034, 1317, 587, 2162]"] ;
0 -> 1 [labeldistance=2.5, labelangle=45, headlabel="True"] ;
2 [label="X[0] <= 0.5\ngini = 0.772\nsamples = 7987\nvalue = [2049, 1971, 1233, 587, 2147]"] ;
1 -> 2 ;
3 [label="gini = 0.765\nsamples = 254\nvalue = [35, 82, 44, 25, 68]"] ;
2 -> 3 ;
4 [label="gini = 0.771\nsamples = 7733\nvalue = [2014, 1889, 1189, 562, 2079]"] ;
2 -> 4 ;
5 [label="X[0] <= 0.5\ngini = 0.571\nsamples = 162\nvalue = [0, 63, 84, 0, 15]"] ;
1 -> 5 ;
6 [label="X[1] <= 0.5\ngini = 0.47\nsamples = 45\nvalue = [0, 30, 13, 0, 2]"] ;
5 -> 6 ;
7 [label="gini = 0.565\nsamples = 27\nvalue = [0, 13, 12, 0, 2]"] ;
6 -> 7 ;
8 [label="gini = 0.105\nsamples = 18\nvalue = [0, 17, 1, 0, 0]"] ;
6 -> 8 ;
9 [label="X[1] <= 0.5\ngini = 0.54\nsamples = 117\nvalue = [0, 33, 71, 0, 13]"] ;
5 -> 9 ;
10 [label="gini = 0.498\nsamples = 64\nvalue = [0, 19, 41, 0, 4]"] ;
9 -> 10 ;
11 [label="gini = 0.581\nsamples = 53\nvalue = [0, 14, 30, 0, 9]"] ;
9 -> 11 ;
12 [label="X[0] <= 0.5\ngini = 0.719\nsamples = 7525\nvalue = [3345, 1099, 1463, 600, 1018]"] ;
0 -> 12 [labeldistance=2.5, labelangle=-45, headlabel="False"] ;
13 [label="X[1] <= 0.5\ngini = 0.771\nsamples = 1199\nvalue = [260, 276, 261, 65, 337]"] ;
12 -> 13 ;
14 [label="gini = 0.692\nsamples = 399\nvalue = [92, 39, 84, 5, 179]"] ;
13 -> 14 ;
15 [label="X[2] <= 0.5\ngini = 0.775\nsamples = 800\nvalue = [168, 237, 177, 60, 158]"] ;
13 -> 15 ;
16 [label="gini = 0.776\nsamples = 785\nvalue = [168, 227, 172, 60, 158]"] ;
15 -> 16 ;
17 [label="gini = 0.444\nsamples = 15\nvalue = [0, 10, 5, 0, 0]"] ;
15 -> 17 ;
18 [label="X[2] <= 0.5\ngini = 0.69\nsamples = 6326\nvalue = [3085, 823, 1202, 535, 681]"] ;
12 -> 18 ;
19 [label="gini = 0.69\nsamples = 6311\nvalue = [3085, 815, 1197, 535, 679]"] ;
18 -> 19 ;
20 [label="X[1] <= 0.5\ngini = 0.587\nsamples = 15\nvalue = [0, 8, 5, 0, 2]"] ;
18 -> 20 ;
21 [label="gini = 0.408\nsamples = 7\nvalue = [0, 5, 0, 0, 2]"] ;
20 -> 21 ;
22 [label="gini = 0.469\nsamples = 8\nvalue = [0, 3, 5, 0, 0]"] ;
20 -> 22 ;
}