digraph Tree {
node [shape=box] ;
0 [label="X[2] <= 0.5\ngini = 0.647\nsamples = 9719\nvalue = [5263, 1367, 1218, 1463, 408]"] ;
1 [label="X[1] <= 0.5\ngini = 0.592\nsamples = 6654\nvalue = [3971, 1261, 465, 639, 318]"] ;
0 -> 1 [labeldistance=2.5, labelangle=45, headlabel="True"] ;
2 [label="X[0] <= 0.5\ngini = 0.542\nsamples = 5145\nvalue = [3351, 690, 338, 485, 281]"] ;
1 -> 2 ;
3 [label="gini = 0.307\nsamples = 1216\nvalue = [1006, 46, 89, 51, 24]"] ;
2 -> 3 ;
4 [label="X[3] <= 0.5\ngini = 0.596\nsamples = 3929\nvalue = [2345, 644, 249, 434, 257]"] ;
2 -> 4 ;
5 [label="gini = 0.597\nsamples = 3928\nvalue = [2344, 644, 249, 434, 257]"] ;
4 -> 5 ;
6 [label="gini = 0.0\nsamples = 1\nvalue = [1, 0, 0, 0, 0]"] ;
4 -> 6 ;
7 [label="X[3] <= 0.5\ngini = 0.67\nsamples = 1509\nvalue = [620, 571, 127, 154, 37]"] ;
1 -> 7 ;
8 [label="X[0] <= 0.5\ngini = 0.668\nsamples = 1499\nvalue = [620, 567, 127, 149, 36]"] ;
7 -> 8 ;
9 [label="gini = 0.661\nsamples = 1137\nvalue = [484, 427, 73, 122, 31]"] ;
8 -> 9 ;
10 [label="gini = 0.681\nsamples = 362\nvalue = [136, 140, 54, 27, 5]"] ;
8 -> 10 ;
11 [label="gini = 0.58\nsamples = 10\nvalue = [0, 4, 0, 5, 1]"] ;
7 -> 11 ;
12 [label="X[0] <= 0.5\ngini = 0.688\nsamples = 3065\nvalue = [1292, 106, 753, 824, 90]"] ;
0 -> 12 [labeldistance=2.5, labelangle=-45, headlabel="False"] ;
13 [label="X[1] <= 0.5\ngini = 0.614\nsamples = 527\nvalue = [268, 25, 181, 45, 8]"] ;
12 -> 13 ;
14 [label="X[4] <= 0.5\ngini = 0.629\nsamples = 447\nvalue = [224, 25, 146, 44, 8]"] ;
13 -> 14 ;
15 [label="gini = 0.0\nsamples = 1\nvalue = [0, 0, 1, 0, 0]"] ;
14 -> 15 ;
16 [label="gini = 0.629\nsamples = 446\nvalue = [224, 25, 145, 44, 8]"] ;
14 -> 16 ;
17 [label="gini = 0.506\nsamples = 80\nvalue = [44, 0, 35, 1, 0]"] ;
13 -> 17 ;
18 [label="X[1] <= 0.5\ngini = 0.69\nsamples = 2538\nvalue = [1024, 81, 572, 779, 82]"] ;
12 -> 18 ;
19 [label="X[4] <= 0.5\ngini = 0.694\nsamples = 2349\nvalue = [906, 81, 509, 772, 81]"] ;
18 -> 19 ;
20 [label="gini = 0.444\nsamples = 3\nvalue = [2, 0, 0, 0, 1]"] ;
19 -> 20 ;
21 [label="gini = 0.694\nsamples = 2346\nvalue = [904, 81, 509, 772, 80]"] ;
19 -> 21 ;
22 [label="gini = 0.498\nsamples = 189\nvalue = [118, 0, 63, 7, 1]"] ;
18 -> 22 ;
}