digraph Tree {
node [shape=box] ;
0 [label="X[4] <= 0.5\ngini = 0.721\nsamples = 800\nvalue = [260, 145, 98, 283, 14]"] ;
1 [label="X[0] <= 0.5\ngini = 0.589\nsamples = 342\nvalue = [46, 59, 29, 204, 4]"] ;
0 -> 1 [labeldistance=2.5, labelangle=45, headlabel="True"] ;
2 [label="X[1] <= 0.5\ngini = 0.726\nsamples = 56\nvalue = [17, 15, 4, 18, 2]"] ;
1 -> 2 ;
3 [label="gini = 0.375\nsamples = 4\nvalue = [3, 0, 0, 1, 0]"] ;
2 -> 3 ;
4 [label="X[2] <= 0.5\ngini = 0.73\nsamples = 52\nvalue = [14, 15, 4, 17, 2]"] ;
2 -> 4 ;
5 [label="gini = 0.717\nsamples = 25\nvalue = [6, 6, 1, 10, 2]"] ;
4 -> 5 ;
6 [label="gini = 0.722\nsamples = 27\nvalue = [8, 9, 3, 7, 0]"] ;
4 -> 6 ;
7 [label="X[1] <= 0.5\ngini = 0.535\nsamples = 286\nvalue = [29, 44, 25, 186, 2]"] ;
1 -> 7 ;
8 [label="gini = 0.745\nsamples = 23\nvalue = [5, 3, 8, 6, 1]"] ;
7 -> 8 ;
9 [label="X[2] <= 0.5\ngini = 0.495\nsamples = 263\nvalue = [24, 41, 17, 180, 1]"] ;
7 -> 9 ;
10 [label="gini = 0.526\nsamples = 120\nvalue = [14, 23, 4, 78, 1]"] ;
9 -> 10 ;
11 [label="gini = 0.462\nsamples = 143\nvalue = [10, 18, 13, 102, 0]"] ;
9 -> 11 ;
12 [label="X[1] <= 0.5\ngini = 0.693\nsamples = 458\nvalue = [214, 86, 69, 79, 10]"] ;
0 -> 12 [labeldistance=2.5, labelangle=-45, headlabel="False"] ;
13 [label="gini = 0.668\nsamples = 32\nvalue = [5, 7, 16, 3, 1]"] ;
12 -> 13 ;
14 [label="X[0] <= 0.5\ngini = 0.677\nsamples = 426\nvalue = [209, 79, 53, 76, 9]"] ;
12 -> 14 ;
15 [label="X[2] <= 0.5\ngini = 0.648\nsamples = 32\nvalue = [5, 17, 6, 3, 1]"] ;
14 -> 15 ;
16 [label="gini = 0.531\nsamples = 14\nvalue = [1, 9, 0, 3, 1]"] ;
15 -> 16 ;
17 [label="gini = 0.642\nsamples = 18\nvalue = [4, 8, 6, 0, 0]"] ;
15 -> 17 ;
18 [label="X[2] <= 0.5\ngini = 0.658\nsamples = 394\nvalue = [204, 62, 47, 73, 8]"] ;
14 -> 18 ;
19 [label="gini = 0.553\nsamples = 156\nvalue = [99, 22, 6, 23, 6]"] ;
18 -> 19 ;
20 [label="gini = 0.703\nsamples = 238\nvalue = [105, 40, 41, 50, 2]"] ;
18 -> 20 ;
}