digraph Tree {
node [shape=box] ;
0 [label="X[0] <= 0.5\ngini = 0.8\nsamples = 46400\nvalue = [9314, 9291, 9272, 9262, 9261]"] ;
1 [label="X[3] <= 0.5\ngini = 0.799\nsamples = 2794\nvalue = [616, 511, 564, 581, 522]"] ;
0 -> 1 [labeldistance=2.5, labelangle=45, headlabel="True"] ;
2 [label="X[1] <= 0.5\ngini = 0.799\nsamples = 2748\nvalue = [609, 501, 559, 570, 509]"] ;
1 -> 2 ;
3 [label="gini = 0.791\nsamples = 166\nvalue = [33, 24, 44, 37, 28]"] ;
2 -> 3 ;
4 [label="X[2] <= 0.5\ngini = 0.799\nsamples = 2582\nvalue = [576, 477, 515, 533, 481]"] ;
2 -> 4 ;
5 [label="gini = 0.799\nsamples = 914\nvalue = [207, 172, 177, 192, 166]"] ;
4 -> 5 ;
6 [label="gini = 0.799\nsamples = 1668\nvalue = [369, 305, 338, 341, 315]"] ;
4 -> 6 ;
7 [label="X[2] <= 0.5\ngini = 0.781\nsamples = 46\nvalue = [7, 10, 5, 11, 13]"] ;
1 -> 7 ;
8 [label="gini = 0.625\nsamples = 4\nvalue = [0, 1, 2, 1, 0]"] ;
7 -> 8 ;
9 [label="X[1] <= 0.5\ngini = 0.769\nsamples = 42\nvalue = [7, 9, 3, 10, 13]"] ;
7 -> 9 ;
10 [label="gini = 0.444\nsamples = 3\nvalue = [0, 1, 0, 2, 0]"] ;
9 -> 10 ;
11 [label="gini = 0.767\nsamples = 39\nvalue = [7, 8, 3, 8, 13]"] ;
9 -> 11 ;
12 [label="X[1] <= 0.5\ngini = 0.8\nsamples = 43606\nvalue = [8698, 8780, 8708, 8681, 8739]"] ;
0 -> 12 [labeldistance=2.5, labelangle=-45, headlabel="False"] ;
13 [label="X[4] <= 0.5\ngini = 0.8\nsamples = 14712\nvalue = [2945, 2927, 2970, 2879, 2991]"] ;
12 -> 13 ;
14 [label="gini = 0.785\nsamples = 49\nvalue = [6, 10, 14, 11, 8]"] ;
13 -> 14 ;
15 [label="gini = 0.8\nsamples = 14663\nvalue = [2939, 2917, 2956, 2868, 2983]"] ;
13 -> 15 ;
16 [label="X[2] <= 0.5\ngini = 0.8\nsamples = 28894\nvalue = [5753, 5853, 5738, 5802, 5748]"] ;
12 -> 16 ;
17 [label="X[3] <= 0.5\ngini = 0.8\nsamples = 3254\nvalue = [662, 674, 655, 632, 631]"] ;
16 -> 17 ;
18 [label="gini = 0.8\nsamples = 3002\nvalue = [622, 622, 598, 578, 582]"] ;
17 -> 18 ;
19 [label="gini = 0.797\nsamples = 252\nvalue = [40, 52, 57, 54, 49]"] ;
17 -> 19 ;
20 [label="X[3] <= 0.5\ngini = 0.8\nsamples = 25640\nvalue = [5091, 5179, 5083, 5170, 5117]"] ;
16 -> 20 ;
21 [label="gini = 0.8\nsamples = 25141\nvalue = [4989, 5074, 4982, 5079, 5017]"] ;
20 -> 21 ;
22 [label="gini = 0.8\nsamples = 499\nvalue = [102, 105, 101, 91, 100]"] ;
20 -> 22 ;
}