digraph Tree {
node [shape=box] ;
0 [label="X[3] <= 0.5\ngini = 0.8\nsamples = 8800\nvalue = [1767, 1735, 1725, 1759, 1814]"] ;
1 [label="X[0] <= 0.5\ngini = 0.8\nsamples = 6040\nvalue = [1232, 1156, 1205, 1207, 1240]"] ;
0 -> 1 [labeldistance=2.5, labelangle=45, headlabel="True"] ;
2 [label="X[2] <= 0.5\ngini = 0.8\nsamples = 1807\nvalue = [371, 348, 381, 336, 371]"] ;
1 -> 2 ;
3 [label="gini = 0.782\nsamples = 33\nvalue = [10, 4, 7, 6, 6]"] ;
2 -> 3 ;
4 [label="X[1] <= 0.5\ngini = 0.8\nsamples = 1774\nvalue = [361, 344, 374, 330, 365]"] ;
2 -> 4 ;
5 [label="gini = 0.799\nsamples = 371\nvalue = [71, 70, 75, 74, 81]"] ;
4 -> 5 ;
6 [label="gini = 0.799\nsamples = 1403\nvalue = [290, 274, 299, 256, 284]"] ;
4 -> 6 ;
7 [label="X[1] <= 0.5\ngini = 0.8\nsamples = 4233\nvalue = [861, 808, 824, 871, 869]"] ;
1 -> 7 ;
8 [label="gini = 0.799\nsamples = 1475\nvalue = [300, 288, 268, 308, 311]"] ;
7 -> 8 ;
9 [label="X[2] <= 0.5\ngini = 0.8\nsamples = 2758\nvalue = [561, 520, 556, 563, 558]"] ;
7 -> 9 ;
10 [label="gini = 0.8\nsamples = 306\nvalue = [62, 59, 62, 61, 62]"] ;
9 -> 10 ;
11 [label="gini = 0.8\nsamples = 2452\nvalue = [499, 461, 494, 502, 496]"] ;
9 -> 11 ;
12 [label="X[2] <= 0.5\ngini = 0.8\nsamples = 2760\nvalue = [535, 579, 520, 552, 574]"] ;
0 -> 12 [labeldistance=2.5, labelangle=-45, headlabel="False"] ;
13 [label="X[0] <= 0.5\ngini = 0.794\nsamples = 148\nvalue = [30, 38, 23, 32, 25]"] ;
12 -> 13 ;
14 [label="gini = 0.64\nsamples = 5\nvalue = [2, 1, 0, 2, 0]"] ;
13 -> 14 ;
15 [label="gini = 0.794\nsamples = 143\nvalue = [28, 37, 23, 30, 25]"] ;
13 -> 15 ;
16 [label="X[0] <= 0.5\ngini = 0.8\nsamples = 2612\nvalue = [505, 541, 497, 520, 549]"] ;
12 -> 16 ;
17 [label="X[1] <= 0.5\ngini = 0.799\nsamples = 673\nvalue = [144, 135, 122, 139, 133]"] ;
16 -> 17 ;
18 [label="gini = 0.8\nsamples = 363\nvalue = [78, 73, 69, 72, 71]"] ;
17 -> 18 ;
19 [label="gini = 0.799\nsamples = 310\nvalue = [66, 62, 53, 67, 62]"] ;
17 -> 19 ;
20 [label="X[1] <= 0.5\ngini = 0.799\nsamples = 1939\nvalue = [361, 406, 375, 381, 416]"] ;
16 -> 20 ;
21 [label="gini = 0.798\nsamples = 647\nvalue = [109, 147, 132, 121, 138]"] ;
20 -> 21 ;
22 [label="gini = 0.8\nsamples = 1292\nvalue = [252, 259, 243, 260, 278]"] ;
20 -> 22 ;
}