digraph Tree {
node [shape=box] ;
0 [label="X[3] <= 0.5\ngini = 0.216\nsamples = 21765\nvalue = [1041, 1400, 19191, 133]"] ;
1 [label="X[0] <= 0.5\ngini = 0.214\nsamples = 19920\nvalue = [942, 1271, 17584, 123]"] ;
0 -> 1 [labeldistance=2.5, labelangle=45, headlabel="True"] ;
2 [label="gini = 0.216\nsamples = 4412\nvalue = [199, 295, 3889, 29]"] ;
1 -> 2 ;
3 [label="gini = 0.214\nsamples = 15508\nvalue = [743, 976, 13695, 94]"] ;
1 -> 3 ;
4 [label="gini = 0.234\nsamples = 1845\nvalue = [99, 129, 1607, 10]"] ;
0 -> 4 [labeldistance=2.5, labelangle=-45, headlabel="False"] ;
}