digraph Tree {
node [shape=box] ;
0 [label="X[0] <= 0.5\ngini = 0.765\nsamples = 28800\nvalue = [8593, 6024, 6180, 6692, 1311]"] ;
1 [label="X[3] <= 0.5\ngini = 0.696\nsamples = 3969\nvalue = [1866, 621, 787, 526, 169]"] ;
0 -> 1 [labeldistance=2.5, labelangle=45, headlabel="True"] ;
2 [label="X[1] <= 0.5\ngini = 0.687\nsamples = 3782\nvalue = [1827, 579, 757, 456, 163]"] ;
1 -> 2 ;
3 [label="gini = 0.662\nsamples = 2886\nvalue = [1478, 422, 601, 289, 96]"] ;
2 -> 3 ;
4 [label="X[2] <= 0.5\ngini = 0.747\nsamples = 896\nvalue = [349, 157, 156, 167, 67]"] ;
2 -> 4 ;
5 [label="gini = 0.748\nsamples = 845\nvalue = [328, 146, 153, 154, 64]"] ;
4 -> 5 ;
6 [label="gini = 0.712\nsamples = 51\nvalue = [21, 11, 3, 13, 3]"] ;
4 -> 6 ;
7 [label="X[1] <= 0.5\ngini = 0.739\nsamples = 187\nvalue = [39, 42, 30, 70, 6]"] ;
1 -> 7 ;
8 [label="gini = 0.757\nsamples = 136\nvalue = [37, 31, 28, 37, 3]"] ;
7 -> 8 ;
9 [label="X[2] <= 0.5\ngini = 0.528\nsamples = 51\nvalue = [2, 11, 2, 33, 3]"] ;
7 -> 9 ;
10 [label="gini = 0.55\nsamples = 40\nvalue = [2, 9, 1, 25, 3]"] ;
9 -> 10 ;
11 [label="gini = 0.43\nsamples = 11\nvalue = [0, 2, 1, 8, 0]"] ;
9 -> 11 ;
12 [label="X[4] <= 0.5\ngini = 0.768\nsamples = 24831\nvalue = [6727, 5403, 5393, 6166, 1142]"] ;
0 -> 12 [labeldistance=2.5, labelangle=-45, headlabel="False"] ;
13 [label="X[1] <= 0.5\ngini = 0.575\nsamples = 955\nvalue = [116, 89, 130, 590, 30]"] ;
12 -> 13 ;
14 [label="gini = 0.621\nsamples = 655\nvalue = [91, 67, 109, 371, 17]"] ;
13 -> 14 ;
15 [label="X[2] <= 0.5\ngini = 0.448\nsamples = 300\nvalue = [25, 22, 21, 219, 13]"] ;
13 -> 15 ;
16 [label="gini = 0.469\nsamples = 244\nvalue = [24, 20, 16, 174, 10]"] ;
15 -> 16 ;
17 [label="gini = 0.342\nsamples = 56\nvalue = [1, 2, 5, 45, 3]"] ;
15 -> 17 ;
18 [label="X[2] <= 0.5\ngini = 0.768\nsamples = 23876\nvalue = [6611, 5314, 5263, 5576, 1112]"] ;
12 -> 18 ;
19 [label="gini = 0.757\nsamples = 7091\nvalue = [2047, 2162, 876, 1538, 468]"] ;
18 -> 19 ;
20 [label="X[1] <= 0.5\ngini = 0.763\nsamples = 16785\nvalue = [4564, 3152, 4387, 4038, 644]"] ;
18 -> 20 ;
21 [label="gini = 0.763\nsamples = 16366\nvalue = [4423, 3078, 4314, 3921, 630]"] ;
20 -> 21 ;
22 [label="gini = 0.746\nsamples = 419\nvalue = [141, 74, 73, 117, 14]"] ;
20 -> 22 ;
}