digraph Tree {
node [shape=box] ;
0 [label="X[4] <= 0.5\ngini = 0.79\nsamples = 2400\nvalue = [371, 674, 420, 509, 426]"] ;
1 [label="X[2] <= 0.5\ngini = 0.788\nsamples = 1447\nvalue = [241, 422, 249, 299, 236]"] ;
0 -> 1 [labeldistance=2.5, labelangle=45, headlabel="True"] ;
2 [label="X[1] <= 0.5\ngini = 0.783\nsamples = 457\nvalue = [59, 138, 84, 98, 78]"] ;
1 -> 2 ;
3 [label="X[0] <= 0.5\ngini = 0.776\nsamples = 129\nvalue = [20, 36, 15, 37, 21]"] ;
2 -> 3 ;
4 [label="gini = 0.781\nsamples = 62\nvalue = [10, 17, 8, 17, 10]"] ;
3 -> 4 ;
5 [label="gini = 0.77\nsamples = 67\nvalue = [10, 19, 7, 20, 11]"] ;
3 -> 5 ;
6 [label="X[0] <= 0.5\ngini = 0.78\nsamples = 328\nvalue = [39, 102, 69, 61, 57]"] ;
2 -> 6 ;
7 [label="gini = 0.769\nsamples = 88\nvalue = [9, 30, 16, 15, 18]"] ;
6 -> 7 ;
8 [label="gini = 0.782\nsamples = 240\nvalue = [30, 72, 53, 46, 39]"] ;
6 -> 8 ;
9 [label="X[1] <= 0.5\ngini = 0.789\nsamples = 990\nvalue = [182, 284, 165, 201, 158]"] ;
1 -> 9 ;
10 [label="X[0] <= 0.5\ngini = 0.791\nsamples = 272\nvalue = [50, 74, 45, 60, 43]"] ;
9 -> 10 ;
11 [label="gini = 0.788\nsamples = 80\nvalue = [15, 22, 17, 16, 10]"] ;
10 -> 11 ;
12 [label="gini = 0.79\nsamples = 192\nvalue = [35, 52, 28, 44, 33]"] ;
10 -> 12 ;
13 [label="X[0] <= 0.5\ngini = 0.789\nsamples = 718\nvalue = [132, 210, 120, 141, 115]"] ;
9 -> 13 ;
14 [label="gini = 0.787\nsamples = 200\nvalue = [35, 59, 32, 42, 32]"] ;
13 -> 14 ;
15 [label="gini = 0.789\nsamples = 518\nvalue = [97, 151, 88, 99, 83]"] ;
13 -> 15 ;
16 [label="X[2] <= 0.5\ngini = 0.791\nsamples = 953\nvalue = [130, 252, 171, 210, 190]"] ;
0 -> 16 [labeldistance=2.5, labelangle=-45, headlabel="False"] ;
17 [label="X[0] <= 0.5\ngini = 0.792\nsamples = 251\nvalue = [35, 54, 44, 64, 54]"] ;
16 -> 17 ;
18 [label="X[1] <= 0.5\ngini = 0.775\nsamples = 71\nvalue = [8, 14, 10, 22, 17]"] ;
17 -> 18 ;
19 [label="gini = 0.777\nsamples = 35\nvalue = [6, 6, 4, 11, 8]"] ;
18 -> 19 ;
20 [label="gini = 0.764\nsamples = 36\nvalue = [2, 8, 6, 11, 9]"] ;
18 -> 20 ;
21 [label="X[1] <= 0.5\ngini = 0.796\nsamples = 180\nvalue = [27, 40, 34, 42, 37]"] ;
17 -> 21 ;
22 [label="gini = 0.794\nsamples = 40\nvalue = [8, 9, 10, 6, 7]"] ;
21 -> 22 ;
23 [label="gini = 0.791\nsamples = 140\nvalue = [19, 31, 24, 36, 30]"] ;
21 -> 23 ;
24 [label="X[1] <= 0.5\ngini = 0.789\nsamples = 702\nvalue = [95, 198, 127, 146, 136]"] ;
16 -> 24 ;
25 [label="X[0] <= 0.5\ngini = 0.777\nsamples = 197\nvalue = [24, 64, 32, 36, 41]"] ;
24 -> 25 ;
26 [label="gini = 0.739\nsamples = 42\nvalue = [2, 14, 4, 10, 12]"] ;
25 -> 26 ;
27 [label="gini = 0.78\nsamples = 155\nvalue = [22, 50, 28, 26, 29]"] ;
25 -> 27 ;
28 [label="X[0] <= 0.5\ngini = 0.792\nsamples = 505\nvalue = [71, 134, 95, 110, 95]"] ;
24 -> 28 ;
29 [label="gini = 0.779\nsamples = 134\nvalue = [21, 41, 33, 21, 18]"] ;
28 -> 29 ;
30 [label="gini = 0.79\nsamples = 371\nvalue = [50, 93, 62, 89, 77]"] ;
28 -> 30 ;
}